-0.025004 0.022504 0.091996 0.056215 0.129045 0.139489 0.234491 -0.045829 0.020036 0.093613 -0.006093 -0.000336 0.038212 -0.160102 -0.022401 0.084012 0.104898 0.158350 0.032171 -0.253178 0.062184 0.067932 0.002107 -0.001190 -0.058798 0.060403 -0.134512 -0.139702 0.091866 0.011949 0.064605 0.311831 0.002483 0.027933 -0.000121 -0.000784 0.002612 -0.038069 0.151839 -0.097903 0.107589 -0.079900 -0.026414 0.114342 -0.000027 0.026399 -0.031215 -0.051763 -0.025124 -0.004958
0.115662 0.098417 -0.020381 -0.048728 0.030643 0.007433 -0.138569 0.147131 0.080887 -0.006754 -0.001037 0.163792 0.000002 -0.138829 0.226634 -0.122964 -0.031804 -0.025113 0.075621 -0.164296 -0.007028 0.192736 0.045748 -0.115747 -0.027273 0.114292 0.366869 0.032595 -0.010420 0.251180 0.004463 -0.022775 -0.051480 -0.015474 0.000128 -0.051513 0.080654 -0.057796 -0.003455 0.025585 -0.175655 0.253112 0.088751 0.086883 0.003840 0.297095 0.108701 0.113445 0.001507 0.051646
-0.286556 0.056106 -0.025453 -0.090716 0.038399 -0.097586 0.005541 -0.046446 -0.064080 -0.078213 -0.056435 0.091995 -0.127304 -0.056832 -0.207398 0.248937 -0.023024 0.153627 0.003779 0.051802 -0.044842 -0.175826 0.111597 -0.203007 -0.096192 -0.027691 0.027072 -0.055253 -0.010522 0.030948 -0.085854 -0.191037 0.016254 -0.020575 0.082473 0.138893 -0.066731 0.086828 0.080814 -0.075756 -0.154662 -0.132812 -0.032403 0.082450 0.012055 0.015259 -0.000754 0.027144 -0.073272 -0.149178
0.128868 -0.021839 -0.000029 0.111042 0.132961 -0.019399 -0.175117 0.047647 0.022524 0.006616 0.198603 -0.031877 0.099561 -0.118927 -0.091792 -0.145380 -0.243021 -0.057625 -0.104887 0.207861 0.034944 -0.100670 0.012449 -0.029089 -0.035460 -0.051518 0.200199 0.008360 -0.005653 -0.018399 0.148973 -0.044580 -0.029121 0.038148 0.015909 0.098433 0.000302 -0.013388 0.002690 0.047166 0.201526 -0.001868 0.023541 0.136552 0.000036 -0.044385 -0.000922 -0.036832 0.108937 0.206224
0.178607 -0.009847 -0.092262 0.052248 -0.049932 -0.064478 0.201850 0.158036 -0.083318 0.111700 -0.015589 0.039684 -0.038480 -0.098169 0.001244 -0.140444 0.072472 0.009634 -0.075929 -0.013757 -0.081623 0.100021 -0.020015 -0.178304 -0.185519 -0.025389 0.094047 0.176552 -0.054357 0.151979 -0.090114 0.016652 -0.007547 0.005129 -0.046134 0.135367 -0.132905 -0.047417 0.087470 -0.076464 0.024897 0.025893 -0.020054 -0.059818 -0.013207 -0.073750 0.060364 -0.159435 -0.077871 0.099599
0.030737 0.062577 0.003205 0.159273 -0.119102 0.001242 -0.001908 0.122626 0.133668 -0.019117 -0.040646 -0.000045 -0.042916 0.154282 -0.070939 0.123594 -0.157768 -0.070413 0.020812 0.158443 0.062540 0.023463 -0.038849 0.013034 0.084311 0.113472 0.007904 -0.094316 -0.055270 -0.099829 -0.166357 -0.019174 0.158257 -0.012519 0.051269 0.155332 0.150396 0.051064 0.068099 -0.053448 -0.053119 -0.028038 -0.026808 -0.005803 -0.111481 0.092139 0.167754 0.130886 0.062201 0.115596
0.061529 -0.100048 -0.012877 0.174257 0.006079 -0.024195 -0.028430 -0.016799 0.050971 -0.000386 -0.019573 -0.001595 -0.098345 0.136041 -0.050420 -0.155769 -0.111893 -0.176995 -0.027618 -0.058395 -0.025304 -0.006086 0.176740 0.055670 0.098566 -0.078308 0.031019 0.070745 0.005642 -0.131287 0.016860 -0.125806 -0.049900 0.068691 -0.010145 -0.131562 -0.028988 -0.142006 0.105621 -0.101910 0.138054 -0.087259 -0.031830 -0.077736 -0.096558 -0.019175 -0.057986 -0.204719 0.097253 -0.009922
0.126752 0.026163 0.108431 -0.271847 0.137328 0.003284 -0.047844 -0.047466 -0.144559 -0.027211 -0.157034 -0.000367 -0.042904 0.038002 0.002163 0.003360 -0.155530 0.036716 0.146979 -0.026912 -0.057744 -0.136393 -0.004126 0.014009 0.051536 0.074358 0.048595 0.036874 -0.175596 0.095246 -0.041383 0.079421 0.025800 -0.013639 -0.000170 0.176877 0.052891 -0.046774 -0.022584 -0.095885 -0.031528 0.078604 -0.032460 0.099246 -0.015050 0.031260 -0.115897 0.050173 -0.040901 -0.147809
-0.071208 -0.047663 0.000117 -0.080322 0.095701 -0.042876 -0.151297 -0.032978 0.129226 -0.112650 -0.024779 0.076322 0.035693 -0.039245 0.119437 -0.143720 -0.210409 0.152410 -0.002186 0.142621 -0.015950 -0.037826 -0.062197 -0.041673 0.012801 -0.053977 0.101271 0.153711 -0.060134 0.150877 -0.032247 0.064594 -0.047018 0.019215 -0.053327 0.125636 0.021128 -0.194601 -0.050052 -0.032506 -0.144620 0.061738 -0.110313 -0.053101 -0.037448 -0.155951 -0.000670 0.048530 -0.064822 -0.086577
-0.005473 -0.035182 0.042793 -0.042911 0.063958 0.000192 0.073741 0.030752 -0.030506 -0.005355 -0.001771 -0.000213 -0.004483 -0.019339 -0.052069 0.129492 0.050629 0.002788 0.034210 0.111749 0.179340 -0.162962 0.042065 0.083318 -0.053729 -0.055816 -0.055050 0.027948 -0.002988 -0.019721 0.032226 0.183273 -0.017839 -0.028276 0.000000 -0.144912 0.002672 -0.010840 -0.024892 0.115064 -0.098658 -0.016813 -0.001134 -0.132054 -0.000000 0.007893 -0.018641 0.016147 0.002370 -0.086942
0.169511 -0.091995 -0.006125 0.119896 -0.002463 0.112449 -0.017818 -0.016080 -0.096397 -0.006075 0.131034 -0.000000 -0.069253 -0.202362 -0.021322 0.108000 0.059247 -0.192608 0.036666 0.216989 -0.117762 0.080789 0.008759 0.062238 0.069074 -0.004554 0.107340 0.031537 -0.001284 -0.143743 -0.081962 0.115278 -0.026697 0.001824 0.000000 -0.048242 0.039874 -0.017927 0.084942 -0.017091 0.112748 -0.015726 0.064178 0.152831 -0.090226 -0.077813 0.142089 0.000203 0.112906 0.009209
-0.099811 -0.159383 0.042300 0.097651 0.065064 0.104000 -0.022130 0.084869 0.109017 0.110732 0.016382 0.023715 0.032369 -0.033990 -0.047257 0.027815 0.012060 -0.098441 0.098826 0.034099 -0.177684 -0.045435 0.039120 -0.049855 0.106217 0.049330 -0.120866 0.055489 -0.010393 -0.082500 -0.096812 0.012612 0.076487 0.150915 0.001774 -0.039295 0.040943 -0.071690 0.021649 -0.015477 0.166228 -0.028523 -0.046138 0.057472 -0.141183 -0.072507 0.069325 -0.060151 -0.099218 -0.174926
0.032941 -0.225092 -0.282479 -0.136283 0.031441 -0.004967 0.017510 -0.104914 -0.288987 -0.222927 -0.145157 -0.260132 -0.142638 0.081342 -0.020729 -0.124258 -0.128722 -0.019031 0.064757 -0.070798 0.037311 -0.093985 -0.047982 0.029270 -0.298043 -0.303097 -0.241517 -0.166713 -0.098919 -0.203117 -0.286403 -0.201697 -0.262115 -0.137624 -0.033473 -0.012815 -0.059775 -0.371970 -0.121904 -0.226184 -0.209788 -0.000620 -0.119561 0.103043 -0.317890 0.036358 -0.229510 0.073211 -0.202537 -0.080096
-0.080331 0.071551 -0.009735 -0.095453 -0.081815 -0.058247 -0.201105 -0.061215 0.014075 0.090247 -0.016592 -0.010901 -0.067249 0.062528 0.007582 -0.074819 -0.151752 -0.037853 0.061223 0.077719 0.030071 0.120271 0.137004 -0.139429 0.136319 -0.160617 0.014651 -0.092607 -0.037569 -0.026315 0.082742 -0.205995 0.129235 -0.151602 -0.035897 -0.057660 -0.031851 -0.164768 0.147364 -0.115282 0.039629 -0.132303 0.064685 0.214556 0.002010 -0.055086 0.061354 0.080363 0.047188 -0.081772
-0.074440 -0.067629 -0.028582 0.132756 -0.091505 -0.000000 -0.107337 0.070752 0.041905 -0.022614 0.015179 -0.000029 -0.040606 -0.016371 -0.108723 0.214128 -0.096236 0.057725 0.185837 -0.014119 0.134086 -0.133511 0.049815 -0.110129 0.052850 0.156777 0.024712 0.070822 -0.050536 -0.028525 -0.101343 -0.007507 -0.070934 -0.028033 -0.023149 -0.044079 0.014742 0.096309 -0.058160 0.005061 -0.018647 0.117449 -0.088727 0.087197 -0.009831 -0.073314 0.137510 -0.080646 -0.040376 0.106950
-0.171685 -0.069357 0.139540 0.078481 -0.106025 0.122337 -0.092393 -0.056781 0.064726 0.119838 0.070842 -0.010301 -0.005766 -0.013018 -0.191916 -0.077969 0.131752 -0.081316 -0.001028 0.022628 0.179444 -0.058206 0.168944 0.132440 -0.125606 -0.114173 -0.250202 -0.098923 0.139836 -0.026959 0.028062 0.044995 -0.139025 0.086744 0.000714 -0.122395 0.138800 0.062635 -0.077304 0.081268 0.003909 -0.124656 -0.009615 -0.060144 -0.000051 -0.023933 -0.045685 0.089864 0.010642 -0.114356
0.017836 -0.020446 0.056281 -0.088742 -0.010069 -0.024470 -0.061626 0.116214 -0.073165 -0.084540 -0.097956 -0.003381 0.092336 0.020227 0.104934 -0.117581 -0.282892 0.058239 0.148469 -0.087856 -0.071504 0.016476 -0.108827 0.078566 0.060394 0.088933 0.025262 0.055543 -0.068189 -0.103482 0.046529 -0.108824 -0.153872 0.142023 -0.027825 0.152343 -0.123690 -0.023671 -0.107175 0.130334 0.022907 -0.187728 0.022150 0.106220 0.001903 -0.298311 0.158880 -0.184334 0.014310 0.012499
0.133145 -0.095638 -0.000000 -0.141549 -0.058382 -0.187482 -0.194176 -0.012725 -0.030955 0.135868 -0.004714 -0.000000 -0.006332 0.026858 0.120500 0.190527 0.184217 -0.022814 0.076493 0.104627 0.107470 0.100101 -0.000000 -0.043434 0.123311 0.047715 -0.182922 0.000005 -0.000000 -0.002336 0.010432 0.081760 0.020723 -0.041303 -0.011594 0.125904 -0.140732 -0.046787 -0.003727 0.077013 0.069736 0.000457 0.118781 0.100963 -0.000024 0.068244 -0.023046 0.294055 -0.048547 -0.019416
-0.157624 -0.008990 -0.077908 0.025040 0.039508 -0.043087 -0.225131 0.152225 0.105989 -0.068455 0.099148 -0.056366 0.052402 -0.001281 -0.027236 -0.013283 -0.026126 0.158806 -0.255853 -0.005816 -0.053026 0.012292 -0.018010 -0.036302 -0.031301 -0.064891 0.036651 -0.153630 -0.068224 -0.112803 0.197839 0.136173 -0.023857 -0.160008 0.002469 0.068432 0.038841 0.081329 -0.036808 -0.108205 0.195436 0.160817 0.128422 -0.123907 0.158517 0.017265 0.083584 -0.126146 0.077763 -0.038625
-0.099826 0.165336 0.078901 0.102838 -0.172680 -0.167505 -0.254608 0.136415 0.113225 -0.004617 -0.017442 -0.191057 -0.047131 -0.173591 0.178900 0.058516 0.148266 -0.011142 -0.054753 -0.039150 -0.076198 -0.165970 0.046219 0.021448 -0.005811 -0.083908 -0.086864 -0.099855 -0.007375 -0.072974 0.134713 0.207899 -0.054767 -0.099499 0.022645 0.200109 0.194866 0.147537 -0.030391 -0.173731 -0.213986 -0.088829 -0.090571 -0.137330 -0.101346 -0.133093 -0.036284 -0.202066 0.037191 -0.066888
0.021262 0.127196 -0.061938 0.146561 -0.108897 0.000000 -0.048900 0.087681 0.039969 0.064895 0.062618 -0.000019 -0.002416 0.048823 -0.058966 -0.032648 0.083815 -0.111391 -0.110260 0.070725 -0.130625 0.099767 0.021317 -0.194583 -0.108981 0.158466 0.096258 0.082791 -0.000186 -0.059716 0.034494 -0.058678 -0.111941 -0.107648 -0.013003 -0.227848 -0.011963 -0.120674 -0.018175 0.012861 0.122394 0.053897 0.070365 0.052954 0.076381 -0.010855 -0.075796 -0.024661 0.069214 -0.013031
0.130230 0.054618 -0.154107 0.128840 -0.112456 -0.151721 -0.002371 -0.001243 -0.080732 -0.000009 -0.014727 0.195785 0.096387 -0.154363 -0.011694 -0.106258 -0.024443 -0.071943 -0.050788 0.070891 0.070156 -0.062154 -0.064895 0.147508 0.067520 0.121108 -0.020570 0.129238 -0.101723 -0.117976 -0.122552 -0.071851 0.139521 -0.020410 0.108043 -0.219233 -0.127413 0.067259 -0.035317 -0.068753 0.078447 0.047451 -0.006226 -0.113111 -0.009960 0.185705 0.051226 -0.022423 0.010733 0.039317
0.014741 -0.038676 0.091085 -0.101618 -0.029718 0.036559 -0.027384 0.055321 0.073688 -0.076029 -0.022079 -0.011688 0.026176 0.155297 0.020721 -0.045589 -0.187894 -0.166272 0.139382 0.058080 -0.009690 -0.029254 -0.020596 -0.043261 0.027797 0.108104 -0.038103 -0.012556 -0.095794 -0.030564 -0.134712 -0.052384 -0.104159 -0.123202 -0.010786 0.011383 -0.000450 -0.046342 0.033405 0.085088 0.041089 -0.012661 0.058977 0.200436 0.000262 -0.015002 -0.040667 -0.014502 0.054886 0.138891
0.087280 -0.028491 -0.050302 -0.095123 -0.156543 0.081433 0.085400 0.123981 0.135280 0.030759 -0.024612 -0.015773 0.036020 0.292565 -0.212335 -0.073691 -0.040622 -0.001102 0.093265 0.025157 -0.000662 0.109361 -0.032177 -0.052824 -0.087335 -0.103803 -0.006280 0.094205 -0.001261 -0.088135 0.008075 0.036010 0.062987 0.084851 0.037559 0.058838 0.039039 0.110623 0.024231 0.069941 -0.080926 -0.005339 0.113476 -0.025400 0.117544 -0.236193 -0.085013 -0.099421 -0.150061 0.103296
0.155834 0.128649 0.000780 -0.137749 -0.082445 -0.133644 -0.168404 -0.023606 0.107115 0.075170 0.053319 -0.039931 -0.227004 -0.084688 -0.147035 -0.255837 -0.002347 -0.138103 -0.045489 -0.146894 0.042056 0.174059 -0.031476 0.083518 0.051398 -0.125583 0.053878 -0.017351 -0.001490 0.120342 -0.212225 -0.109427 0.021972 -0.153394 0.025770 0.161676 0.072572 0.042380 0.007715 0.027360 -0.106209 -0.004281 0.025456 0.014034 -0.079269 0.049602 0.052519 -0.030563 0.047206 -0.137644
-0.201931 -0.151062 -0.007295 0.209188 -0.163714 -0.108134 0.046182 0.139305 -0.154200 -0.072882 0.095459 -0.040793 -0.154428 0.021241 0.129540 -0.060795 -0.043149 0.099608 -0.349977 -0.245351 -0.139823 -0.064463 -0.013756 0.133769 0.028816 -0.010592 0.107091 0.128808 -0.033156 -0.041828 -0.026481 -0.171977 0.127034 -0.042532 -0.054468 -0.013743 -0.077201 0.079665 -0.050156 -0.172379 0.209854 0.086850 -0.256150 0.062574 0.029658 -0.151169 -0.088925 -0.051901 0.057869 -0.127463
0.091685 -0.243624 -0.101667 -0.245955 0.028458 -0.059500 -0.085083 0.062703 -0.151917 -0.032649 0.012423 0.009885 0.035496 0.100696 -0.012309 -0.114198 -0.025385 0.071670 0.078573 -0.074803 -0.052088 -0.283890 0.034386 0.047201 0.049036 0.048058 0.104787 -0.072922 -0.019113 -0.106336 0.116740 -0.114618 -0.034207 -0.037152 -0.020606 0.007485 -0.051191 -0.101938 -0.084594 -0.021807 -0.268895 -0.003484 -0.045212 -0.129495 0.018413 -0.006330 0.119208 -0.036353 -0.129739 0.137398
-0.267268 0.020048 -0.143786 -0.236420 0.213392 -0.253961 0.057408 0.098633 -0.036593 0.029072 0.020648 -0.033291 -0.044514 -0.207937 -0.155290 0.044900 0.099008 -0.032177 -0.104161 -0.120841 -0.141531 0.111974 -0.144024 -0.066578 -0.156694 -0.202879 -0.035184 -0.241475 -0.056798 -0.137910 -0.014903 0.105877 -0.096502 0.072218 0.023358 -0.105957 -0.116295 0.093957 -0.153208 -0.224494 -0.139058 -0.170121 -0.134070 0.008182 -0.050624 -0.172947 -0.015125 0.007358 0.082686 0.078846
0.133871 0.051447 -0.002513 -0.026158 -0.026137 0.013391 0.013260 0.000004 0.003370 -0.000152 -0.007794 -0.000000 -0.000034 -0.201927 -0.033177 -0.006010 0.013288 0.025467 0.086670 0.119619 -0.142630 -0.018640 0.000289 -0.136857 -0.067452 -0.038311 -0.003980 0.016001 -0.000002 -0.006494 0.010369 0.054085 -0.046685 -0.000178 -0.000001 0.080630 -0.001251 0.046727 -0.012217 -0.026442 0.000404 -0.051822 -0.000069 0.041987 -0.000002 -0.007831 0.053356 -0.026547 0.000391 0.025835
0.086814 0.103036 0.034699 0.061203 -0.086045 -0.000000 -0.152105 -0.078618 0.078335 -0.009255 -0.002267 -0.007585 -0.002908 0.157855 0.146886 0.036837 -0.074798 0.223248 -0.039935 -0.129492 0.054312 0.000281 -0.058438 0.099208 0.127017 -0.035562 -0.031031 -0.050095 0.000826 0.069106 0.097203 -0.021435 0.132854 -0.081278 -0.034007 0.066375 0.046882 -0.022846 -0.054973 -0.080160 0.040485 0.009751 0.002521 0.154973 0.001337 -0.048847 -0.014119 0.022682 0.028731 -0.121477
-0.062759 -0.229360 -0.162079 -0.061102 0.053694 -0.197132 0.078245 -0.275341 -0.173234 -0.167707 -0.061101 -0.045603 -0.228990 -0.063097 -0.146237 0.038085 -0.127555 -0.185767 -0.095545 -0.142767 -0.097808 -0.001629 -0.198098 0.081903 -0.071694 -0.020015 -0.157451 -0.243404 0.009879 -0.109101 0.061049 0.047398 -0.039314 -0.179851 -0.230498 0.076989 -0.079832 -0.201866 -0.202273 -0.006211 -0.164557 -0.144261 -0.133651 -0.127670 -0.035966 0.032651 -0.232107 -0.135756 -0.195150 -0.037240
0.079226 -0.057148 -0.108056 0.155117 0.034487 -0.101710 0.042336 -0.091539 -0.050984 -0.116748 -0.157473 -0.004365 -0.046632 0.028488 -0.005057 0.168888 -0.163732 -0.065849 -0.276138 0.179578 -0.173560 0.109840 0.064721 0.055975 -0.143029 0.143100 -0.042738 -0.011928 -0.077144 -0.167297 -0.104458 -0.015852 0.009895 -0.305681 -0.056066 -0.081531 -0.163259 0.029007 0.106742 0.175505 0.207386 0.052124 0.128043 -0.075906 -0.146246 -0.011676 -0.025460 0.085094 -0.046533 -0.056194
-0.222872 0.033267 -0.035241 0.038353 -0.092385 -0.148558 -0.231679 -0.133386 -0.365315 -0.124785 0.035208 -0.118207 -0.141553 -0.053161 -0.045168 0.102885 -0.060793 -0.040946 -0.044412 -0.016698 0.154109 -0.096077 -0.164692 0.087528 -0.062264 -0.208168 -0.000095 0.106057 0.031176 -0.147807 -0.215756 -0.085944 -0.053789 -0.057379 -0.012544 -0.038325 -0.054278 0.080355 -0.170478 -0.195016 -0.086206 0.057318 -0.052875 -0.063616 0.070371 -0.088965 -0.157905 0.050677 -0.154749 0.057720
0.126461 -0.047246 0.116526 0.056822 0.035776 0.196895 -0.036659 -0.029280 -0.108750 0.023374 -0.117398 -0.058276 -0.033731 0.179301 0.097285 -0.261709 -0.065687 0.030703 -0.036343 0.098531 0.075148 -0.111759 0.130341 -0.030082 -0.074484 -0.030606 0.035829 -0.113517 0.058180 0.116069 0.113223 0.047533 -0.107265 0.076588 -0.082516 -0.184174 -0.030035 -0.059244 -0.029557 -0.115893 -0.162349 -0.009328 0.197831 0.069692 -0.012134 -0.156921 0.141919 -0.096489 -0.081157 0.010696
-0.016706 0.121087 -0.009249 0.237540 -0.022736 -0.046590 -0.032539 0.108601 0.140726 0.012854 -0.004168 0.027928 0.106462 -0.021607 -0.045556 0.202878 0.000163 -0.034966 -0.014020 0.101928 0.178054 -0.065229 -0.022676 -0.016271 0.000204 -0.077680 0.095805 0.029683 0.030018 -0.010343 0.040499 -0.011235 -0.059965 0.074251 0.000739 0.082506 -0.019775 0.024706 -0.000170 -0.134494 -0.052577 0.090529 0.015900 -0.239260 0.000008 0.226324 -0.082581 0.041704 0.003981 0.027356
-0.103413 0.053760 -0.073645 0.035989 -0.048791 0.169145 -0.016426 -0.117682 -0.140604 0.095369 0.122273 -0.085034 0.078925 -0.012066 -0.106940 -0.045195 -0.171366 0.174860 -0.235442 0.026501 -0.110605 -0.080901 0.111570 -0.014486 -0.158784 0.036137 0.037130 0.101097 0.031781 0.065993 0.012695 0.090362 -0.024215 -0.022577 -0.072135 -0.010881 -0.089762 0.119620 0.182064 -0.039304 -0.171168 0.015700 -0.040848 -0.114191 -0.126917 -0.095163 -0.040314 0.054221 -0.131123 0.153204
0.014887 0.093309 -0.060435 -0.143584 0.204611 0.027452 -0.031452 -0.072763 -0.067789 -0.111351 -0.157408 0.038566 -0.103085 0.037524 0.107927 -0.014545 -0.069704 -0.041488 0.220655 -0.186527 0.117410 -0.062733 -0.006466 0.001536 0.068794 0.065376 -0.172648 0.117084 0.110180 -0.053153 -0.086070 0.069376 0.131027 0.051684 0.036844 0.070456 0.026866 0.071446 0.030361 -0.045499 -0.104697 -0.123458 -0.078727 0.205242 0.008684 -0.089010 0.160228 -0.113049 0.051427 -0.111858
0.007500 0.115212 0.000869 -0.016353 0.093694 -0.000518 -0.038298 0.064878 -0.010368 -0.008758 0.002412 0.000080 -0.001659 0.043163 0.081727 -0.063632 0.087871 -0.022329 -0.119337 0.087781 0.086097 0.013619 0.003986 0.003324 0.055869 0.022585 0.000589 0.083616 0.000514 0.050132 -0.002523 0.108135 -0.005782 -0.030063 -0.002435 -0.141182 -0.002259 0.058335 -0.001883 -0.007479 -0.046869 0.007813 -0.000299 -0.056392 0.000000 0.023328 0.014332 -0.015094 0.015309 -0.031519
-0.216784 0.033918 -0.077381 0.027616 -0.162985 -0.107979 0.035603 0.023611 -0.131186 -0.049351 0.037702 -0.000000 -0.019426 0.040096 -0.171217 -0.096596 0.104493 0.089151 -0.268652 -0.019451 -0.128392 0.083032 -0.167817 -0.047633 -0.005684 -0.146779 0.096178 0.012425 0.058898 0.113574 -0.001822 0.073409 0.005847 -0.103519 -0.000111 -0.063141 0.078347 0.046603 -0.068770 -0.027830 -0.079039 0.102496 -0.074950 -0.021150 0.154453 0.092628 0.117013 -0.098744 -0.085479 0.097275
-0.127844 -0.062085 -0.188486 -0.265121 -0.209784 -0.065938 -0.140194 -0.218983 0.017449 0.039394 -0.185525 -0.123927 -0.204428 0.122638 -0.036914 -0.038064 -0.183185 -0.184348 -0.104225 -0.017426 0.050167 -0.124051 -0.187282 0.000153 -0.302778 -0.187992 -0.182292 -0.190090 -0.208887 -0.022942 -0.078775 0.084726 -0.295891 -0.310167 -0.295360 0.022358 -0.254109 -0.238130 -0.046768 -0.070770 -0.119337 -0.175695 -0.225776 0.012201 -0.108675 -0.023369 0.030159 -0.148422 -0.137280 0.065112
0.009278 0.078983 0.142395 0.104791 -0.055050 -0.040216 0.143194 0.102429 -0.125786 -0.017697 -0.075917 0.019272 -0.025043 0.156832 0.070111 -0.110791 0.005406 -0.067031 0.045117 -0.081129 -0.027249 0.076556 -0.058254 -0.007788 -0.064566 0.077098 -0.039988 -0.063211 0.017768 0.195948 -0.150357 -0.076881 0.136933 0.038006 0.034932 -0.153138 -0.023842 0.063645 -0.095645 0.049375 0.003132 0.000112 0.165678 0.045730 0.131407 0.193694 -0.100505 0.162040 0.090355 0.042565
0.104553 -0.180578 0.073882 -0.180758 -0.255037 -0.071990 -0.033654 -0.106607 0.031405 -0.034217 0.030540 -0.077972 -0.138271 -0.089314 -0.176030 -0.050606 0.058201 -0.087262 0.097752 -0.020875 -0.040502 0.169714 0.120330 0.084628 -0.133361 0.063431 -0.218190 0.209620 -0.027590 -0.002273 -0.090556 0.127474 -0.138027 0.016383 0.002438 0.117501 -0.075620 0.010840 -0.137347 0.041229 -0.075183 0.035044 -0.083105 0.106168 -0.003770 -0.300748 -0.185843 -0.059904 0.141241 0.034795
-0.222936 -0.197837 -0.137948 -0.028426 -0.169053 -0.029976 -0.027939 0.018752 -0.088686 -0.004818 -0.018961 -0.109269 0.003189 0.087762 -0.131476 -0.117555 -0.071064 0.245307 -0.060450 0.078300 -0.250781 0.018493 0.061199 0.025106 -0.035086 0.009624 0.005770 -0.101898 -0.098148 0.017719 -0.148102 0.055432 0.032586 -0.181808 -0.119139 0.069984 -0.002422 0.039563 0.048831 0.065321 0.030432 0.017509 -0.033807 0.047170 0.100776 0.238014 -0.119367 -0.245109 -0.120807 0.020495
0.073440 -0.240991 -0.033692 0.068092 -0.122391 0.049202 0.094512 -0.211942 -0.141148 -0.027436 -0.305820 0.016334 0.064862 -0.030990 -0.131836 -0.060352 -0.221909 -0.287478 -0.021724 0.019508 -0.123167 0.011108 -0.222668 0.004393 -0.093365 -0.138091 -0.209190 0.017559 -0.150476 -0.201569 -0.205806 -0.109962 -0.243881 0.025118 -0.009954 0.043297 -0.209260 -0.246017 -0.110824 -0.122620 -0.178382 -0.164033 -0.128242 0.048720 -0.259074 0.020889 -0.056792 -0.181114 0.040037 0.107871
0.040897 0.192917 0.124243 0.049872 -0.078857 0.192730 0.141619 0.119223 0.125264 -0.061293 -0.077359 -0.186687 -0.018771 -0.095155 -0.050416 -0.008817 -0.254879 -0.120612 -0.130822 -0.108499 -0.128501 -0.068031 -0.153657 0.054756 -0.112380 0.080207 -0.053036 -0.148497 -0.046195 0.164903 0.084499 -0.014116 -0.017709 0.130674 -0.125215 -0.085122 -0.177513 0.116440 0.039385 -0.107550 0.018008 0.056850 -0.052193 0.102124 -0.031897 -0.216717 -0.016270 -0.169186 -0.022920 0.085699
0.061407 -0.046206 -0.100441 0.009930 -0.020524 -0.063763 -0.023787 0.130901 -0.108224 0.016929 0.159565 0.013857 -0.031156 -0.027379 -0.161394 0.021773 -0.075788 -0.046113 0.019225 0.070205 0.199654 -0.026980 0.094466 -0.070049 0.042497 -0.035040 -0.012295 -0.090033 0.045893 -0.185050 -0.067601 0.133470 -0.110250 -0.075380 -0.006108 -0.008880 -0.073532 0.059871 0.088641 0.125739 -0.026760 -0.070501 0.127013 -0.048368 -0.037589 0.051081 0.079648 0.093807 -0.046389 -0.175563
-0.014197 0.034790 0.033137 0.001547 -0.015075 0.003502 -0.027944 -0.048425 0.028231 -0.005206 0.000208 -0.000000 0.020426 -0.043309 -0.049713 0.061927 0.057667 -0.059693 -0.160643 -0.064273 0.146871 -0.143134 0.086978 0.182607 -0.136341 0.103651 -0.043640 -0.127457 -0.007036 -0.037418 -0.020029 0.093928 0.118967 -0.093002 0.051716 0.044677 -0.033242 -0.031791 -0.028364 -0.014293 0.049110 -0.020058 0.018457 -0.015647 -0.000000 0.019449 0.103342 -0.046580 -0.004521 0.150152
-0.094172 0.042455 0.078286 0.076323 -0.313120 0.044094 -0.265627 0.084139 0.121326 -0.092569 -0.179959 -0.080594 -0.081863 -0.164958 -0.084554 -0.032896 -0.193893 -0.101414 0.017804 -0.058490 0.189570 0.012092 -0.084712 0.096195 0.051446 0.127873 -0.186500 0.008428 -0.117376 -0.075225 -0.049991 0.095965 0.015732 -0.005658 -0.065237 0.027280 0.108101 0.064428 0.044037 0.114181 -0.133834 -0.135683 -0.115106 -0.218809 -0.033380 -0.144325 0.017062 -0.164161 -0.019757 0.015781
-0.126926 0.235327 -0.013926 -0.186091 -0.100618 0.055435 -0.040036 0.123971 -0.182621 -0.127078 -0.105356 -0.006682 0.057725 0.254362 0.176150 -0.024889 -0.131554 0.038687 -0.120600 0.030227 0.134821 0.153736 0.250642 -0.060397 0.115715 0.097799 -0.044645 0.177367 -0.011322 0.001933 -0.183229 -0.058919 0.155655 -0.105247 0.003014 0.032851 0.102409 -0.038583 0.127537 0.070738 -0.062147 0.043703 0.052790 0.259865 0.049735 -0.087540 -0.048929 0.281117 -0.069927 -0.006030
-0.192831 -0.099684 -0.076493 0.062133 -0.029691 0.014065 -0.017727 -0.036040 -0.126455 -0.124755 -0.213995 0.073144 -0.031883 -0.046919 -0.022341 0.079203 -0.064330 -0.096888 0.006852 0.144788 -0.115571 -0.188334 -0.160093 0.233338 -0.022356 -0.179421 -0.024430 0.024544 -0.027421 -0.121288 -0.129285 0.129438 -0.118362 -0.082174 -0.016999 -0.164921 0.035913 -0.098954 0.147374 0.124751 -0.163091 0.100447 0.037664 0.128978 0.018466 0.005960 0.083793 0.196917 0.133644 -0.077373
-0.274416 0.125970 -0.043057 0.021250 0.041715 0.007392 0.129255 0.056134 -0.088357 -0.082350 -0.013958 -0.011285 -0.011007 0.068022 -0.008854 0.111188 -0.014798 -0.047768 -0.142281 -0.218025 -0.128948 -0.035172 0.099528 0.025568 -0.004328 -0.040829 -0.104912 -0.095486 0.085432 0.003447 -0.179224 -0.023668 -0.016261 -0.097429 0.061448 0.233221 -0.044498 -0.123189 -0.013025 -0.073602 -0.049158 0.038288 0.058518 -0.119889 -0.000145 -0.002243 -0.176687 0.146480 0.089369 0.171293
-0.076513 0.104797 -0.034532 0.045933 -0.111086 -0.002235 -0.046019 0.000007 0.072333 0.000005 -0.000000 0.000000 0.002722 -0.039587 -0.097512 -0.032267 -0.016145 0.135045 0.083775 -0.173410 0.178548 0.222682 -0.019886 0.060272 0.000725 -0.032780 -0.025145 -0.000000 -0.001093 -0.000008 0.024199 0.083980 -0.039554 0.154443 -0.000000 0.147487 0.091945 -0.009567 -0.001402 -0.083783 0.087540 0.027921 0.269651 -0.044491 0.000000 -0.110045 0.164191 -0.061323 0.088068 -0.050156
-0.210982 0.010674 0.176671 -0.008605 -0.052554 0.055199 0.093465 -0.044836 -0.189771 -0.022711 -0.083055 0.048994 -0.066943 0.053709 -0.056769 -0.116523 -0.117912 -0.148359 -0.113361 -0.142024 -0.047974 -0.215859 -0.064544 0.038389 -0.170508 -0.176418 0.074853 0.062192 0.032309 -0.026299 -0.036561 -0.012361 0.160275 0.076312 -0.079386 0.032048 0.025926 0.013679 -0.109598 0.143175 0.158093 -0.000172 0.006135 0.135739 -0.000139 -0.163436 -0.139656 0.061327 0.175361 -0.025211
-0.170020 0.000869 -0.041688 -0.087660 -0.013549 -0.118325 -0.257048 -0.025245 -0.328706 -0.139754 -0.250395 -0.063798 -0.008821 0.035664 -0.144003 0.038699 -0.012525 0.126836 -0.039687 0.008726 -0.005940 0.127807 -0.127167 -0.027240 0.071652 -0.079071 0.072296 0.036876 -0.054908 -0.048311 0.047510 -0.141936 0.059749 -0.098343 0.047063 -0.003968 -0.052916 0.021635 0.045117 -0.148037 -0.036207 0.029610 0.015648 -0.066892 -0.000867 -0.055249 -0.150966 0.069544 -0.208797 0.100947
-0.024210 0.014520 0.050111 -0.077790 0.141897 -0.059420 0.072090 0.093702 -0.071599 -0.009138 0.000000 0.001451 -0.008110 -0.083398 -0.028142 0.105103 -0.079470 0.115324 0.007235 0.118335 -0.075550 -0.040082 0.004379 -0.055943 -0.063825 0.016182 -0.022739 0.004742 -0.001420 -0.085556 -0.070538 -0.025218 0.119673 -0.008094 -0.161000 0.097555 0.040477 0.012505 0.056960 0.106053 0.045170 0.060777 -0.070959 -0.034295 -0.000000 0.001606 0.063582 0.030400 -0.001472 -0.092541
0.181173 -0.211416 -0.110574 -0.060310 -0.048421 -0.184502 -0.139031 -0.098360 -0.236976 -0.088078 -0.154778 -0.042595 0.004289 0.030817 -0.027110 0.061205 -0.181964 -0.003522 0.005681 0.138592 0.005818 0.001684 0.071600 -0.186760 0.033906 -0.131853 -0.011712 -0.201542 -0.180910 -0.047918 0.066818 0.070198 -0.046292 -0.032235 -0.229976 0.028759 -0.228563 -0.066637 0.002978 -0.264077 0.104569 -0.005708 -0.192832 0.003960 0.068443 -0.049260 -0.096464 -0.227134 -0.225463 0.061082
0.026509 0.029171 -0.001383 0.069033 -0.083548 -0.000000 0.019080 -0.000002 0.015923 0.006311 -0.000001 0.000000 0.000000 -0.098770 -0.002295 -0.132393 0.000956 0.016811 -0.053154 0.256624 0.091787 0.118121 -0.000904 0.039444 0.002144 -0.000031 0.020489 0.000549 0.000000 0.001603 0.133561 -0.055777 0.013794 -0.190261 0.000000 0.150751 -0.000000 0.026944 0.076309 -0.001798 -0.033022 -0.000000 -0.000011 0.079184 0.000000 0.056950 -0.006833 0.056875 -0.000011 0.115116
0.021688 -0.054896 -0.086969 0.116621 0.281284 0.019329 0.068002 -0.070136 -0.113536 -0.057416 0.126554 -0.024730 0.052503 -0.036730 -0.059725 0.015306 0.087114 -0.036498 -0.029962 -0.154986 0.112807 0.034909 -0.106988 0.043317 0.056359 0.013875 -0.101428 0.119369 0.012820 0.056153 0.035285 0.016231 0.002350 -0.039462 -0.003893 -0.091737 -0.110016 0.057895 -0.011381 -0.077728 0.175938 -0.124763 -0.080301 -0.052190 -0.036914 -0.113374 0.112533 0.078037 0.004406 -0.221764
-0.034953 0.120338 -0.066068 0.113611 0.001982 0.195376 -0.052749 0.092811 -0.051878 -0.061788 0.101333 -0.014888 -0.011673 0.033152 0.088918 0.029534 0.122895 0.196892 0.013320 -0.045954 0.180746 -0.147070 -0.035050 0.055937 0.127462 0.118252 -0.016382 -0.046434 -0.080555 -0.019318 0.103499 -0.024670 0.127969 -0.014888 -0.001961 0.076900 0.070858 -0.124425 -0.105615 -0.045813 0.046307 -0.108010 0.047578 -0.074959 -0.081775 -0.024696 -0.034357 0.135570 0.034195 -0.046130
-0.098457 0.016888 0.082720 0.117484 -0.126030 0.028828 -0.166338 0.017225 -0.099153 -0.021523 0.000484 0.000976 -0.116803 0.009060 0.053511 0.234794 -0.055192 -0.019943 0.086826 -0.031219 0.261256 0.015366 0.079090 0.014566 -0.100220 0.032965 -0.035668 -0.126340 -0.048643 0.038621 0.103783 -0.066793 0.024462 -0.126156 -0.000086 -0.079720 -0.043934 0.002032 -0.006395 -0.176992 -0.086478 -0.072136 -0.073655 -0.119678 0.006544 -0.009841 0.099624 0.076086 0.057569 0.061036
0.014571 0.066046 0.059299 -0.047121 -0.058199 -0.001328 0.098230 0.076564 -0.048165 -0.010916 -0.006091 -0.000070 0.003020 -0.087754 -0.063341 -0.005870 0.043752 -0.012434 -0.033738 0.110699 0.073724 0.051762 0.054324 0.133282 0.007402 -0.042269 0.068467 -0.006893 0.008975 0.059751 0.000640 0.026014 0.051119 0.062230 0.000068 -0.096069 -0.000169 -0.036233 0.077546 -0.008616 -0.002528 0.030296 -0.016772 0.090965 0.000000 0.000663 -0.089912 0.095160 -0.010896 -0.090066
-0.270193 0.030636 -0.062941 -0.007750 0.057419 -0.104708 0.011500 -0.007605 -0.012545 -0.084504 -0.196301 -0.190137 -0.153871 -0.180401 -0.214514 0.064971 -0.046755 -0.009998 -0.070194 0.093857 -0.106242 0.056618 -0.010688 -0.039272 0.031138 -0.187345 -0.006427 0.024757 -0.034323 -0.036728 -0.334537 -0.025117 -0.255109 0.003078 -0.153681 -0.209607 -0.025977 0.075266 -0.049734 -0.108706 -0.127568 -0.204066 0.067325 0.039283 -0.053880 0.227629 -0.035569 -0.203539 -0.206077 -0.045951
-0.145575 0.031250 -0.221823 -0.088062 0.061416 -0.080728 0.064466 -0.128393 -0.109357 -0.173210 -0.141550 -0.081695 -0.163467 -0.163074 -0.183086 -0.183856 0.050882 0.024195 0.124617 0.085045 -0.098699 0.054622 -0.121304 -0.119820 -0.070847 -0.103676 0.040228 -0.158270 0.025866 0.036099 0.061909 -0.032320 -0.156761 -0.088647 -0.074610 0.143050 -0.233025 -0.074258 -0.163160 -0.164594 0.092880 -0.033045 -0.126439 -0.026208 -0.120479 -0.267187 -0.049452 -0.164095 -0.119543 -0.120463
-0.081961 0.004445 0.003305 -0.252082 0.257491 0.024466 -0.176598 -0.001995 -0.022182 -0.027482 0.067309 0.000011 0.000335 -0.080302 -0.068451 -0.147514 -0.085787 -0.003742 0.214694 0.129805 0.185558 -0.097099 0.022945 -0.083139 -0.023316 -0.066486 0.000148 0.001078 -0.063922 -0.000081 0.084703 -0.071891 -0.002470 0.061583 -0.000000 0.174349 0.007565 0.011195 0.078855 -0.010723 0.145862 0.000633 0.000888 0.131345 -0.000919 -0.011169 0.080714 -0.157552 -0.000001 -0.069961
-0.076011 -0.144795 -0.055151 0.000040 -0.001648 0.165783 0.062779 0.030492 0.150443 -0.006811 -0.122547 -0.024875 -0.033292 -0.132795 0.094777 -0.060921 -0.035395 -0.031276 -0.015822 0.097766 -0.044541 -0.082621 -0.145552 -0.084186 -0.061487 0.106209 -0.194598 0.001224 0.003038 -0.099383 -0.096050 0.095600 0.114374 0.186262 -0.129282 -0.191182 0.048476 0.104118 0.055318 -0.022131 -0.193434 0.004304 0.293733 0.015199 -0.164591 0.151153 0.111968 -0.073603 -0.090026 -0.137668
-0.076132 -0.123766 0.025164 -0.218383 0.115494 -0.262366 -0.027977 0.018342 0.055763 0.054035 0.038791 0.029071 -0.062007 -0.106306 -0.081429 0.003883 0.105896 0.023321 0.171473 -0.116299 0.053754 -0.062514 -0.013013 -0.110006 0.020173 0.065799 0.006471 0.067755 0.104635 0.005072 -0.124110 -0.005993 0.000037 0.124334 0.011402 -0.231426 -0.025930 -0.016707 0.097530 -0.015995 -0.102611 -0.012805 -0.097942 -0.059614 -0.171587 -0.043160 -0.109560 0.046786 -0.110393 0.123450
-0.074332 0.012242 -0.070214 -0.066609 -0.244872 -0.004501 -0.056384 0.070578 0.019992 0.050941 -0.038190 0.043770 0.040560 0.204497 0.096856 -0.093015 -0.147423 -0.058237 0.059886 0.002770 -0.010228 0.081966 0.077187 -0.053991 -0.123882 -0.097561 0.179628 -0.113357 -0.037185 0.065660 -0.005736 -0.217769 -0.073402 0.001681 -0.007405 0.158092 -0.112415 0.109556 -0.068412 -0.004318 0.002132 -0.031951 -0.027839 0.014939 0.067081 0.021554 0.098947 -0.117493 0.039840 0.147532
-0.157375 -0.012618 -0.037257 0.189768 0.077914 -0.183970 -0.014147 -0.017970 -0.157525 -0.000083 -0.092317 -0.084473 0.042390 0.038952 0.035813 -0.122091 -0.132770 -0.251685 0.008098 0.116343 -0.129286 0.101106 -0.101798 -0.155583 -0.093648 0.128116 0.026508 0.017648 -0.174834 -0.051726 0.015757 -0.081683 0.113713 0.041972 -0.020665 0.164261 -0.001713 -0.167464 -0.029573 0.062114 -0.075675 0.025327 0.060098 -0.124056 0.166752 -0.039392 0.066224 0.205067 -0.020789 0.067366
-0.167776 -0.020551 0.003149 0.083443 0.086634 -0.009980 -0.163296 0.003533 0.079369 -0.055620 0.000203 0.002318 -0.001312 0.123198 0.037304 0.246617 0.120472 0.005240 -0.064601 0.005013 -0.118942 0.080821 -0.001812 0.092873 0.111872 -0.064119 -0.011589 0.034933 0.004915 0.000821 -0.004681 -0.078551 -0.046737 -0.035564 -0.013653 -0.277950 -0.007055 0.084082 0.031988 -0.029874 -0.027496 -0.083989 0.219334 0.019107 -0.000039 -0.081063 -0.072317 -0.044967 -0.080594 -0.048169
0.081599 -0.074108 0.061571 0.081831 0.135408 -0.026774 0.047241 0.124073 -0.113849 -0.068222 -0.311331 -0.035451 -0.048063 -0.099552 0.117874 0.117649 -0.027015 -0.150030 0.144463 -0.027855 -0.044427 -0.328764 -0.015353 -0.090190 -0.010688 -0.163094 -0.106900 -0.001404 -0.148234 0.119805 -0.201646 -0.004376 0.055588 -0.026097 -0.003536 0.000493 -0.000027 -0.020659 -0.179969 -0.151579 0.079898 -0.138939 0.013346 0.029520 -0.029066 0.129726 -0.099480 -0.151387 0.016257 0.080104
-0.035164 0.140075 0.057154 -0.311388 0.099613 -0.262805 0.000752 -0.120427 0.032605 0.064791 0.101721 0.096309 0.076442 0.040292 -0.026825 0.080244 -0.119462 0.017738 0.154410 -0.050102 -0.004121 -0.120772 -0.133977 -0.084570 -0.013581 -0.065190 0.060526 -0.114346 -0.003134 -0.048644 0.044385 -0.068475 -0.006419 -0.171632 -0.216112 0.080111 0.043566 0.059339 -0.049113 -0.079963 -0.164106 0.045777 -0.161783 0.035857 -0.110743 0.078553 -0.216923 -0.098359 -0.233211 -0.232978
-0.006162 -0.097182 -0.096025 0.112189 -0.147645 0.027949 -0.043056 0.094905 -0.217365 -0.235161 -0.172359 -0.161567 -0.139243 0.071650 -0.031897 0.017211 -0.086186 -0.195709 -0.234763 -0.039795 -0.003598 -0.022872 -0.104699 0.092199 0.019012 0.049304 0.020108 0.026285 -0.117747 -0.180723 -0.273173 -0.042172 -0.091103 -0.072514 0.043964 -0.007941 -0.200596 0.023817 0.076412 0.103151 0.098949 0.007387 0.013564 -0.114992 -0.132279 -0.259587 0.006204 -0.094956 -0.019545 -0.077935
-0.121780 -0.044516 -0.006477 -0.215616 -0.057395 0.007856 0.108899 0.069533 0.077420 -0.114632 -0.183676 -0.001017 -0.125665 0.052614 -0.123101 0.089135 -0.001330 -0.066383 -0.216989 0.084099 -0.134658 0.077275 0.052199 -0.086664 -0.042845 0.157057 -0.055854 -0.056870 0.084642 -0.111262 -0.066777 0.007597 -0.066425 -0.059542 0.049545 -0.086429 0.106335 -0.092625 -0.068032 -0.113907 0.042644 0.059626 0.049345 -0.100657 -0.080618 0.006818 0.038242 0.105331 -0.137509 -0.004492
0.169546 -0.094294 0.016547 0.100374 -0.115111 0.024686 -0.038609 -0.009569 -0.117329 -0.018492 0.018277 -0.000046 -0.001940 -0.057524 -0.002698 0.106934 -0.143477 -0.137081 -0.031676 -0.064771 0.157671 -0.027780 0.004705 0.073143 0.075909 -0.098160 0.074229 -0.031611 0.000339 -0.132905 -0.141487 0.004901 -0.010530 0.119504 -0.000001 0.120049 0.007236 0.123570 0.075956 -0.063306 0.143072 -0.055462 0.010977 0.126923 -0.000946 0.102160 0.124742 -0.086399 -0.000682 -0.210591
0.231633 0.006920 -0.001600 -0.000566 -0.073355 -0.001983 0.168887 -0.000006 -0.012435 0.005784 0.009632 0.000590 -0.001257 -0.009957 -0.038629 -0.040398 -0.037834 0.037432 0.142304 0.003521 -0.094377 -0.058741 -0.015179 0.085179 0.031691 -0.025749 -0.028769 -0.033317 -0.000043 -0.003470 0.001586 0.024016 0.008022 0.023414 0.000000 -0.130303 0.010100 0.023737 0.284142 -0.070462 0.051698 -0.002199 0.035644 0.145988 -0.000000 -0.015505 -0.003700 -0.008361 0.086639 -0.031676
-0.091279 -0.021623 0.054495 -0.093174 -0.154240 0.037874 -0.180767 0.121318 -0.062190 -0.057132 -0.019164 0.008911 -0.000529 -0.028471 0.091706 0.186560 -0.044881 -0.197513 0.156932 0.112513 0.132344 0.110267 0.057029 -0.046346 0.005940 -0.142248 -0.024798 0.030797 0.030723 -0.002980 -0.029842 -0.052684 -0.015700 0.020089 -0.006284 0.189939 -0.004619 -0.022435 -0.001564 -0.133694 0.229375 0.099912 0.057804 -0.023032 0.046952 0.106155 0.095864 -0.140592 0.000888 0.203215
0.088821 -0.101368 0.009987 -0.152328 0.012184 0.171146 0.061671 0.106306 0.006844 -0.021712 -0.092680 -0.000806 0.075843 -0.126381 0.032658 -0.035756 -0.129745 0.085372 -0.006220 0.078533 0.129910 -0.027309 0.076208 -0.082884 -0.055849 0.178841 0.071171 0.113417 -0.074203 0.074549 0.110969 -0.189336 0.047895 0.062650 0.114079 -0.157275 0.133666 -0.150696 0.063929 0.151689 0.071106 -0.135157 0.054823 -0.154292 0.022445 -0.059412 0.005010 -0.103997 0.019096 -0.168657
0.057363 0.007505 -0.002679 0.113352 0.226407 -0.200979 0.140005 0.092026 0.108054 0.008170 0.113998 -0.000003 0.038127 -0.039628 -0.041072 0.206849 -0.094799 -0.069925 0.136395 -0.067098 0.226986 0.075624 -0.039197 -0.089475 -0.108189 -0.012238 0.044790 0.045297 0.007860 -0.000606 -0.154748 0.054160 -0.130555 0.108246 0.040273 -0.084029 -0.006409 0.064287 0.045779 -0.089721 0.120927 0.150579 0.130138 -0.048433 0.001678 -0.021214 0.089681 -0.148801 -0.025459 0.139242
0.018813 0.039461 0.025547 -0.098402 0.041477 0.008094 -0.032107 -0.001779 -0.004699 -0.000342 0.000047 0.134155 -0.058484 -0.030835 -0.336087 0.050412 -0.023849 -0.107081 0.054390 0.213535 0.147477 -0.086259 -0.000392 0.021423 -0.068808 -0.047851 -0.024859 0.008166 -0.000000 0.069681 0.035020 -0.103438 -0.057121 0.218868 -0.000131 0.074118 -0.002235 -0.000263 -0.005657 0.161845 -0.027974 -0.010443 -0.170668 0.006193 0.000000 0.002036 0.070587 -0.029633 -0.000000 -0.023127
-0.198770 0.001698 -0.073164 -0.234156 -0.157682 -0.257662 -0.171310 -0.146811 -0.250085 -0.017552 0.012553 0.078768 -0.284300 -0.074431 -0.084489 -0.149379 -0.080837 -0.058030 -0.017610 0.137210 0.055724 0.058329 -0.073466 -0.066938 -0.244040 0.012975 -0.179514 -0.104082 -0.077860 0.071104 0.030992 0.019278 -0.098134 -0.205340 -0.130768 0.012402 -0.190263 -0.065979 -0.148850 -0.140119 -0.200711 -0.249075 0.015273 -0.040651 0.039441 -0.005773 -0.238060 0.045365 0.016214 -0.003015
0.063916 -0.184352 -0.117505 -0.141482 -0.141579 -0.056177 -0.259023 -0.147217 -0.049996 -0.019444 0.051923 0.157403 -0.128486 0.072301 -0.123491 -0.105848 -0.015094 -0.096908 0.053820 0.164661 0.041449 0.050454 -0.033226 -0.143312 -0.005303 -0.154331 0.024726 0.017338 -0.095395 0.013420 -0.115935 -0.067927 0.090074 -0.024889 -0.011531 0.018376 0.209116 0.059477 0.035536 -0.090262 0.175277 -0.070089 -0.085104 -0.007794 -0.207997 -0.274024 -0.258396 -0.090671 -0.121416 -0.101908
-0.076148 -0.160016 -0.149270 0.034598 -0.124724 -0.043704 -0.016496 0.004201 0.014935 0.087262 0.046459 -0.001616 -0.037052 0.063298 0.106499 0.074728 0.018849 -0.085034 -0.019403 0.115886 0.021600 0.078623 0.126423 0.006980 0.124647 0.010521 -0.116244 -0.085518 -0.006107 -0.018960 0.120823 0.217652 -0.120141 0.023237 -0.033919 -0.026149 0.015055 -0.035079 -0.021980 0.043357 -0.005386 0.117841 0.048471 0.180626 0.108382 0.174459 -0.111695 -0.061761 0.010628 -0.032054
-0.057954 0.009569 0.123130 0.057483 0.080403 -0.057560 0.074136 -0.157771 -0.026567 -0.013752 -0.049460 0.009631 -0.053507 0.016874 0.179376 0.189219 0.135518 0.105693 -0.048619 -0.164139 0.041207 0.196030 -0.055026 0.145484 -0.023473 -0.032191 0.037369 -0.070011 -0.067846 0.054620 -0.199767 -0.043420 0.063735 0.144868 -0.018596 0.095855 -0.035991 -0.169782 0.029865 -0.151666 0.188521 -0.105102 -0.089204 -0.104308 0.084685 -0.050564 0.100691 -0.178953 -0.049576 0.100463
0.165748 -0.137567 -0.065241 -0.022951 -0.061272 -0.039852 -0.032439 -0.038404 0.129551 0.113760 0.070843 0.033419 0.128666 0.102773 0.053625 0.185275 0.031102 0.125947 -0.128656 0.124647 -0.130288 0.129759 0.008219 0.087859 -0.028769 -0.042371 0.175828 0.077954 0.094851 0.024692 -0.156500 0.145262 -0.015534 0.167835 0.090753 0.113621 -0.030631 -0.058987 -0.030257 0.054498 -0.148916 0.049687 0.170210 -0.075258 -0.074876 -0.128798 -0.125655 -0.083521 -0.002635 0.062092
-0.120163 -0.072371 0.102772 -0.112369 0.111646 0.038903 0.052278 -0.030784 -0.001211 -0.086489 -0.092185 -0.004895 -0.081992 0.175224 -0.101350 0.133498 0.093046 -0.015415 -0.085285 -0.053633 -0.193057 -0.033874 0.020042 0.052679 0.035822 -0.130461 -0.044087 -0.087190 0.090052 -0.201150 0.084510 -0.162650 -0.114675 -0.122518 -0.019384 0.149397 -0.112793 0.073492 -0.105280 0.011110 -0.129366 -0.056045 -0.018207 -0.032465 -0.216222 0.059870 0.097164 -0.205375 -0.142240 0.131557
-0.207049 0.047812 -0.101506 0.129163 -0.134927 -0.088468 0.051928 -0.001670 0.063083 -0.048596 0.019080 -0.037101 0.060298 -0.134114 0.024183 0.046430 -0.024482 -0.164151 -0.035294 0.003201 0.143929 0.003558 -0.086913 0.038449 0.125039 0.160207 0.019508 0.148341 0.034453 -0.151114 0.146760 0.111054 -0.014166 0.056627 -0.101140 -0.200005 0.077111 -0.090069 0.145448 0.111840 0.139363 -0.026610 -0.078817 0.020530 -0.009207 0.063091 -0.099440 0.171875 0.112747 -0.039396
-0.037302 -0.157685 0.066464 0.091860 -0.091905 -0.293858 0.054317 -0.075151 -0.112882 -0.102298 0.042523 0.030023 -0.108833 -0.060240 0.012575 0.059715 0.044057 -0.238474 -0.025929 -0.012331 0.023952 -0.133813 0.147714 -0.136108 0.048918 -0.092589 -0.119889 -0.029921 -0.026998 -0.001657 0.009877 0.116527 -0.052977 -0.008193 -0.133604 0.030878 -0.079963 0.040888 -0.079650 0.116073 -0.042070 -0.220043 0.006147 0.074177 -0.069657 -0.077204 -0.045124 0.113571 -0.131504 -0.113637
-0.002104 -0.106370 0.040265 0.031953 -0.217307 -0.030297 -0.009615 -0.077451 -0.069469 -0.228054 -0.021375 -0.247346 0.123765 -0.113817 -0.031163 -0.016207 -0.155148 -0.288760 -0.003692 0.015654 0.148038 -0.087610 -0.072070 -0.068254 -0.016314 -0.073768 -0.001627 0.028729 -0.038809 -0.301600 -0.280343 -0.131840 -0.058074 -0.234155 -0.098059 -0.133082 -0.162807 0.022916 -0.248191 -0.002585 -0.115974 0.034578 0.030525 -0.026830 -0.251474 -0.110076 -0.014158 -0.120425 -0.143496 0.000168
-0.167492 0.001418 0.044185 0.176354 0.089843 -0.121253 -0.127908 -0.185860 -0.088969 -0.173553 0.125540 -0.088342 0.043634 -0.199650 -0.113644 0.109597 0.074974 -0.089123 -0.225296 0.053179 0.072345 0.116084 0.010394 -0.080854 0.134072 0.189261 -0.101654 0.164955 0.023377 0.172347 -0.211530 0.088789 0.073798 0.005314 0.156661 -0.032053 -0.105301 -0.147598 -0.083754 -0.060316 0.018378 -0.165682 0.035201 -0.099848 0.095255 -0.045393 -0.075814 0.052658 -0.168004 -0.152509
0.074203 -0.030170 -0.002627 0.033295 0.096317 0.007898 0.012794 0.033777 0.045601 0.021058 0.168854 -0.000000 -0.042351 -0.092499 -0.189265 -0.129677 0.099537 -0.155352 -0.086745 0.082526 0.127501 -0.032385 -0.027516 0.097885 0.132226 0.070926 -0.087817 -0.148448 0.017878 -0.090942 0.163658 0.066210 0.116746 -0.086068 -0.041249 0.120644 0.094270 -0.039957 -0.022771 0.018089 0.008158 0.078630 -0.082455 -0.027902 -0.006982 -0.132794 0.070059 0.007904 0.027867 -0.002698
-0.103566 -0.073304 -0.220192 0.121345 0.005218 -0.225520 0.023156 -0.091070 -0.050379 -0.106647 0.008125 -0.044608 -0.060021 0.065058 -0.117803 0.164268 0.122724 -0.085381 -0.181859 -0.125387 0.011814 0.062182 -0.000987 0.024547 -0.139523 0.064011 0.122615 -0.242969 -0.121994 -0.036525 0.027000 -0.061525 -0.163845 0.039334 0.051061 -0.007964 0.091764 -0.173070 -0.084080 -0.134363 0.035960 -0.100502 -0.243743 0.054230 -0.040533 0.061881 -0.093067 -0.078440 0.140026 -0.012796
-0.051702 0.086275 -0.012766 -0.026744 -0.045154 0.013182 0.074294 -0.088394 0.120262 -0.071127 0.067799 0.003071 0.020970 0.179396 0.072479 0.259921 0.241830 -0.094958 -0.020514 -0.054546 0.031481 0.113660 -0.161137 -0.043034 0.169933 0.137199 0.007091 0.153224 0.050094 -0.035244 -0.090335 -0.139033 0.109510 0.071226 0.010920 0.082119 0.001684 -0.151234 0.186311 0.205194 -0.130267 0.159854 0.028197 0.080231 -0.011067 -0.134213 -0.080777 -0.079174 -0.090678 -0.079067
-0.092963 -0.111955 -0.100188 -0.052325 -0.123383 -0.097293 0.059346 0.103053 -0.063326 -0.082655 -0.132823 -0.053731 -0.114131 -0.162534 -0.018184 -0.093121 -0.031032 0.093838 0.072125 0.035417 -0.142507 -0.195406 0.038988 -0.092707 -0.179077 0.121088 0.150841 -0.041113 -0.074526 -0.221486 -0.165579 0.020937 0.091771 0.019758 0.146127 0.062486 0.088990 -0.153591 -0.065925 0.045648 -0.094507 0.060600 0.116819 0.158238 -0.055067 0.124692 -0.131324 0.104478 0.056815 -0.145632
-0.193065 0.102176 -0.006001 -0.051438 0.068207 -0.173471 -0.116287 -0.008048 -0.031610 0.025343 -0.159339 0.023176 -0.042572 -0.015215 0.032799 -0.111807 0.087428 -0.033651 -0.005905 -0.017579 -0.012125 -0.112415 0.096074 0.064801 -0.164661 -0.212114 -0.097341 -0.202969 0.007791 -0.150701 -0.013429 0.008141 0.132470 -0.174648 -0.202353 0.026098 -0.036392 0.015755 -0.175899 0.119418 -0.067228 -0.153223 -0.092613 0.103408 0.116754 -0.092793 -0.023294 0.123202 0.036363 0.194669
0.032613 -0.002784 -0.024710 0.019447 0.046450 -0.044979 0.098148 -0.080438 -0.055071 0.008843 -0.029579 0.027953 -0.085499 0.003512 -0.095261 -0.165190 -0.219113 0.001835 -0.004251 0.036957 -0.050064 -0.059501 -0.079046 0.241585 -0.013242 -0.007760 -0.038962 -0.009916 -0.013930 -0.058781 0.040576 -0.160056 -0.007570 -0.064802 -0.000007 -0.123682 -0.113357 -0.025784 -0.032693 -0.087839 0.113592 -0.050816 0.069276 0.235573 -0.000002 -0.173919 0.125397 -0.116870 -0.024866 -0.045138
-0.034609 0.117148 0.030700 -0.188050 0.190845 -0.212280 0.018715 -0.077598 0.057242 -0.092913 0.024032 -0.061469 -0.026765 0.038202 0.146631 -0.006438 -0.100030 -0.032631 0.149177 0.031634 -0.146005 -0.035762 -0.037317 -0.076567 -0.226833 0.113290 -0.122257 -0.117255 -0.258487 -0.044444 0.044794 -0.209900 -0.009052 0.011703 -0.043333 0.060049 -0.216351 0.046294 -0.102864 -0.039467 -0.033413 -0.179794 -0.034911 -0.035055 -0.093983 -0.039580 -0.086815 -0.248671 -0.147125 0.109709
0.008145 -0.019837 -0.047682 0.118103 -0.001511 -0.002955 -0.001132 -0.042515 0.048214 0.082191 0.009816 0.001026 0.003540 0.038176 0.003182 -0.019172 0.131669 0.016554 0.055029 -0.185717 -0.170625 0.113908 -0.012257 0.059663 0.034965 0.034879 0.071456 -0.114573 0.080071 -0.010446 0.045056 0.110577 0.037406 0.094957 0.013140 0.235473 -0.007688 0.051260 0.071426 -0.091648 -0.007796 0.051398 -0.067761 -0.212208 -0.000295 0.065490 -0.060775 -0.009113 0.058304 0.191908
0.124932 0.045444 -0.159495 0.058162 0.038749 -0.087460 -0.081202 -0.027504 0.111791 0.022629 -0.105397 -0.089524 -0.093447 0.049570 -0.038722 0.049886 0.077792 -0.145002 -0.141665 -0.257327 0.012531 -0.162560 0.002572 -0.098075 0.022491 -0.196653 0.011944 -0.127035 -0.135508 -0.158905 -0.238789 -0.080837 0.014744 0.101562 -0.119711 -0.075662 -0.083480 -0.195492 -0.121658 -0.081700 0.015003 -0.237901 -0.123919 0.180004 -0.222275 -0.123127 -0.042447 -0.138547 -0.126204 -0.062704
-0.111885 -0.010554 0.089366 0.055879 0.025857 0.007840 0.108786 0.083083 0.101095 -0.034277 0.061497 -0.004761 0.075410 -0.040119 0.231706 0.041280 0.133671 -0.057113 -0.149030 -0.062815 -0.090512 -0.076326 -0.008386 -0.043011 0.040579 -0.054804 0.000851 0.046430 0.013437 0.066779 -0.033307 0.113063 -0.092938 0.024594 -0.000633 0.164074 -0.057745 -0.084114 -0.050060 0.090847 -0.059990 0.026831 0.003689 -0.044046 -0.000221 0.017124 0.143673 0.028135 0.067813 -0.087327
-0.033941 -0.082731 0.007985 0.124513 0.051918 -0.092130 -0.018173 0.031242 0.179671 -0.075128 -0.175023 0.061658 -0.118018 -0.053338 -0.148039 0.091260 0.079718 -0.126620 -0.118446 -0.215705 -0.128345 0.124207 0.145129 0.144015 -0.043638 -0.218219 -0.227168 -0.097457 -0.155035 -0.088465 -0.198218 -0.074932 0.008203 0.106091 -0.063941 0.059656 0.038089 -0.012834 -0.128716 0.038292 -0.142885 -0.012229 0.010462 -0.051165 -0.127640 -0.184760 0.159730 0.075396 -0.171278 -0.116080
