0.093083 -0.097089 -0.022107 -0.075323 -0.120903 0.001045 -0.106587 -0.051051 -0.146449 -0.051720 0.014952 0.232684 0.071941 -0.245679 0.096600 -0.022000 0.048073 -0.114589 -0.053268 -0.130601 0.074738 -0.181941 0.011518 0.035694 -0.205872 -0.011752 -0.123197 -0.063378 -0.094056 -0.038858 -0.062611 0.034262 0.072048 0.169936 -0.037581 -0.068249 -0.139908 -0.027311 -0.016943 0.125393 -0.112403 -0.293377 0.048609 -0.098170 -0.019263 0.117635 0.008563 -0.010503 -0.146294 -0.068736 -0.061937 -0.337914 -0.021583 -0.048858 -0.179336 -0.083963 -0.068807 -0.103997 -0.131713 -0.214511 -0.061868 -0.076875 -0.141442 -0.016849 0.041823 0.038260 0.049952 -0.040293 -0.006756 0.073327 -0.109383 -0.189546 -0.208316 -0.142501 -0.091906 -0.157011 0.027569 -0.032542 0.033756 -0.137187 -0.164011 -0.141832 -0.262959 -0.112961 0.018897 -0.096080 0.042678 -0.111213 -0.015771 -0.049000 -0.220754 -0.019338 -0.158147 -0.263339 -0.159476 0.052432 -0.102597 0.031625 -0.193422 0.026611
0.023485 -0.014542 -0.383195 -0.240951 0.074078 0.035091 0.139528 -0.227270 0.034691 -0.017839 0.066528 -0.111925 -0.161881 -0.120451 -0.051094 -0.172405 -0.171359 0.003103 -0.308010 0.045536 -0.040278 0.062339 0.194156 -0.099336 -0.058488 0.011267 -0.108687 -0.001752 0.095684 0.014418 0.081105 0.170934 -0.024344 -0.131507 0.025820 -0.142388 -0.107258 -0.016735 0.167845 -0.125174 -0.108626 0.110037 -0.184431 -0.091836 0.006516 -0.284319 -0.197559 0.215130 -0.104569 0.052502 -0.034724 -0.269662 -0.004983 -0.140547 -0.034922 -0.086664 -0.001233 -0.177264 -0.048660 -0.144171 -0.015524 0.126070 0.035169 -0.088284 -0.100763 -0.090048 -0.050340 -0.172483 0.014163 -0.086539 -0.199809 -0.029791 0.171437 -0.079891 -0.036110 -0.031761 0.113064 0.209837 0.168464 -0.040609 0.067469 -0.133564 -0.089140 0.084274 -0.096481 0.171178 -0.178815 0.004040 0.173203 -0.050359 0.190442 -0.066399 -0.103423 -0.106862 0.154822 -0.028093 -0.074403 -0.052718 -0.088736 -0.146486
-0.039009 -0.066051 -0.135281 0.070243 0.173192 -0.119587 -0.090254 -0.026567 -0.208808 0.040939 0.072622 0.005314 0.046749 -0.189487 0.240899 0.092606 -0.187185 -0.169056 -0.257983 0.131477 0.023963 -0.041176 0.166749 -0.150951 -0.196202 0.051616 -0.387746 0.042694 -0.005470 0.115032 0.131127 -0.222422 0.004578 -0.098119 -0.021003 0.001251 -0.138756 -0.120327 0.020588 0.051372 0.009402 -0.093610 -0.172292 0.093392 -0.021769 -0.014649 -0.219448 -0.186468 0.010331 -0.108680 -0.049699 -0.013493 -0.150628 0.094718 -0.163673 -0.091122 -0.025275 -0.092647 -0.058011 -0.035667 0.036864 0.056341 -0.263723 -0.312268 -0.042636 0.182786 0.070899 -0.248629 0.062224 0.012507 -0.093665 -0.014106 -0.074962 0.051870 0.019472 -0.123903 0.085336 -0.097134 -0.160596 0.068262 -0.271219 -0.017827 -0.231367 -0.058842 0.105258 -0.059304 -0.101605 -0.099333 -0.076064 -0.225844 0.147067 -0.121785 -0.132944 0.021204 -0.099338 0.002144 0.010728 0.099076 0.107470 -0.092713
0.003285 0.008485 -0.049029 0.001046 0.055394 0.090263 -0.070964 0.054942 0.011604 0.034037 -0.007852 -0.071397 -0.041500 0.001893 -0.048139 0.018144 -0.046110 0.050582 -0.001125 -0.093979 -0.048215 0.008131 -0.015001 -0.042304 0.096061 0.025169 -0.023100 -0.027878 -0.002638 -0.013141 0.162271 0.004331 0.002285 -0.037353 -0.004685 -0.055095 0.017624 0.004765 -0.025672 0.159284 0.053801 0.046473 -0.001504 0.008995 0.034564 0.007635 0.003923 0.011654 -0.024996 -0.011546 -0.042478 0.004757 0.015212 -0.188721 0.005264 -0.012998 -0.017911 0.081841 -0.009040 -0.022291 -0.018365 -0.126651 0.294330 -0.006951 -0.108336 -0.055466 -0.061846 0.023783 0.018154 -0.009398 0.059637 -0.054762 -0.011772 -0.063562 0.000016 0.021602 -0.028868 -0.006257 -0.015952 0.220654 -0.023625 -0.025755 0.062368 -0.006033 0.000710 -0.034723 -0.002627 -0.157318 0.013597 0.010971 -0.074092 0.022005 -0.010963 0.077807 -0.006030 -0.000417 -0.030765 -0.017044 -0.021963 -0.052591
0.168678 -0.029446 -0.308282 -0.139690 -0.138730 -0.197841 -0.008205 -0.169915 -0.334944 0.058789 -0.051736 0.104620 0.041790 -0.047775 -0.023182 -0.195648 -0.063206 -0.240053 -0.173714 -0.350609 -0.019188 -0.035645 0.062383 0.045602 0.108925 0.142446 0.013284 -0.079970 0.048817 -0.100577 -0.000635 0.038744 0.023842 -0.099614 -0.085797 -0.098303 0.264511 0.068642 0.029353 0.082826 -0.098986 0.047023 0.003390 0.018915 0.039797 0.165152 0.094559 0.063357 0.146164 0.159840 -0.136610 0.040166 0.045177 -0.044947 -0.009251 -0.085908 -0.163873 0.023296 0.048891 -0.009072 -0.037897 0.015255 0.197940 0.071563 -0.186397 0.211786 -0.033070 0.118163 -0.184948 0.153757 -0.190587 -0.117681 0.005330 0.093001 -0.102011 -0.111150 0.097102 0.024909 0.028266 0.033891 0.070390 0.131191 -0.027670 -0.055257 -0.106648 0.021025 0.139437 0.086642 -0.008108 -0.005073 0.109058 -0.179955 0.145011 -0.087076 -0.187357 -0.036469 0.032410 0.029819 0.019397 -0.033567
-0.229201 0.165431 0.010589 -0.044417 -0.090435 0.069982 0.056921 0.109547 -0.135412 -0.020240 -0.086098 0.035066 -0.070717 0.137558 0.038593 0.009474 -0.063816 0.013090 -0.094407 -0.053812 -0.098101 0.006215 0.008274 0.055477 0.031152 0.202429 -0.144142 -0.152495 -0.019131 0.003842 -0.013379 0.080923 0.009081 0.102220 0.082436 -0.044021 0.240543 -0.011326 0.057776 -0.114682 0.171306 -0.001377 0.080544 -0.092995 0.161470 0.109229 0.013241 -0.080376 -0.020977 0.062212 0.045975 -0.025504 0.052043 -0.337554 -0.040573 -0.174153 -0.070317 -0.075854 0.247562 -0.018502 -0.021426 -0.086619 0.041563 0.092652 -0.043155 0.048075 -0.060293 -0.201389 0.046048 0.046093 0.042938 -0.105327 -0.072427 0.104714 0.002024 -0.034102 0.041489 -0.063965 0.009610 -0.276181 -0.036132 0.093107 -0.081094 0.034895 -0.172959 0.312347 0.160513 -0.100139 0.245603 -0.019217 0.023218 -0.102774 -0.133119 0.162161 0.075069 -0.192748 0.021617 -0.337476 -0.098189 0.237262
-0.000001 0.004883 0.018252 0.001203 -0.006911 0.026858 0.113489 -0.032190 -0.091436 0.002942 0.000634 -0.011169 0.211835 -0.043624 0.043444 -0.033792 -0.029009 -0.001986 0.126621 -0.040564 0.033415 0.004841 0.000031 -0.006886 0.169785 -0.001941 -0.000232 -0.055672 0.001604 0.000381 -0.070639 -0.031274 -0.057751 0.039310 -0.000186 -0.019537 -0.127312 -0.000089 -0.006394 -0.023722 0.008725 0.042743 -0.000051 0.019466 0.010480 -0.011525 -0.005281 -0.026249 0.010849 0.070782 -0.022695 0.017197 0.019750 0.060757 -0.000029 -0.040111 -0.001314 -0.007858 -0.046954 0.030470 -0.000694 0.113862 0.088132 -0.000647 0.001406 -0.126368 -0.009617 0.064396 0.000010 -0.026665 -0.076025 0.143214 -0.004003 0.009191 -0.000000 -0.001751 0.014381 0.000250 -0.000000 0.111303 -0.058652 -0.006381 -0.031899 0.006799 -0.023378 0.036403 -0.014113 -0.056455 0.013216 0.000110 -0.020521 0.008383 -0.019882 -0.006308 -0.002959 0.013332 -0.000782 -0.006086 0.004291 0.108009
0.036803 -0.008434 -0.143951 0.055636 -0.038789 -0.078582 0.041600 -0.108122 -0.143703 -0.126635 -0.201953 -0.021918 0.070201 -0.226849 0.045316 -0.067284 0.183680 -0.032732 0.027797 0.068485 0.014302 -0.030767 -0.084995 -0.001404 0.023444 -0.074440 0.216798 0.019152 -0.040610 -0.064139 0.061676 -0.155713 0.203028 0.138775 -0.056324 0.018439 -0.105726 0.036490 0.136230 0.182785 0.131817 -0.044942 -0.132173 -0.076535 0.146204 0.117146 0.081884 -0.106617 -0.138286 0.192215 0.100810 -0.133009 0.092065 -0.273657 -0.100536 -0.008381 -0.247908 0.023049 0.115587 0.009258 -0.090448 -0.089038 -0.102657 -0.123041 -0.056524 -0.099196 -0.173587 -0.021472 0.089911 -0.012686 -0.031065 0.174229 -0.052721 -0.041598 -0.057982 -0.006399 0.182757 0.057009 0.103602 -0.011601 -0.134581 0.092683 -0.037326 0.016546 0.104490 -0.079688 0.028946 -0.027092 0.212651 0.085196 0.074157 0.076390 0.030295 -0.062571 -0.046732 -0.081653 0.044272 0.036093 -0.162934 -0.234195
-0.025929 -0.137552 -0.275590 -0.198344 -0.183117 -0.101007 -0.030440 -0.115245 -0.167820 -0.146363 -0.098503 0.078301 -0.000907 -0.255836 0.053321 -0.019876 -0.208234 -0.125237 -0.264577 -0.048580 -0.099602 -0.153145 -0.050230 0.068654 -0.063743 -0.023578 0.064938 0.047861 -0.087924 -0.046334 0.067418 0.035303 -0.094449 -0.146540 0.007653 -0.167015 0.039202 -0.102389 -0.020656 0.065977 0.102548 -0.073020 -0.111616 0.108365 -0.011862 -0.181677 -0.225914 0.119362 -0.113573 -0.025917 0.063525 -0.210250 -0.178334 0.110895 -0.012698 -0.024904 0.027701 -0.087198 0.077897 -0.076866 -0.118139 0.036731 0.021722 -0.068243 -0.302665 0.048930 0.025715 -0.165415 -0.145433 -0.205798 -0.002621 0.071081 0.167292 -0.251263 -0.029558 -0.266677 -0.184297 -0.188092 0.034207 0.087888 -0.091545 -0.035717 0.095178 -0.072490 -0.125378 0.015451 -0.189756 -0.026012 -0.003464 -0.056906 0.055268 0.189706 -0.000857 0.156603 -0.020556 0.028245 -0.169635 -0.209752 -0.163214 0.063111
-0.012188 -0.052955 -0.055091 0.097891 -0.060229 0.072440 -0.024919 -0.086277 0.034670 0.018644 0.046702 -0.174653 0.083524 0.062133 0.033395 -0.084372 0.014618 0.072213 0.065707 -0.103762 0.080265 0.056625 0.046850 -0.106698 -0.082386 -0.121162 -0.023887 -0.024954 -0.000036 -0.005678 0.221799 -0.092529 0.034731 0.159612 0.009892 0.017632 0.120360 0.016791 -0.042939 0.002972 -0.064056 0.007356 -0.030437 -0.054911 0.014360 -0.102334 -0.045075 0.032419 0.079268 -0.078676 0.057523 0.021262 -0.149967 -0.076207 0.059035 -0.057969 0.039824 0.033206 -0.076868 0.028064 -0.041630 -0.210546 0.140698 -0.117045 -0.132686 0.085149 0.118884 0.048154 -0.011288 0.059311 0.094883 0.128076 0.028826 0.056420 -0.013554 0.009299 0.023228 -0.057594 0.000018 -0.130114 -0.088211 0.014642 0.042418 -0.008520 0.035200 0.049740 -0.106276 -0.185864 -0.137617 -0.009033 0.001865 -0.158696 0.061795 0.150526 -0.024683 -0.018333 0.153531 -0.037918 -0.024839 0.082157
-0.161855 -0.226866 0.158718 -0.114290 0.196350 0.035660 -0.023917 0.027500 -0.071916 0.004550 0.275455 0.039023 0.112344 0.018824 -0.157237 0.018768 -0.185892 0.178922 0.126481 0.155814 0.004158 0.118300 0.020204 0.123080 0.130626 -0.025073 0.028634 -0.197093 -0.089031 0.081576 0.028705 -0.141080 -0.001121 0.205875 0.016067 -0.161588 0.152940 -0.081558 -0.197159 0.083244 -0.099032 -0.046985 -0.139579 -0.246847 -0.044782 -0.129110 -0.011760 0.026529 -0.051184 -0.244376 0.090744 -0.011370 -0.248938 -0.084629 -0.082520 -0.001009 0.116025 0.019294 0.054808 -0.137131 -0.040943 -0.205196 0.183893 0.021683 -0.070150 -0.088335 0.097584 -0.171931 0.085760 -0.159208 0.154246 0.184238 -0.061446 0.035223 -0.221101 -0.001835 -0.027685 -0.040888 -0.093839 -0.059876 -0.057442 -0.074823 -0.045133 0.097241 -0.017094 -0.076060 -0.201906 0.033761 -0.140872 -0.065398 -0.214097 -0.147256 0.123239 -0.106546 -0.068151 -0.036221 -0.059469 0.129240 0.188763 0.098993
0.022700 -0.216618 -0.148607 0.085163 0.101320 -0.226851 0.077939 -0.079555 0.034508 0.003115 -0.050473 -0.099013 0.023239 0.215866 -0.088205 -0.015035 -0.136501 -0.271272 -0.241918 0.009339 -0.000220 0.265866 -0.110759 -0.117014 0.238335 -0.124502 -0.078402 -0.235713 0.093091 -0.005355 0.163603 -0.283755 0.168624 -0.291295 -0.119604 -0.003242 -0.011659 0.025850 -0.089232 0.158161 -0.010829 0.261585 -0.005848 -0.027851 -0.092369 -0.241930 -0.004427 0.275985 0.210297 -0.043992 -0.006975 -0.071595 -0.173697 0.210142 -0.251162 -0.398376 0.040496 0.301797 0.088772 0.113857 -0.012610 -0.241698 0.142710 0.017062 -0.070500 0.062269 0.004057 -0.049397 -0.041194 -0.040310 -0.152062 0.273869 -0.186233 -0.037394 -0.039347 0.102087 0.234429 -0.186905 -0.009600 0.059251 -0.110858 -0.108539 -0.107254 -0.018934 -0.297303 0.066384 -0.056725 0.191833 -0.019169 -0.146435 -0.066758 -0.075567 -0.073427 -0.255335 -0.116668 -0.202395 0.018525 -0.265139 -0.084248 0.061402
0.175278 0.034478 -0.014158 0.011443 0.018487 -0.010852 0.007434 -0.030580 -0.087453 0.053740 0.010943 -0.157403 0.131092 0.006114 -0.048840 -0.081152 0.027745 -0.012775 -0.111963 -0.089663 0.012330 0.229279 -0.000048 -0.026972 0.104227 0.011436 -0.031828 0.035392 -0.041504 -0.004138 0.146472 -0.017490 -0.244900 0.105580 0.005053 -0.157617 0.132537 -0.000010 0.050222 -0.219478 0.019135 -0.021149 0.189302 0.191549 0.036441 0.001997 0.032777 -0.027078 -0.085317 0.028757 0.020884 -0.017454 0.148461 0.015840 0.076161 -0.248695 -0.070886 -0.019311 0.004774 0.005435 -0.007703 0.349867 0.004542 -0.055370 0.007888 -0.136428 -0.000884 -0.103899 -0.048483 0.024897 0.074604 0.089549 0.212412 0.005979 -0.001701 -0.046050 -0.109718 -0.113100 0.076710 -0.098241 -0.075137 -0.001878 0.073953 -0.005062 0.083403 0.053636 -0.109562 -0.028838 0.146460 0.001543 -0.117089 0.120348 -0.021716 0.117689 0.090731 -0.013007 0.044338 -0.034207 0.034750 -0.065697
-0.017660 0.066934 -0.088944 -0.057398 0.038620 -0.051598 -0.214756 -0.223415 0.010354 -0.099661 0.124486 0.004654 0.021247 -0.042133 -0.013234 -0.125833 0.062109 -0.080376 -0.155892 -0.005785 0.008496 0.149590 -0.171148 -0.047118 -0.080974 -0.028908 0.043434 0.031910 -0.086429 -0.127132 0.065828 -0.034142 -0.044936 -0.295261 -0.045368 -0.199730 -0.242878 -0.118123 -0.140681 0.043804 0.048092 -0.018564 0.050990 0.047931 0.214979 -0.087514 -0.038416 -0.207872 0.106567 0.153496 -0.304945 -0.205269 -0.047782 0.150345 -0.119137 0.150216 -0.109694 0.072274 0.137286 -0.038037 -0.037864 0.124202 0.049459 -0.067413 -0.213875 -0.036607 -0.229011 0.079137 0.039835 -0.047825 -0.140149 -0.123617 0.032869 -0.045966 -0.036389 0.020376 0.016881 -0.019799 -0.153095 0.031238 0.182241 -0.092352 -0.162859 -0.004994 0.002259 -0.031512 0.114952 -0.131278 0.018405 -0.046940 -0.148511 -0.230337 0.098934 0.081147 0.003005 0.012789 0.009150 -0.127277 -0.059420 -0.074981
-0.228056 -0.055577 -0.192819 -0.176862 0.086402 -0.147210 0.201831 -0.087086 -0.026438 -0.242727 -0.081794 0.202885 -0.208407 -0.117629 0.034478 -0.036258 -0.064823 -0.007838 0.043708 -0.176610 -0.064605 -0.096444 -0.189739 -0.210831 0.119619 -0.112665 -0.012259 0.037863 -0.146025 -0.087967 0.051961 0.181586 0.092694 -0.000205 -0.134258 -0.189783 -0.113950 -0.006432 0.147627 -0.151364 -0.040198 -0.071636 -0.018745 -0.025543 -0.093160 -0.162228 -0.010820 0.046438 0.130186 0.163266 -0.008781 0.196239 -0.060123 0.308769 -0.031660 0.045943 -0.085360 0.075829 0.037100 0.149078 -0.034765 -0.048527 0.149725 -0.047967 -0.128906 0.074823 -0.108466 -0.019943 -0.106282 -0.105672 -0.162493 0.134978 0.073870 -0.089033 -0.053589 0.090885 -0.052669 -0.203487 -0.178393 0.185276 0.022119 -0.025566 0.195039 0.034585 0.126698 0.106296 0.043818 0.130429 0.000142 -0.040105 0.066152 -0.284526 0.144121 0.138794 -0.001826 0.002116 -0.027043 -0.351532 -0.026054 0.075366
0.038597 0.024240 -0.143596 -0.023830 -0.102926 -0.135501 0.092008 0.030230 0.095514 -0.007233 0.217279 0.011886 -0.025837 0.008442 -0.124517 0.031994 -0.007337 0.138930 -0.051673 0.100072 0.018680 0.044651 -0.109350 -0.025556 -0.016737 0.164452 -0.208883 -0.004158 -0.001615 -0.077376 0.106030 -0.018542 0.188704 -0.155331 0.007400 0.018659 0.086100 0.042439 0.145072 -0.251355 0.033151 0.158575 0.065642 0.013053 0.054389 -0.067491 0.012031 -0.035762 -0.031053 0.245747 0.120198 -0.090649 -0.145104 -0.227567 -0.042575 -0.040648 -0.004610 0.033866 -0.014653 -0.022954 0.040986 0.204741 -0.057611 -0.056937 -0.070388 0.061966 0.066255 -0.111980 0.108034 0.237886 -0.234379 -0.017391 -0.068525 -0.082885 0.233478 0.127836 0.119184 -0.090990 0.019188 -0.187447 -0.226393 0.095675 0.083172 -0.038561 -0.138340 0.187805 -0.067566 0.138989 -0.039918 0.088727 0.177214 -0.259267 -0.129148 0.031300 -0.050383 -0.064312 0.055701 0.007103 0.273419 -0.182059
-0.039510 -0.197028 -0.049307 -0.129399 0.001939 0.148979 0.048104 -0.041832 -0.182031 -0.187494 0.080249 -0.074181 0.184233 -0.190023 0.099551 -0.122546 0.175008 -0.011874 -0.018760 -0.133129 -0.028853 -0.100964 -0.223713 -0.049477 0.212374 -0.025606 0.078233 0.140613 -0.048309 -0.061851 0.004999 -0.232011 0.140161 0.094420 -0.080974 -0.101237 -0.034531 -0.036148 0.081982 0.222362 0.177242 -0.045999 0.138833 0.116251 -0.041994 -0.062780 -0.082647 -0.188534 -0.138118 -0.004110 0.150550 -0.273552 -0.099245 0.122893 0.000882 -0.107272 -0.097821 -0.049732 0.086184 -0.186169 0.031430 0.017552 0.094986 -0.039927 0.005097 -0.035012 -0.219954 -0.050351 -0.013474 -0.020493 0.163426 0.004739 -0.056915 0.085862 0.046642 -0.178429 -0.028396 -0.036820 0.018485 -0.163820 -0.166973 0.096745 -0.071302 0.077549 0.039199 -0.068311 0.197304 -0.137851 -0.033143 -0.027440 -0.009657 0.204407 0.131537 0.024205 -0.017947 0.029399 -0.032862 -0.126139 -0.036145 -0.010593
-0.019022 0.109607 -0.068236 0.030226 0.136719 -0.054982 -0.173061 -0.065131 0.094025 -0.120788 -0.355796 -0.024781 0.122499 -0.087674 -0.044379 0.062108 -0.106188 -0.195593 -0.207740 -0.233786 -0.075912 -0.137526 0.055755 0.018608 -0.145216 0.113504 -0.121517 0.051014 -0.235918 0.057467 -0.067154 -0.067691 -0.023126 0.032713 -0.165093 -0.044259 0.057809 -0.138663 -0.197527 0.033867 -0.100467 -0.172914 -0.017243 0.066027 0.043454 -0.117283 0.016615 -0.024031 -0.130520 -0.059089 -0.131888 -0.158056 -0.103040 -0.013521 0.005733 0.078566 0.095329 -0.104178 0.006209 -0.032795 -0.016056 0.043836 -0.106443 -0.140993 -0.196595 -0.017683 0.027720 0.019422 0.026554 -0.165001 0.161869 -0.055037 0.009732 -0.142213 -0.245623 0.147407 -0.151899 0.201180 -0.123179 0.003822 -0.108919 -0.010991 0.058741 -0.155707 -0.018440 -0.066549 -0.004349 0.140902 -0.090069 -0.035822 -0.056895 -0.018585 0.060292 0.020075 -0.255454 -0.014126 0.013950 0.041633 -0.130645 -0.086000
-0.012954 -0.128681 0.032803 -0.013006 -0.181435 -0.105466 0.245539 0.218946 -0.130671 -0.028054 -0.021807 0.148526 0.165954 0.039445 0.044856 0.346914 0.068921 -0.164862 -0.070068 0.184472 -0.044388 -0.003022 0.006504 -0.106102 0.160172 -0.195356 0.024073 0.019954 -0.067116 -0.037910 -0.002485 -0.020755 -0.067751 -0.301653 -0.097467 -0.210684 0.085168 -0.011809 0.048229 0.025287 0.187545 -0.253341 -0.067442 -0.081961 0.000690 0.241700 -0.076127 0.133951 0.137044 0.162520 -0.004188 -0.073295 -0.093276 -0.010072 -0.037869 -0.059553 -0.006157 0.151947 0.096567 -0.229346 0.028586 0.004098 0.076492 0.083332 0.051382 0.082283 -0.073840 -0.077502 0.013434 0.041613 -0.030784 0.195117 -0.025371 -0.034544 0.045286 -0.113671 0.113859 0.273596 -0.012610 -0.037522 0.054720 -0.041168 -0.000242 -0.076967 -0.168628 -0.053931 0.139907 0.256996 -0.225715 0.085222 -0.166985 -0.071939 -0.200220 -0.139004 -0.075150 -0.248851 -0.133863 -0.209412 -0.003342 -0.014393
-0.213073 -0.147842 -0.149682 -0.260335 -0.097337 -0.096614 0.046961 -0.094331 0.026653 -0.095652 -0.119669 -0.145849 0.128487 -0.038993 0.077337 -0.049393 -0.137994 -0.095450 -0.185138 -0.255917 -0.160821 0.127092 0.015743 -0.267107 -0.132318 -0.022531 -0.175557 -0.084697 -0.128778 -0.100506 0.061303 0.064476 -0.151121 -0.104941 0.047947 -0.219611 -0.037181 -0.133286 -0.246290 -0.030773 -0.133144 0.026008 0.111362 0.064011 -0.124854 -0.046017 -0.088956 0.076878 -0.050072 -0.213480 -0.062678 0.122825 -0.123075 -0.024403 -0.054901 -0.149788 -0.237476 -0.174272 -0.043807 0.137624 -0.049492 -0.118589 0.069069 -0.301531 -0.262482 -0.084313 -0.318874 -0.160100 -0.038036 -0.071533 0.019231 0.064030 -0.032711 -0.063106 -0.127481 -0.060975 -0.095464 -0.225531 -0.120706 0.074909 0.046334 -0.333415 -0.150560 -0.213815 0.123737 -0.094778 0.109135 0.102698 -0.055980 -0.024317 -0.017823 0.054261 -0.034114 0.086549 -0.040679 -0.002212 -0.040242 0.056321 -0.179232 -0.147851
-0.012610 -0.014157 0.308130 -0.090560 0.039187 -0.124013 0.175771 -0.032981 0.068875 -0.293816 0.153503 -0.263430 0.134787 -0.205543 0.090255 -0.063692 -0.063628 0.153092 -0.061943 0.005369 -0.041210 0.041975 0.052399 -0.101440 0.031040 0.045523 0.018888 -0.137038 0.111053 0.138114 0.064343 0.084735 -0.061829 -0.005643 -0.065419 -0.113900 -0.085247 0.019427 0.031903 0.084966 0.084121 0.085414 0.145099 0.209190 0.013680 -0.188978 -0.202797 -0.031595 -0.191244 -0.202068 -0.162124 0.123501 0.042525 -0.058336 0.237972 -0.097044 0.049100 -0.022112 0.009293 -0.197844 -0.054174 -0.009931 0.129116 -0.123081 0.137160 0.025070 -0.198601 0.146930 0.127218 -0.160853 0.049379 -0.083168 0.023027 -0.004245 -0.101064 -0.121916 -0.065121 -0.082944 -0.017208 -0.082759 -0.014612 0.030043 -0.222439 -0.080229 0.082422 0.044406 0.095184 -0.010120 -0.423012 -0.155971 -0.046871 -0.129933 0.185244 -0.145701 -0.050290 -0.315383 -0.058193 -0.095457 -0.244846 -0.146125
-0.066626 -0.086310 0.103152 0.009099 0.048995 -0.029694 -0.196343 -0.194299 0.049451 -0.157017 -0.103039 0.029360 0.071900 0.263967 -0.058196 -0.033655 -0.038001 -0.064320 0.151499 -0.042596 0.038877 -0.110931 -0.084110 0.142734 0.007440 -0.085994 -0.055626 -0.014438 -0.110757 -0.000195 0.057426 -0.043397 -0.040815 -0.231943 -0.051085 0.142037 -0.173095 -0.064772 -0.131035 -0.079695 0.152373 0.076833 -0.190933 -0.247512 0.054868 0.050562 -0.070698 0.126341 0.183930 -0.099305 -0.167341 -0.136845 -0.185881 -0.014109 -0.092874 0.202476 -0.016268 0.103316 0.055242 -0.108865 -0.013724 -0.230231 0.101304 -0.007058 -0.114236 -0.284220 -0.123390 0.132245 -0.089848 -0.317048 -0.065000 0.013707 -0.079949 -0.072211 0.006665 -0.055020 -0.130506 -0.092606 -0.141249 0.108043 0.012879 0.114291 -0.117200 0.119450 -0.022249 0.010964 0.165443 0.101293 -0.006872 -0.005919 0.029616 -0.041484 -0.137158 -0.141813 -0.004404 -0.059001 -0.236839 -0.048055 -0.006834 -0.246362
-0.092876 -0.123394 -0.125958 -0.091798 0.046390 0.106348 -0.056886 0.165919 -0.216782 0.175608 -0.060282 0.084998 0.060250 -0.030165 -0.123924 -0.104117 -0.061611 -0.005491 -0.107836 0.012020 0.097787 0.231069 0.104266 -0.085645 -0.077087 -0.283051 0.009463 0.141657 -0.008335 -0.004655 0.022319 0.112650 0.070107 0.069841 0.000998 -0.044549 0.237537 -0.031750 -0.096642 0.016949 -0.216428 -0.103501 0.062761 -0.172520 -0.309772 -0.083689 0.054399 0.120000 -0.223671 0.062397 -0.141736 -0.246094 -0.101817 -0.239621 0.054762 -0.032707 -0.138530 0.240331 -0.195230 0.077859 0.025291 0.087955 -0.055577 -0.060746 -0.049360 0.048474 0.004980 0.159878 0.204723 -0.206866 -0.091319 -0.068901 0.225791 -0.121257 -0.084233 0.087723 0.016203 0.194887 0.300139 -0.116491 -0.059704 0.200231 0.012500 -0.121308 0.323911 0.082424 0.085227 0.070830 -0.008215 0.115990 -0.151829 -0.024772 -0.182573 0.195014 -0.019174 0.100419 -0.060669 0.002765 -0.013588 -0.021039
0.076570 0.071268 -0.269272 -0.081561 -0.004038 0.095028 -0.077449 -0.171919 0.047261 -0.116487 -0.263142 0.176001 -0.108123 -0.214686 0.094579 -0.013742 -0.155512 -0.104092 0.135570 0.037793 -0.210255 -0.315115 -0.203176 -0.004905 -0.130925 -0.105640 0.032148 -0.029806 -0.042797 -0.172703 0.056697 -0.061563 -0.027434 -0.142739 -0.100634 0.030604 -0.130460 0.046401 0.043588 0.141842 -0.166971 -0.123898 -0.062830 0.089087 0.072066 0.053765 -0.049819 -0.126581 -0.114730 -0.061634 -0.179563 -0.061027 -0.081132 -0.005213 0.078070 0.076451 -0.163665 -0.201477 0.166002 -0.156247 -0.048788 -0.084029 0.026213 0.063990 0.114230 -0.118655 0.060111 0.197221 -0.218377 0.056205 -0.175633 -0.113751 0.055437 0.110964 0.028312 0.076294 -0.095847 -0.162812 0.223835 -0.001646 0.097368 -0.004511 -0.089603 0.009387 -0.056219 -0.111928 -0.063985 -0.009526 -0.089932 -0.074722 -0.106525 -0.228726 -0.086362 -0.035916 -0.134200 -0.092667 0.050836 -0.129429 0.164572 0.033798
0.141567 -0.063232 0.376895 0.024753 -0.114369 0.034952 -0.003191 -0.039594 0.216529 -0.064822 0.196006 -0.020400 -0.039162 0.081318 0.061447 -0.040097 0.178300 -0.105019 0.062333 0.144409 0.016777 -0.122123 0.059280 -0.197480 -0.140751 0.095839 -0.246924 -0.223732 -0.134124 0.059707 0.004123 -0.046226 -0.074466 -0.044733 -0.011888 -0.233128 -0.248354 -0.003477 0.023237 -0.101835 -0.178958 -0.098723 -0.072369 0.220404 -0.020665 0.150009 0.003868 -0.018329 -0.047545 0.203590 0.088898 -0.134872 0.081360 -0.062245 -0.098196 -0.091198 -0.022084 0.083985 0.057184 -0.103644 -0.019722 0.136703 0.305225 0.054931 0.028791 -0.165083 -0.016319 -0.172848 0.209443 -0.076431 0.140222 -0.008236 -0.012907 0.165932 -0.070310 -0.134481 0.017148 -0.070037 -0.099773 -0.093630 -0.055763 -0.121618 0.016939 -0.130857 -0.198836 0.260247 0.429235 0.204438 0.169055 -0.019946 0.109371 -0.217695 0.293148 0.056125 0.039074 -0.059235 -0.006461 -0.171357 0.106468 -0.193134
0.087577 -0.033235 -0.095443 0.104242 0.022680 -0.003262 0.003771 0.055233 -0.171811 0.003890 -0.071618 0.117502 -0.132351 -0.178487 0.047679 -0.016700 0.042356 -0.009078 0.003127 -0.215959 -0.073665 -0.325673 -0.151962 -0.241954 -0.154340 0.068613 0.070285 0.188292 -0.010266 0.067309 0.197373 -0.105465 -0.290789 -0.170684 0.075506 -0.145244 -0.132653 -0.047263 0.102913 0.083204 -0.029418 -0.281218 0.082234 0.036625 0.219116 0.003123 -0.169180 -0.173201 -0.239934 0.089442 0.161780 -0.082082 0.116470 0.044438 -0.073010 0.025529 0.094410 -0.142615 -0.113657 -0.076446 -0.081610 0.197306 -0.246841 0.026526 -0.100187 0.137198 -0.139433 0.163020 0.120519 0.098057 0.001344 -0.134468 -0.230916 0.040647 -0.036360 0.074614 0.007990 -0.016529 -0.090207 0.153105 -0.285732 0.073504 -0.033912 -0.096764 -0.094838 0.091096 -0.047338 -0.164232 -0.171732 -0.094289 -0.037008 -0.217331 -0.101726 0.068612 -0.084932 -0.031248 -0.132969 -0.126921 0.127178 -0.050877
-0.015829 -0.115571 0.079673 -0.163022 0.134194 -0.118076 -0.019260 0.040477 -0.066781 0.011762 0.007175 -0.010131 -0.229242 0.050797 -0.031852 0.246611 -0.145198 -0.227254 0.076211 -0.023933 -0.119360 -0.330338 -0.083561 0.116713 -0.112089 -0.181047 -0.137299 -0.015867 0.026531 -0.058788 0.170107 0.096512 -0.211972 -0.111634 -0.055960 -0.074405 -0.075393 0.006148 -0.098242 0.063789 -0.097851 -0.143599 0.112110 0.018142 -0.034614 -0.123330 -0.144669 -0.182368 -0.028248 -0.173905 0.103003 0.036861 0.092465 0.047028 0.022521 0.027168 0.008684 0.166535 -0.095824 -0.041017 -0.059332 -0.141868 0.096525 -0.092677 0.092818 0.075589 0.013724 -0.120104 -0.050458 -0.048955 0.015226 -0.146761 0.122604 0.032441 0.073672 -0.105612 -0.143311 0.105087 -0.040998 0.253107 -0.060594 0.079275 0.053037 0.008284 0.036752 0.148393 -0.083453 0.117706 0.023394 0.162543 0.004592 -0.079046 0.106840 0.084349 -0.171205 0.166233 -0.025118 0.128588 0.174015 0.006845
-0.096899 -0.116350 0.088709 0.021143 -0.047856 -0.082620 -0.099933 -0.037575 -0.010335 -0.043369 -0.191195 0.014123 0.038552 0.023820 -0.193456 -0.225344 -0.108794 0.025807 0.022458 0.072975 -0.094921 -0.067664 -0.098904 -0.028577 0.086022 -0.063731 -0.098973 -0.108156 0.117241 -0.058151 -0.103604 -0.267806 0.059286 -0.181260 -0.183178 0.080986 0.087056 -0.027455 -0.172163 -0.016171 0.076156 -0.087442 -0.037609 -0.026351 -0.246200 -0.161727 -0.124524 -0.083134 0.038789 -0.088400 0.070065 -0.163109 -0.039140 0.097994 -0.056302 0.044880 -0.045695 -0.050085 -0.027902 -0.231424 -0.177653 0.105148 -0.028499 -0.275360 0.004314 -0.036669 0.090193 -0.157803 0.035566 0.034942 -0.073867 0.092655 0.015327 -0.101548 -0.216505 -0.091596 0.007171 0.045457 -0.094326 -0.210796 0.104184 0.063400 0.066971 -0.087410 0.000505 -0.064727 -0.156764 0.063757 -0.003866 -0.085455 0.071595 0.023729 -0.035137 -0.256866 -0.109955 0.039074 -0.056228 -0.108146 -0.105485 0.006317
-0.106069 0.140780 0.077052 -0.156621 -0.114766 -0.098276 -0.198807 0.084934 0.156301 -0.158295 -0.023684 -0.168756 -0.167682 -0.104064 -0.012434 0.067081 0.008342 0.104626 -0.082077 0.211360 -0.054116 -0.149825 -0.135215 0.043333 0.142805 -0.258444 -0.245839 -0.005560 -0.020231 -0.026052 0.131392 -0.091963 -0.112823 -0.228278 0.227600 0.081859 -0.146763 0.067398 -0.029640 -0.001462 -0.000190 0.210996 -0.129796 0.150456 0.019620 -0.166235 -0.008402 -0.041969 -0.180821 -0.208961 -0.203602 -0.154085 0.184740 0.255084 -0.031785 0.258238 0.027658 -0.129445 -0.041962 0.111065 -0.085061 0.059375 0.167089 -0.048370 -0.150766 0.072193 -0.131227 -0.011555 -0.049341 -0.086236 0.064865 -0.094854 0.076453 0.248340 -0.004258 -0.232867 -0.007723 0.194914 -0.236781 -0.143005 0.185786 0.103759 -0.138260 -0.053145 -0.339232 0.254776 0.108176 0.012438 0.044611 0.112356 0.109470 0.078338 0.063452 -0.032173 -0.137849 -0.090271 0.011862 -0.028445 0.030848 -0.141968
0.049744 0.055220 -0.019522 -0.046501 0.039515 0.032662 -0.274841 -0.272392 -0.206703 -0.072843 -0.065791 -0.200958 0.063168 -0.006357 0.128594 -0.224092 0.093145 -0.064738 -0.279862 -0.140157 -0.024832 -0.027565 0.153431 -0.277179 -0.192059 -0.105676 -0.271795 0.123744 -0.126650 -0.032485 -0.143648 0.155981 0.006793 -0.072082 -0.069236 0.064546 0.064938 0.066691 -0.057480 -0.032813 -0.292313 -0.121254 0.098099 -0.016180 -0.215618 -0.098677 -0.038229 0.178253 0.004878 -0.097025 -0.277805 -0.188184 0.218893 -0.011218 0.011999 0.043483 -0.057785 0.054385 -0.083214 -0.243031 -0.032347 0.210789 0.036543 0.144399 -0.079827 0.161598 0.078655 -0.064876 -0.007264 0.057154 0.072330 -0.001188 0.046902 0.026136 0.106542 0.052220 0.001953 -0.138404 -0.207469 -0.031293 -0.073167 0.038284 -0.213458 -0.048267 -0.231546 0.094214 0.155334 0.167339 0.036549 -0.110809 0.108005 0.175937 0.129544 0.008355 -0.220579 -0.096431 -0.220080 0.165130 0.100422 -0.213658
-0.189553 -0.017757 -0.106371 0.082704 -0.118612 0.018395 -0.101148 -0.102016 0.005160 -0.004848 -0.087039 -0.092883 -0.081564 0.000727 -0.083706 -0.073620 -0.018372 0.006727 -0.058107 0.029756 0.007188 -0.119342 -0.105976 0.004531 -0.111299 0.068114 -0.230404 0.146552 0.024432 0.039685 -0.085602 -0.145065 -0.052653 0.102387 0.099124 -0.060448 -0.196177 -0.001058 0.126037 -0.030468 -0.102421 -0.161187 0.234597 -0.017200 0.071884 -0.023398 0.046854 0.309011 -0.067472 -0.000571 -0.137201 0.089449 -0.309919 0.152836 0.010657 -0.079444 0.117581 0.153465 0.105770 -0.088081 -0.028637 -0.246893 -0.074863 -0.015772 -0.014362 -0.025607 -0.022934 -0.134873 0.048666 0.232648 -0.046902 0.126723 0.080301 0.210199 -0.003471 0.018326 -0.037298 0.037149 -0.043300 0.105929 0.229538 -0.027644 -0.165955 -0.042288 -0.125051 0.109212 -0.059626 0.224464 0.031315 0.086399 0.017731 0.024959 -0.083862 0.111484 0.109752 -0.368314 0.104003 0.058542 0.179639 0.039372
0.163628 0.227113 0.108861 -0.062508 0.181000 -0.162280 -0.023765 0.146968 -0.133760 -0.019562 -0.071391 -0.104711 -0.059709 -0.039643 0.083800 -0.020529 0.034117 -0.080447 -0.009803 0.110449 0.054073 0.025644 -0.241637 0.035181 0.222363 -0.071211 -0.131524 -0.048779 -0.060489 0.024484 -0.069704 0.116694 -0.286900 0.051900 0.038130 0.067406 0.067179 0.006173 -0.087733 -0.036546 0.071275 0.157151 0.027373 0.053071 0.056320 -0.033925 0.022419 0.055287 -0.129294 -0.088776 0.025475 0.014733 -0.088765 0.058393 0.034542 0.177486 -0.043174 -0.018380 -0.210600 -0.181487 0.029905 -0.187081 0.236650 0.108648 0.136287 -0.239053 -0.025502 -0.432636 0.010122 0.051755 0.111843 0.031065 -0.052151 0.019424 -0.016828 0.051089 -0.030482 0.148887 -0.019479 0.198202 0.108066 0.071505 -0.306881 -0.058065 -0.090062 -0.162956 -0.242508 -0.207060 0.049888 -0.041368 -0.324384 -0.081414 -0.067624 -0.123894 0.072580 -0.018407 0.154287 -0.024454 0.172505 0.160403
-0.011423 -0.109945 -0.035714 0.001560 -0.025749 0.043878 0.114285 0.117714 0.107749 -0.055854 -0.017714 -0.037167 0.039631 0.012852 -0.044583 -0.140322 -0.069742 0.000367 -0.043514 0.022337 -0.025699 -0.099327 0.037047 -0.060608 0.013922 0.144766 -0.037378 0.124666 -0.000001 -0.122480 0.041154 -0.078689 0.164485 0.104247 -0.023729 -0.021016 -0.087102 -0.022513 -0.055396 0.020290 -0.008770 -0.053678 0.008816 -0.077860 0.045189 -0.004249 0.033458 -0.056403 0.051256 0.131980 -0.053746 -0.001294 -0.098119 0.079237 0.041286 -0.001084 -0.000709 0.054248 -0.068153 -0.025896 0.007877 -0.044336 0.110258 0.041308 0.137605 -0.035380 0.027126 0.057624 -0.105498 0.029237 -0.112224 0.029766 0.124380 0.117036 -0.006978 -0.019688 0.128499 -0.026569 0.064032 -0.004017 -0.096686 0.048647 0.065628 0.019462 -0.017085 -0.012569 -0.078699 -0.148957 0.064085 0.064386 0.138365 -0.058102 -0.016554 0.143858 -0.006993 0.156737 0.011093 0.091171 0.182572 0.108354
-0.193179 -0.080629 0.072137 -0.198724 0.021309 -0.094356 -0.163464 -0.097175 -0.010188 -0.145608 -0.100997 -0.172870 0.051223 0.016779 0.005342 -0.077292 -0.029133 0.210503 -0.162956 -0.291145 -0.053809 0.090524 -0.168729 0.024895 -0.082471 0.004530 -0.084557 -0.069421 0.019743 -0.057068 0.011389 -0.092651 0.132884 0.054634 -0.004358 -0.021500 -0.060577 0.036908 0.037916 0.087247 -0.093659 0.027145 0.011525 0.066175 -0.182610 0.214753 -0.172185 -0.024681 -0.166218 -0.194425 -0.197745 0.119402 0.191818 -0.055379 -0.005097 0.009906 -0.088316 0.007887 -0.005649 -0.171809 -0.120443 -0.177071 -0.209931 0.095326 -0.029524 0.100441 0.021830 -0.046100 0.007102 0.009648 0.059512 -0.052547 0.100096 0.167818 0.073670 -0.100122 -0.058198 -0.263269 0.071233 -0.042947 -0.135778 0.118738 -0.067549 0.112837 0.198166 -0.148567 -0.019336 0.093906 -0.006269 -0.138284 -0.099148 -0.057512 -0.068976 0.150145 -0.024594 0.154104 0.003180 0.000505 0.126159 -0.029637
0.123810 -0.139875 -0.072294 -0.096348 -0.056570 -0.173162 -0.114010 -0.174084 -0.178312 -0.017718 0.110479 -0.151702 -0.065983 -0.052434 -0.160585 -0.041138 -0.053346 0.213036 -0.196007 0.142584 0.024827 -0.033281 -0.019526 -0.257415 -0.172219 -0.282971 -0.081545 0.022025 -0.147443 0.077198 0.136472 -0.211482 0.109908 -0.119229 -0.150186 0.066614 -0.215077 -0.036553 -0.045234 -0.017118 -0.041748 -0.195721 -0.068279 0.121128 0.038373 0.011364 0.073560 0.077216 -0.196889 -0.154836 0.046720 -0.219793 0.307741 -0.143868 -0.044598 0.057161 -0.164524 -0.091385 0.157291 -0.049129 0.082875 -0.140878 -0.416395 0.013415 -0.156564 0.215242 -0.091446 -0.146188 -0.036469 0.140716 -0.102756 0.049293 -0.052651 0.023300 0.065186 -0.114662 0.141300 -0.117343 -0.129518 0.096965 -0.127035 -0.176795 0.055070 -0.083800 0.015743 0.120002 -0.226900 0.217920 0.033039 0.059493 -0.080752 0.001974 0.024508 0.160994 0.021607 -0.064365 -0.115655 0.267888 -0.039685 -0.038544
0.141757 -0.157959 -0.004724 -0.193733 -0.151237 -0.013149 -0.074462 0.111932 0.126207 -0.025360 0.030260 0.007283 0.011996 -0.097276 -0.137229 -0.228537 0.123546 -0.306101 0.074816 0.020558 -0.184375 -0.007434 -0.025871 -0.117783 -0.305826 -0.094102 -0.102148 0.102347 -0.004757 0.042071 -0.067947 -0.070955 -0.177156 -0.152123 0.004664 0.144062 -0.003930 -0.060993 -0.014148 -0.157386 0.056017 0.052620 0.059368 0.163719 -0.219871 0.064964 -0.100661 -0.090537 -0.036278 0.092989 -0.010223 -0.044379 -0.039799 -0.273735 0.101306 0.092239 0.017998 0.108580 0.013337 0.009419 -0.099794 0.062419 0.200690 -0.061800 0.125930 0.072175 -0.072940 0.150033 -0.013852 0.081146 0.011389 -0.136261 0.165332 0.067177 0.026338 -0.164369 -0.256192 -0.129057 -0.026810 0.234431 0.121184 0.063929 0.138355 -0.070530 -0.039311 0.049720 -0.058639 -0.281355 0.033108 0.046851 -0.131420 -0.078925 0.117743 0.148610 -0.009258 0.204625 0.000540 -0.118849 -0.050448 -0.185332
-0.119719 0.040932 0.127820 0.008777 0.027633 0.082199 -0.126040 -0.189688 0.036709 0.004042 0.040540 0.036312 -0.146264 -0.005756 0.055380 0.010035 0.029023 0.053175 0.128249 -0.026342 0.033902 0.051320 -0.124845 0.050749 0.097084 0.117088 -0.075693 -0.072976 -0.001943 -0.090123 0.057885 0.082112 0.066752 -0.037704 -0.023494 -0.111354 0.060639 -0.019065 -0.133236 0.039627 -0.097309 0.144458 -0.003319 -0.070768 -0.104977 -0.070478 0.011929 0.026763 0.029942 -0.116698 -0.148730 0.018252 -0.204106 -0.103044 0.002058 0.178032 -0.006399 -0.027356 -0.015067 -0.029238 -0.005639 0.045919 0.267373 -0.076080 0.084022 -0.072634 -0.107989 -0.134211 0.056780 -0.003233 0.081403 -0.069619 -0.134812 -0.064862 0.021489 -0.066880 0.086102 -0.041636 -0.042200 0.229607 0.111043 0.098732 -0.000973 0.038227 -0.022867 -0.049340 -0.062370 -0.135462 0.117556 -0.013534 -0.057856 -0.073429 0.005936 -0.069734 0.096171 -0.099696 0.018557 -0.058529 -0.028875 0.194910
0.075335 -0.062960 0.034939 -0.054602 -0.197806 -0.165599 0.023192 -0.069045 -0.051255 -0.040692 -0.017801 -0.136964 -0.155524 -0.100746 -0.098662 0.103349 -0.065383 -0.130734 0.046686 -0.115862 -0.101626 -0.170915 -0.145704 0.081358 -0.004087 -0.237041 -0.167065 0.070053 -0.128776 0.115618 -0.009933 0.063996 -0.012720 0.118040 0.168453 -0.249814 -0.066783 -0.092070 -0.057701 0.012074 -0.106807 -0.123502 -0.187944 0.079940 -0.399878 -0.122641 -0.019235 0.033485 -0.125443 0.025187 0.003935 0.156187 -0.123068 0.013196 -0.003652 0.189619 0.050021 -0.230347 -0.000992 -0.083669 -0.126824 0.173668 0.105924 0.060857 0.071518 -0.117150 0.098623 -0.079629 -0.090577 0.024731 0.007847 0.002389 0.012831 -0.042178 -0.033396 0.089681 -0.000211 -0.114221 -0.009311 0.041412 0.074150 0.114067 0.070304 -0.022882 -0.097043 0.098281 0.187544 0.037586 0.172024 -0.099409 0.089638 0.017204 0.172782 0.043281 -0.170340 -0.030631 -0.228225 -0.044780 -0.186871 0.013833
-0.090507 -0.101583 -0.088681 0.207114 -0.057505 0.077222 0.081489 0.207213 -0.144534 0.015058 -0.018344 0.177088 0.211380 0.119118 -0.042984 -0.215800 0.046316 -0.075398 -0.088993 -0.126958 0.075906 0.022866 0.134821 -0.021294 0.047732 0.119924 0.064756 -0.022193 -0.040772 -0.014487 -0.190550 0.154502 -0.063515 -0.051835 0.006599 -0.046637 0.244162 -0.003380 0.114279 -0.209238 -0.040570 0.034139 -0.001796 0.171528 0.146397 -0.098200 0.055986 0.018636 -0.009461 0.190645 -0.258217 0.072213 0.237379 -0.229174 -0.064645 0.050128 0.195981 -0.162929 0.092632 0.185234 -0.008127 0.053063 -0.127895 0.032699 0.225871 0.009046 0.029138 -0.066176 0.121787 -0.165413 -0.067167 0.016805 0.025920 -0.005070 0.029071 -0.024172 0.063050 -0.017427 -0.084875 0.023122 -0.271002 0.108784 -0.010420 -0.041381 -0.059342 0.161730 -0.208096 -0.080167 0.027262 0.011719 0.052745 -0.055645 -0.196837 -0.133242 0.075206 0.104773 -0.054598 0.165735 0.016370 0.180713
0.078373 -0.091224 0.201249 -0.144423 0.077456 0.051198 0.021873 0.095308 0.206740 0.022819 0.116117 -0.113451 0.147380 -0.097401 -0.025670 -0.015920 0.178442 -0.004354 0.127772 0.276621 -0.065243 -0.012992 0.190950 0.065329 -0.059269 -0.130384 -0.011877 -0.185677 -0.013074 -0.063403 0.047678 -0.389378 0.050562 0.070208 0.011271 0.066699 0.174474 -0.072510 -0.073756 0.049803 -0.028349 -0.060120 -0.113280 -0.125509 -0.021464 -0.154820 0.167091 0.232934 -0.121321 -0.171345 0.006046 0.191747 -0.004744 -0.115187 0.000683 0.068550 0.003781 -0.054208 0.222809 -0.248273 0.001763 -0.276861 0.071931 0.324026 0.157965 0.202949 0.042106 0.096303 -0.153138 -0.021649 0.195533 0.022062 -0.085802 -0.073584 -0.018946 0.163214 -0.134184 -0.101281 -0.071296 0.161967 0.004605 -0.113007 -0.017601 0.115711 -0.124764 -0.079918 -0.082195 0.053661 -0.102861 0.248515 -0.180390 -0.012946 -0.011803 -0.176379 0.277369 -0.255111 -0.040955 -0.049978 -0.107399 -0.080903
-0.032045 0.102391 0.029121 0.151033 -0.103019 0.062556 0.059909 -0.145764 0.092418 0.067362 -0.117120 -0.064437 0.130260 0.073987 0.125117 0.017163 0.082329 -0.155910 0.056089 -0.129023 -0.071888 -0.081751 -0.103525 -0.087048 -0.064451 -0.006140 -0.035232 -0.035735 0.077631 0.063813 -0.048989 -0.208003 -0.094596 0.067321 0.075643 0.031993 -0.033987 -0.060440 0.059613 0.045866 -0.017655 0.008074 -0.330676 0.022837 -0.058896 -0.103348 -0.166462 -0.115094 -0.060090 -0.147068 0.139987 0.175623 0.094061 -0.054635 0.010197 -0.074779 0.146300 -0.010179 -0.064330 -0.036962 -0.075776 0.007809 -0.088988 0.018158 0.056863 -0.003659 0.005740 -0.212639 0.030002 -0.125686 0.074154 -0.078162 -0.157936 -0.030855 -0.067869 -0.087833 0.019250 -0.089633 0.043416 -0.057157 -0.121828 0.086332 0.164713 0.024375 -0.000978 0.109539 -0.138317 -0.169800 -0.164703 -0.011035 0.308495 0.055139 -0.193301 0.114141 0.020073 0.182314 -0.071618 -0.139970 -0.044437 0.037946
0.053343 -0.063763 -0.169727 -0.082605 -0.107742 -0.103008 0.077810 -0.001824 -0.079137 -0.029307 0.065211 -0.138974 -0.040536 0.048865 -0.003814 -0.077118 -0.022688 -0.000203 0.101017 -0.255990 -0.000023 -0.281465 -0.013544 0.061142 0.028419 -0.062745 -0.021658 0.170814 -0.000000 -0.000004 -0.007436 0.097710 -0.065777 0.168135 -0.000726 -0.052290 0.100956 -0.010972 0.076009 -0.013839 -0.011502 -0.179353 0.121275 -0.026987 -0.093992 0.116585 0.002079 -0.096652 0.029161 0.234791 0.001069 0.000000 -0.029317 -0.111150 0.029791 0.146810 0.000060 -0.020741 -0.105089 -0.001326 -0.000715 0.135469 -0.013410 -0.042570 0.128115 0.125697 -0.059612 -0.056239 0.120460 0.069731 -0.052656 -0.085685 0.150466 0.141856 -0.017877 -0.011606 -0.136701 -0.062667 0.028744 0.010780 0.200329 0.069265 -0.034875 0.005087 -0.102142 0.131268 0.000739 -0.083182 0.208145 0.062672 -0.051744 -0.063972 0.214451 -0.115778 -0.025320 -0.128131 -0.042225 -0.173376 -0.004603 0.085619
-0.090375 -0.032173 0.005575 -0.206263 -0.059261 -0.084455 0.093580 -0.105276 -0.137749 0.045987 -0.042592 -0.222146 0.055462 0.114079 -0.134946 0.021364 -0.112314 0.138823 -0.297950 -0.131017 -0.111509 -0.067237 0.047795 -0.104023 0.139849 -0.079671 -0.190011 0.007675 0.041058 0.085674 0.049865 0.024176 0.162418 -0.240589 -0.041280 -0.077754 -0.033516 -0.061825 -0.041227 0.177146 -0.035840 0.072232 0.005832 -0.142248 -0.201120 0.127622 0.037155 0.121608 -0.002514 0.008528 0.046528 -0.066138 -0.140853 0.085272 0.042063 -0.092165 -0.093682 -0.050608 0.130087 -0.043037 0.067167 -0.208972 -0.117454 0.028060 -0.330733 -0.027030 -0.018873 -0.236712 0.079070 0.075507 0.022762 0.061610 -0.030226 -0.081423 -0.186701 -0.100304 -0.048234 -0.065190 -0.027426 -0.045683 0.043663 0.070278 -0.099374 -0.059109 0.203757 -0.166023 0.060652 -0.169690 0.125733 -0.075861 0.018513 -0.053164 -0.106699 0.019584 0.031247 0.030966 -0.006705 -0.100960 -0.092486 0.055658
-0.107265 -0.149372 0.123070 0.031374 -0.069550 0.014808 0.144516 0.065705 -0.058247 0.042270 0.140342 -0.071730 0.089472 0.045695 0.102001 -0.059161 0.012803 0.023838 -0.055881 0.155819 -0.004754 0.019199 -0.080437 -0.144216 -0.164407 -0.000786 0.013753 0.052980 -0.034879 -0.076873 -0.172355 0.099555 -0.003411 0.049581 0.022622 -0.072978 -0.010042 0.019932 0.122133 0.062862 -0.048026 -0.089120 0.184171 0.191479 0.044644 -0.069226 0.039505 0.024376 0.071230 -0.139218 -0.063993 -0.153915 0.043385 0.121468 -0.040973 0.247617 0.131228 -0.076040 -0.009325 -0.070354 0.043894 0.056812 0.031482 0.152920 0.051274 0.124664 0.066181 0.142926 -0.012771 -0.114781 0.065392 -0.150861 -0.135239 -0.089700 0.086936 0.060732 0.085321 0.065850 -0.044116 0.030742 -0.106508 -0.094937 -0.092389 -0.055772 0.056453 0.070371 -0.068452 0.103306 0.051387 -0.054983 -0.041027 -0.038494 0.110702 0.147517 0.001194 0.042303 0.108052 -0.161453 -0.061817 -0.363635
0.247755 -0.051753 -0.116354 -0.004311 -0.014807 0.081932 -0.014332 -0.182366 0.096710 -0.215804 -0.008277 0.072935 0.155343 0.132510 0.091050 -0.108788 0.144758 0.013757 -0.016378 -0.109453 -0.007367 -0.097253 0.132554 0.012696 -0.101673 0.024444 -0.057222 0.187749 -0.020937 -0.012258 0.127746 0.163429 0.020844 -0.198811 -0.054399 0.104993 -0.125761 -0.014151 -0.135248 -0.149960 -0.082892 -0.019803 -0.164641 -0.169720 0.043887 -0.220473 -0.136019 -0.187403 0.229561 -0.043345 0.292604 -0.246954 0.041271 0.012800 -0.074746 -0.179408 0.058508 -0.059144 -0.022648 -0.108562 -0.009057 0.010289 -0.147419 -0.030565 -0.041733 0.123126 -0.246673 -0.182914 -0.194569 0.189263 -0.114258 0.075315 0.263633 -0.257517 -0.091257 -0.120842 -0.013324 -0.089762 -0.078596 -0.186065 -0.156499 -0.142731 0.341732 0.023537 0.170803 0.094220 0.223614 0.086255 0.096051 -0.128675 0.044522 0.011026 0.088082 -0.162146 0.257165 0.023330 -0.114041 0.086281 -0.009410 0.185656
0.124887 -0.125761 0.004102 -0.005873 0.016845 -0.105365 0.060851 0.018255 0.155331 -0.034187 0.000347 0.159221 -0.025435 0.000117 0.022305 -0.030155 -0.103479 -0.151674 -0.112947 -0.335934 -0.119283 -0.090256 0.186625 -0.100290 0.070176 0.077853 0.065320 0.129747 -0.207796 -0.181359 0.113320 -0.026534 -0.018405 0.011292 -0.132674 -0.071366 0.067206 -0.054655 0.004265 0.116643 -0.099950 -0.111050 0.189635 0.105465 -0.028076 0.002016 -0.172467 0.115278 -0.025360 0.065821 -0.102332 0.187991 -0.043266 0.122015 0.003559 -0.159500 0.024436 0.054995 -0.233663 -0.108488 0.019369 0.162717 -0.246055 -0.051403 0.144415 0.196461 0.029579 -0.281323 -0.333596 0.218595 0.104860 -0.017292 0.052720 -0.190374 -0.173349 0.173225 0.048552 -0.129774 -0.083255 0.030872 -0.262423 -0.113817 0.140037 -0.051857 0.169520 0.144079 0.048700 -0.241891 -0.012391 -0.080439 -0.079550 -0.154035 0.100393 0.017768 -0.268205 0.093903 0.019943 -0.130399 -0.120324 0.003447
-0.014761 -0.006034 -0.107037 -0.043205 0.141122 0.071639 0.063140 0.061088 -0.064258 0.010763 0.100308 -0.082287 0.115276 -0.057234 -0.032883 -0.025572 -0.045323 -0.090314 0.093271 -0.012387 0.078401 -0.089661 0.139616 -0.070473 0.031441 0.009770 -0.174430 -0.061438 -0.011376 -0.117647 0.036476 -0.053634 0.166982 -0.192200 -0.096138 0.103310 -0.017982 0.025939 -0.207600 0.131494 -0.000842 0.112842 0.015073 0.054715 -0.104021 -0.019403 -0.079296 0.013531 -0.160923 0.031384 -0.027875 -0.189993 -0.126391 0.180702 0.002130 0.061594 -0.118765 -0.060160 0.049059 0.071090 0.010132 0.068385 0.047531 -0.104446 -0.203019 0.000294 -0.034783 0.152888 -0.077942 -0.107133 0.062378 0.060108 0.052524 0.070378 -0.111840 -0.007005 -0.120050 -0.027675 -0.161926 0.106068 0.021514 -0.133196 0.037019 -0.109415 0.042389 -0.066570 0.103742 -0.034023 -0.120334 -0.049426 0.139624 -0.022309 0.182130 0.037065 0.045360 0.071606 0.095647 0.062163 -0.076955 -0.110494
-0.129234 -0.343260 0.059930 -0.019839 0.184807 0.060485 -0.104104 -0.106059 0.009074 0.014342 -0.061890 0.134417 -0.020234 -0.078009 -0.210191 0.105772 0.027267 -0.157340 -0.133199 0.081924 0.064005 0.104239 0.014412 -0.036504 0.245727 -0.090940 -0.063832 -0.003904 0.032793 -0.083909 -0.006587 -0.370911 0.125724 -0.102474 -0.083372 -0.034937 -0.206380 -0.007692 0.009395 0.135872 -0.084729 0.083538 0.102488 -0.040518 0.069858 0.063478 0.112418 -0.182529 -0.124872 0.105951 -0.132857 0.103642 -0.028077 0.042671 -0.109719 -0.128545 0.104018 0.259090 -0.126986 0.045315 -0.140963 0.067015 0.045970 0.029052 -0.010759 0.010211 -0.142442 0.110922 0.005289 -0.072124 0.103824 -0.036933 -0.090115 0.015772 -0.052355 -0.106077 -0.053625 -0.142660 -0.047212 0.086369 -0.065828 -0.027868 0.122655 0.101189 -0.166759 -0.148857 0.064105 -0.116911 0.107099 -0.067266 -0.116033 -0.265436 -0.031954 0.003814 0.114317 0.047019 -0.022990 -0.155195 -0.088297 0.290668
0.118595 0.025971 0.107546 0.118324 0.082717 -0.032707 -0.018707 -0.008820 0.038611 0.196106 -0.006569 0.086008 -0.022982 -0.098915 0.007714 0.036302 -0.016261 -0.031162 -0.096561 -0.079395 -0.055470 -0.124869 -0.098693 -0.059676 0.041630 0.031929 0.057223 0.065279 -0.053644 0.020150 0.197339 0.130951 0.200690 0.045491 -0.129584 -0.010651 0.034491 0.004300 -0.000355 -0.116702 0.063553 0.122945 0.153251 0.034870 -0.019079 -0.114669 0.015283 0.102660 -0.100762 0.121245 -0.118312 -0.055161 -0.060272 0.204387 -0.169671 -0.140647 -0.147647 0.028530 0.148778 -0.032532 -0.037449 0.047554 -0.031950 0.238935 0.144607 -0.145596 0.029882 -0.234686 -0.218784 0.004061 0.171264 -0.078155 0.026949 -0.208765 -0.101680 -0.015502 0.118097 0.148328 -0.313167 -0.051560 -0.025133 -0.114865 -0.010473 -0.075146 -0.050354 0.073260 -0.212861 -0.025802 0.193956 0.138279 0.048572 -0.075423 -0.016747 -0.197636 0.015715 -0.124780 0.027578 -0.030985 0.001732 0.002937
-0.245512 -0.325109 -0.270725 0.167366 -0.012014 0.033328 -0.135010 0.107438 -0.068519 0.018995 0.008793 -0.084144 -0.101913 -0.062896 0.058648 -0.089557 -0.140901 0.165101 -0.120706 -0.066345 -0.013886 0.156319 0.096380 0.118838 -0.311615 0.037509 -0.294683 0.242407 -0.052984 -0.085942 -0.136675 0.095199 0.167741 0.061222 0.197023 0.105775 0.190459 0.053488 -0.122839 0.096394 0.012984 -0.004638 0.130752 0.247353 -0.028962 -0.032608 0.117981 -0.110602 -0.247259 -0.113422 -0.126246 -0.045120 -0.167586 0.006530 0.065902 -0.021151 0.010350 -0.242404 -0.011389 -0.077459 -0.089615 0.152814 -0.103667 -0.052337 -0.195183 -0.089016 -0.002854 0.046565 0.071418 0.060496 -0.025588 -0.112087 0.190225 -0.132786 -0.047452 -0.193343 0.091864 0.056399 -0.052433 -0.143623 -0.265237 0.048470 0.178667 -0.049209 -0.040784 -0.026166 -0.049853 0.010129 0.032361 -0.139995 -0.152862 0.002179 -0.035296 0.155060 -0.064037 0.038107 0.119933 0.152121 -0.071318 -0.194770
0.268727 -0.125755 -0.240272 -0.130851 -0.148998 -0.071596 0.038753 0.004466 0.009422 -0.046709 -0.225231 -0.045719 0.101894 0.085419 -0.106348 0.015234 -0.026549 -0.071510 0.109725 -0.115943 0.059072 0.089966 -0.145566 -0.025746 0.209297 -0.138706 -0.081406 0.016639 -0.002666 -0.178311 0.043841 0.079828 0.057500 0.122297 -0.129114 0.002623 -0.115621 -0.030203 0.137546 0.078882 0.011706 0.217205 -0.074181 -0.086092 -0.034653 0.054969 -0.108430 0.293452 -0.004493 -0.033388 0.127077 0.124599 -0.204071 -0.109770 -0.090883 -0.044573 -0.163294 -0.037902 0.074666 -0.078481 -0.008873 -0.092997 0.049181 -0.065674 -0.109003 0.202694 -0.118858 -0.020471 -0.038050 -0.004061 -0.286494 0.112825 -0.016835 -0.116807 0.006537 -0.101372 -0.019868 -0.011299 -0.095131 0.338016 0.063970 0.161971 0.090304 -0.094448 -0.102886 0.169156 -0.139083 0.202734 0.021329 -0.036644 -0.026992 -0.060503 -0.062524 0.016396 0.104072 -0.193874 0.115184 -0.140597 0.063642 0.244122
-0.062106 0.223137 -0.128662 -0.053851 0.019562 0.009015 0.083365 -0.109616 0.082049 0.226394 -0.043090 0.018266 0.020762 0.142992 0.162155 0.014183 0.041464 -0.068247 -0.136376 0.072004 0.031282 0.035359 -0.034112 -0.197468 -0.231713 0.098185 0.057390 0.208223 0.010230 -0.126037 0.004989 -0.054568 -0.005262 0.201929 -0.059754 -0.037573 -0.202357 -0.017387 0.033038 0.075525 0.057286 -0.170823 0.077269 0.142779 0.098163 0.024169 -0.037079 -0.111926 0.068050 -0.022859 -0.009347 -0.224724 0.007461 0.140594 -0.006220 0.062747 -0.006666 -0.087263 0.033090 -0.063162 -0.057782 0.176634 -0.152434 -0.079394 0.202597 -0.007371 -0.067668 -0.205256 0.107140 -0.037410 -0.164004 -0.099340 -0.035350 0.045370 0.044125 -0.008839 -0.060323 -0.219157 0.013482 -0.024944 -0.229257 -0.102175 -0.088700 -0.034184 -0.071032 0.103310 -0.035950 0.017517 0.085231 0.075667 -0.132820 0.064896 0.046518 0.066784 0.049459 -0.101593 0.091500 -0.207568 0.120697 0.048763
-0.119937 -0.215015 -0.103533 0.036859 -0.030132 -0.092853 0.144673 -0.049456 -0.071617 -0.021073 -0.212594 -0.039142 0.081810 -0.054745 0.032603 -0.019225 -0.118888 0.198159 0.012574 0.135466 0.144064 0.004609 0.010751 -0.197336 0.127919 0.000378 -0.079881 -0.122172 0.078350 0.036703 -0.150442 -0.089144 0.231686 0.043364 -0.042011 -0.038547 -0.175322 -0.005653 -0.030782 0.179344 0.038191 -0.033458 -0.013591 -0.192456 -0.168581 0.242573 0.064663 0.021421 0.151513 -0.064043 -0.052098 -0.010739 0.093264 0.051025 0.103599 -0.093743 0.062787 0.059070 0.161808 -0.065689 -0.009237 -0.022888 -0.239391 0.028963 -0.027164 -0.065785 -0.010150 -0.072047 -0.097104 0.005834 0.003333 0.065618 -0.145814 0.180949 0.024389 -0.043884 0.000977 -0.189212 -0.094591 0.030567 -0.019351 0.175841 -0.151094 -0.012133 -0.038005 -0.025733 0.172972 -0.017450 0.105149 -0.092038 -0.159949 -0.018222 -0.129976 -0.059589 -0.087442 -0.098223 -0.013642 0.046576 0.233070 -0.057084
-0.107961 0.106516 0.120507 -0.043152 0.231692 -0.093585 -0.216739 0.145344 -0.028581 -0.122069 0.029813 0.056330 0.082144 0.051810 0.095869 0.157059 0.081069 -0.032507 -0.043036 -0.194670 0.000045 -0.261768 0.045342 0.083313 -0.051656 -0.182219 -0.119161 0.038520 0.023301 0.159331 -0.084935 -0.144075 0.055312 0.018501 -0.093800 0.227998 0.002438 0.021088 0.116080 0.139054 0.026751 0.106182 0.015924 0.094460 0.027371 0.132846 -0.011194 0.017478 0.051697 -0.186947 -0.143972 0.073783 -0.060998 -0.120469 0.266670 -0.011004 0.187370 0.030204 0.024674 -0.142922 -0.036072 -0.118129 0.092523 -0.035291 0.124885 0.164273 -0.034618 -0.058616 0.016587 0.030825 0.073628 0.013930 -0.200540 -0.108488 -0.131654 -0.049891 0.087862 -0.015424 0.074017 0.168609 0.141801 -0.026997 -0.015899 0.088056 0.150604 0.164867 -0.045311 -0.044123 -0.086422 -0.068484 -0.112109 -0.059823 0.038614 -0.005759 -0.039948 -0.037794 0.038700 0.107620 -0.016298 -0.019980
0.179333 -0.163994 -0.137875 -0.141173 -0.171342 0.046206 -0.049512 0.068164 -0.053562 -0.187994 -0.047518 0.127686 0.136756 -0.048219 -0.133870 0.138881 -0.039068 -0.194472 0.041752 -0.038148 0.007876 -0.057562 -0.154554 -0.159282 0.083922 0.162603 -0.104393 -0.006542 -0.159494 -0.065994 0.010058 -0.000103 -0.099169 0.049382 0.016756 0.002615 -0.036675 0.004022 -0.068908 0.078221 -0.040414 -0.187192 -0.038386 -0.074667 0.040914 -0.035391 -0.049322 0.130659 0.015765 0.153586 -0.053177 -0.182386 -0.136653 0.093158 -0.061564 -0.045676 -0.116727 -0.086322 0.011168 -0.001815 -0.030766 -0.108022 -0.010939 0.069397 -0.150747 0.118448 -0.072384 -0.102752 -0.003924 -0.039669 -0.189855 -0.051183 0.076277 0.053860 -0.104384 -0.068731 0.015145 -0.036719 -0.007675 0.042142 0.037121 -0.009401 0.159222 0.095852 0.011819 -0.155708 -0.036786 -0.065725 0.036376 0.083775 0.085999 -0.141929 -0.015591 0.014014 0.022407 -0.104239 -0.217144 -0.052395 -0.165258 0.051311
-0.143415 0.041413 -0.169717 -0.144284 -0.166301 -0.009014 -0.051330 -0.082503 0.134965 -0.067299 -0.225021 -0.239943 0.003861 -0.050094 0.078332 0.034099 0.073939 -0.026461 -0.031434 -0.090145 -0.113300 -0.063394 0.020089 -0.145133 0.084760 -0.177691 0.021482 0.066189 -0.199261 -0.024715 0.040305 -0.123246 -0.005297 -0.164135 -0.173157 -0.083513 0.061599 -0.086448 -0.117385 -0.024976 -0.175140 0.019936 -0.103881 0.119035 -0.014827 -0.064089 -0.224157 -0.035862 -0.071873 0.058424 -0.176448 -0.071968 0.006549 0.017023 -0.125209 -0.035383 -0.252129 -0.186546 -0.115054 -0.129382 -0.058900 -0.150375 0.073395 0.038009 -0.104628 -0.006892 0.010258 -0.045293 -0.030181 -0.081120 0.157402 -0.005532 -0.002755 -0.007941 0.118666 -0.110221 -0.054514 -0.080291 0.070223 0.007751 -0.156764 -0.198183 0.029220 -0.088397 0.021100 0.061310 -0.076802 -0.084395 -0.017775 -0.212836 -0.020717 -0.039813 -0.201576 0.098829 0.075010 0.000932 0.017044 -0.146592 -0.113842 0.079594
0.095779 0.052045 -0.153247 -0.178604 -0.275178 -0.026750 -0.209327 -0.180854 -0.053306 -0.207190 0.112453 -0.011756 -0.065434 0.251607 -0.322928 0.022080 0.126728 -0.037060 -0.069401 0.107576 -0.066510 -0.202461 -0.045431 0.006480 0.202885 0.100277 -0.163544 0.244094 0.031532 -0.097177 0.232695 0.128905 -0.111234 0.070409 -0.059003 -0.161695 -0.055473 -0.014144 -0.246937 -0.200015 -0.196270 -0.125453 -0.210207 -0.183956 -0.008418 -0.079804 -0.170424 -0.250961 0.199422 0.074017 0.138638 -0.014535 0.084595 0.037921 0.042015 -0.304770 -0.116641 0.007076 -0.036398 -0.039071 -0.023242 0.042858 0.054380 -0.196020 -0.161081 -0.036213 -0.214678 0.004395 -0.012760 -0.108579 -0.203862 0.098929 0.063269 0.019650 0.049569 -0.060053 -0.101980 -0.168333 -0.075979 -0.216860 0.053568 0.021127 -0.109820 -0.055342 0.127018 -0.070917 0.082369 -0.152356 0.157491 -0.035977 0.156535 0.218826 -0.272942 -0.228152 0.334787 0.060346 -0.141281 0.006243 -0.065718 0.355162
-0.301621 -0.045214 0.198815 -0.068569 -0.074530 -0.074977 -0.124722 0.113322 0.029809 -0.073138 -0.285912 0.039220 0.323396 -0.007153 -0.108310 0.101733 -0.084089 0.000008 -0.199086 -0.296444 -0.068364 -0.045448 0.152425 0.024758 0.012523 -0.058235 0.009660 -0.099835 0.095669 0.001852 -0.185260 0.152700 -0.110983 -0.024615 0.148462 0.091833 0.060483 -0.019963 -0.192938 0.061900 -0.166687 -0.184129 -0.059445 -0.154957 -0.064500 -0.198611 -0.183789 -0.231813 -0.165373 0.049694 -0.132805 0.140751 0.130116 -0.120594 -0.200049 -0.002947 -0.099396 0.048321 -0.101673 0.034229 -0.111794 0.188473 0.067462 0.044844 -0.196599 -0.118678 -0.048561 -0.134172 -0.037960 -0.196840 0.293352 -0.105642 -0.182499 -0.007338 0.061883 -0.081779 0.040954 0.033614 -0.006003 -0.004206 -0.195631 -0.039615 -0.029539 0.029261 -0.292448 0.045035 0.251664 0.013107 -0.384985 0.043665 -0.015992 0.127285 0.026596 -0.235336 0.040900 -0.072130 -0.103697 0.092394 -0.046946 -0.110073
0.062285 -0.068268 -0.037209 0.064423 -0.063805 -0.025725 -0.018720 -0.148630 0.071873 -0.028358 0.171131 -0.181857 0.174243 0.099277 0.025390 -0.054427 0.090344 0.244464 -0.152787 0.243802 -0.053199 -0.066573 -0.045528 -0.002941 -0.065465 -0.137697 0.123618 -0.108319 0.016778 -0.007850 -0.185837 0.099166 0.159273 0.160626 -0.042552 -0.131757 0.137809 0.002486 0.140043 0.156491 -0.080744 -0.158764 -0.098219 0.006491 -0.032802 0.025491 -0.121401 0.190934 0.145973 -0.037848 -0.094711 0.083623 0.080797 -0.124277 0.045164 0.138494 -0.005843 0.266348 0.000102 -0.150325 -0.031209 -0.137599 -0.022797 -0.053774 0.027713 -0.074033 0.048112 -0.165074 -0.027585 -0.093535 -0.059154 0.077392 -0.070985 -0.132483 0.009276 -0.129899 -0.014737 0.080407 0.027485 -0.147616 -0.015973 0.074439 0.136794 0.070350 -0.113038 0.145663 -0.160259 0.041593 -0.024353 0.111566 0.046278 0.141693 -0.141922 -0.151173 0.027436 -0.177122 -0.084647 -0.020232 -0.022392 0.153903
0.124600 0.301946 -0.132073 -0.047216 0.031005 -0.122956 0.159217 0.018636 0.072517 -0.095727 0.148187 0.144450 0.170807 -0.080412 -0.047226 -0.074073 -0.045821 -0.074200 -0.128688 -0.162008 0.038334 0.151915 0.210167 -0.094919 -0.152695 0.035301 0.214079 0.044065 -0.068379 -0.012404 0.117202 0.183722 -0.082718 -0.016899 0.067954 -0.254537 0.065076 -0.098136 0.231509 0.008242 -0.096673 -0.256808 -0.128668 -0.110560 -0.021724 -0.026201 0.115254 -0.110443 -0.028139 0.120378 -0.157647 0.162653 -0.357004 -0.099763 -0.080576 -0.097447 0.145317 0.159264 0.041167 -0.111116 -0.018377 0.042421 -0.017645 -0.222648 -0.139916 -0.149486 -0.138542 0.074487 0.171298 0.034646 0.104538 -0.052219 -0.190967 -0.009201 0.042714 0.049193 -0.085229 -0.004004 0.092148 -0.182189 -0.067214 -0.007930 0.051816 0.059881 0.139244 -0.052343 0.112018 0.041963 -0.234713 -0.097987 0.035837 -0.238348 0.260244 0.033817 -0.023285 0.059282 -0.056320 -0.221680 -0.041438 0.037524
0.045451 -0.069963 -0.213377 -0.136358 -0.010812 -0.177560 -0.083411 0.046413 -0.154912 -0.006251 -0.076378 0.175117 -0.086808 0.019984 0.003985 -0.176876 -0.147066 -0.115685 0.161644 -0.049593 0.088600 -0.263265 -0.257510 -0.032555 -0.040135 0.000163 -0.085067 0.060955 -0.000506 -0.050393 -0.145312 -0.004451 0.025405 -0.049040 -0.006619 -0.133948 0.025779 -0.094922 -0.112690 0.137045 -0.077299 -0.092497 0.119903 -0.099659 -0.145256 -0.061740 0.013798 -0.115451 0.041160 0.079458 -0.065577 0.022229 0.084276 -0.109559 -0.179876 0.196465 0.007557 -0.231571 -0.051629 -0.003751 -0.046200 0.224456 0.022731 0.033283 -0.082992 -0.099309 0.037358 0.078158 -0.008540 0.059641 -0.269619 0.172821 0.005327 -0.069668 -0.043255 -0.007598 -0.040035 -0.034964 0.004932 0.149363 0.157603 0.035604 -0.079483 -0.007290 -0.135937 0.140299 -0.040747 -0.083394 0.095384 0.048542 -0.064036 -0.280202 0.093965 -0.056900 0.089363 -0.081208 -0.039350 0.031624 0.012988 -0.117500
0.000332 -0.003177 -0.011656 -0.000813 0.024825 0.036499 0.005412 -0.015971 0.082449 0.006688 -0.000001 0.021813 -0.066141 -0.023776 -0.028714 -0.002161 0.020109 0.000000 -0.035434 -0.028718 0.062900 -0.015743 -0.000002 0.041909 0.028023 -0.035646 -0.007940 -0.036680 -0.000921 0.003927 -0.004028 0.008162 0.040658 -0.017132 -0.006430 0.071870 0.014649 -0.016851 -0.011284 0.064687 0.009393 0.032061 0.012420 -0.055510 0.037562 0.058459 -0.021376 0.020561 0.073202 0.061899 0.033873 0.000232 0.024198 0.000427 -0.015480 -0.068842 0.000000 -0.004623 0.007697 0.001450 0.001981 -0.000938 0.013520 -0.000156 -0.004701 -0.013600 0.000843 -0.000205 -0.017716 -0.004038 0.027038 0.022582 0.026033 0.010351 -0.000000 0.000498 -0.028331 -0.012732 -0.000023 -0.000007 0.028380 0.001056 0.040581 -0.046159 0.001683 0.001452 0.020054 -0.000451 -0.069205 0.064338 0.023844 0.044042 0.018032 0.059774 -0.020640 -0.019313 0.039101 -0.018530 -0.000866 -0.037482
0.019691 0.053041 0.018015 -0.022703 -0.108213 -0.048133 -0.171373 0.159397 -0.087958 0.019363 0.044017 -0.077139 -0.007758 0.136600 -0.090169 -0.065290 -0.028271 0.104248 0.023934 0.071116 -0.013323 -0.046879 0.022540 -0.149198 0.096723 -0.279521 -0.056142 0.088605 -0.027020 -0.113590 0.070272 -0.068304 0.066398 -0.161656 0.072901 0.022175 0.069051 0.098897 0.163777 -0.077445 -0.149220 0.116438 -0.043475 -0.031743 -0.134560 -0.024334 -0.130447 0.121401 -0.064455 -0.158290 0.025688 0.046292 -0.141769 0.001468 -0.027059 -0.263378 -0.041773 0.057461 -0.028004 -0.044197 0.051298 -0.094188 -0.017114 0.017009 0.082105 -0.070325 0.137707 -0.245035 0.055144 -0.096038 -0.169485 -0.117125 -0.140936 -0.081310 -0.034603 0.054434 -0.030867 -0.238333 -0.048139 -0.035546 -0.082345 -0.008523 0.054290 -0.030407 -0.113819 -0.166637 0.007543 0.021474 0.118038 -0.060850 -0.008746 -0.100210 -0.125314 -0.085696 -0.067219 -0.087466 -0.035256 0.189315 0.038898 -0.045532
0.131513 0.027125 -0.215517 -0.031701 -0.187491 0.140295 0.080988 -0.157592 -0.142395 0.080074 0.055014 -0.067426 -0.022012 0.020089 0.034868 0.074833 -0.113165 0.129698 -0.297236 0.236870 -0.064940 0.087370 0.067581 -0.147680 0.056833 -0.039940 0.010966 -0.100009 -0.041031 -0.044842 0.026483 -0.039973 0.100344 -0.293697 -0.069560 -0.044224 0.049219 -0.002889 0.067349 -0.051167 0.053345 -0.406507 -0.195613 -0.127077 -0.103073 -0.098542 -0.177581 0.046336 -0.030363 -0.064344 -0.025840 0.044813 -0.146219 -0.314029 -0.047654 -0.124573 -0.000503 -0.016669 0.177931 0.010987 -0.041532 -0.164228 -0.104430 0.067504 0.116325 -0.024139 -0.061030 -0.178974 0.007357 -0.175021 -0.186438 0.154133 -0.050392 -0.050362 -0.062321 0.169033 0.125411 -0.051800 -0.032558 0.124923 0.065076 0.070538 -0.096396 0.091126 0.019548 0.106259 0.034184 0.241948 0.105825 0.015391 -0.073724 -0.059295 -0.015328 -0.218267 0.130111 -0.148063 -0.042503 0.069598 -0.014442 0.280901
-0.169715 -0.032605 -0.033523 -0.080932 -0.029606 -0.156460 -0.032429 -0.125506 0.075311 -0.041206 -0.192067 -0.039270 -0.033826 -0.163507 -0.311153 -0.168405 -0.089579 -0.121472 0.005971 -0.226448 -0.128542 -0.167941 -0.203917 -0.078503 -0.006762 0.089031 -0.152472 -0.134583 -0.192936 -0.159907 0.079334 -0.026006 0.159022 -0.007761 -0.059931 0.104450 -0.042317 -0.137515 -0.180856 0.029934 -0.211261 -0.017467 -0.124153 0.072692 -0.068249 -0.012740 -0.059591 -0.028425 -0.113641 -0.089580 -0.043920 -0.064890 0.008397 0.012241 -0.054068 -0.047015 -0.208056 -0.120547 -0.077873 -0.195201 -0.045543 -0.144771 -0.039052 -0.100247 -0.278599 -0.139727 0.099756 -0.173320 -0.229437 -0.022010 -0.064015 -0.044779 -0.113638 -0.133108 -0.225065 -0.010513 -0.103879 -0.142052 0.124246 -0.156737 0.023662 -0.225378 0.023014 0.022067 0.124160 -0.171879 0.019849 -0.054562 -0.005161 -0.188028 -0.129834 -0.104143 -0.068117 -0.177389 0.015266 0.071168 0.002212 -0.033935 -0.070552 -0.054584
-0.068924 0.057021 -0.116288 -0.049016 -0.076659 -0.134387 0.005667 0.294149 0.015516 0.128208 0.012554 -0.010315 -0.218994 -0.025434 -0.045260 0.042754 -0.117513 -0.044488 -0.011385 -0.009530 0.025048 0.014959 0.003233 0.039005 -0.056565 -0.180773 -0.063450 0.161818 -0.014679 -0.043922 0.124467 -0.008599 0.026338 -0.132859 -0.011790 0.007621 0.102941 -0.000434 0.004627 -0.292030 -0.094237 -0.071727 -0.120573 -0.007408 0.046582 0.172349 0.121085 0.040253 0.028371 -0.207949 0.089877 0.121756 -0.015667 -0.109626 -0.002416 0.171091 -0.044995 0.212991 -0.222345 -0.001411 -0.028822 0.354067 -0.062430 -0.192652 0.054523 0.133830 0.061296 -0.142571 -0.045048 -0.092906 0.114744 0.152835 -0.114878 -0.138263 0.062886 -0.137758 -0.148016 -0.128543 0.116705 0.000618 0.023653 -0.022580 0.005123 0.035385 0.102868 0.090904 -0.200603 -0.127717 0.267216 0.049900 0.196865 -0.184188 0.132561 -0.101341 -0.188911 0.032303 -0.177779 -0.267031 0.107960 0.016775
-0.016521 -0.035377 -0.096578 0.033161 0.036646 -0.016422 -0.055523 0.117424 -0.015447 0.001149 -0.005539 -0.032312 -0.080895 0.027013 -0.023237 -0.008965 0.041176 0.069214 0.097462 0.003561 -0.022425 -0.034092 -0.040501 0.104243 -0.088221 -0.039899 -0.058419 -0.074326 -0.012847 0.032608 -0.073967 -0.030965 -0.127754 0.009754 0.020656 -0.028294 -0.068359 0.005811 0.086111 -0.034601 -0.015280 0.090903 -0.067193 0.142419 -0.048032 -0.087875 -0.044982 -0.106348 -0.108903 0.076419 0.001869 -0.085040 0.041846 -0.013589 -0.027134 -0.019422 -0.002481 0.032086 0.057825 -0.035674 -0.022085 -0.109683 -0.091390 -0.028655 0.012075 0.040677 -0.063256 -0.082005 0.028374 -0.114328 0.094003 0.044609 0.013667 -0.026593 -0.010918 -0.000603 0.016739 -0.012455 0.018188 0.074808 -0.057153 0.060659 0.043162 0.043400 -0.035857 -0.070880 -0.097271 -0.018455 -0.113116 0.039171 0.006485 0.004502 0.071985 -0.070517 -0.039763 0.048792 0.096091 -0.103808 0.017457 -0.124580
-0.098469 -0.046005 0.134272 0.197664 0.169851 0.046660 -0.080891 -0.067934 -0.050687 0.144615 0.159907 -0.172138 0.019803 -0.087760 -0.080168 -0.008820 0.077937 -0.014836 0.000639 0.223991 0.076038 0.195182 0.007793 -0.010031 0.005544 -0.120332 0.107437 -0.191659 -0.059406 -0.008481 -0.243202 0.097981 0.127000 -0.052034 -0.057680 -0.009911 -0.007084 -0.009115 0.017640 0.106247 -0.118419 0.059111 -0.008635 -0.089710 0.087159 0.101655 0.001884 -0.144399 -0.049563 -0.077943 -0.025247 0.118098 0.243037 -0.096312 0.163252 0.052845 -0.125186 0.008098 -0.064241 -0.071919 -0.001455 -0.052652 -0.205962 -0.145892 0.012738 -0.101677 -0.176922 -0.052178 -0.001932 0.083352 0.074634 -0.153810 0.031843 -0.052569 -0.031688 -0.042118 0.016356 0.071545 -0.070474 -0.059090 0.087407 -0.073055 -0.087732 0.067145 -0.108025 -0.031737 -0.096318 0.068990 0.101058 -0.008904 0.188386 0.141098 -0.093658 -0.047857 0.019650 0.122076 0.040793 0.155400 0.046897 -0.232809
-0.053256 -0.114022 -0.190747 -0.151398 0.087713 0.050544 -0.005468 0.022486 -0.120550 -0.088335 -0.023602 0.046808 0.108671 -0.140959 -0.160249 -0.191337 -0.079239 -0.098334 -0.121988 -0.071154 -0.045183 -0.158995 -0.038453 -0.187152 -0.032992 -0.160224 0.083571 0.076151 -0.209756 -0.182015 -0.104115 0.081293 0.034392 0.028565 -0.021706 0.100915 -0.136064 -0.003454 0.001034 0.090549 -0.141921 -0.036290 0.035378 0.033623 0.005196 0.140769 -0.102639 0.046355 0.044548 0.145286 -0.044210 -0.015020 0.032396 0.029554 -0.061331 0.031920 -0.036214 -0.050863 -0.097989 -0.099516 0.005802 0.116938 -0.188356 -0.134695 0.015107 0.142608 -0.078804 -0.132241 0.056574 -0.024053 0.009187 -0.201516 0.083314 0.112402 0.037005 -0.215208 -0.161157 -0.073551 -0.103212 0.087465 -0.125252 -0.205946 0.073001 -0.087813 -0.063078 0.012362 0.059089 -0.054235 -0.080364 -0.150430 0.000754 0.096243 0.021383 0.082109 -0.183736 -0.102284 -0.169421 -0.006567 -0.204375 0.045379
-0.129599 0.068182 -0.019905 -0.143359 0.003453 -0.194392 -0.067492 -0.216102 -0.046800 -0.103963 -0.183519 -0.008031 0.130403 -0.065124 -0.182969 0.004158 0.056729 -0.118081 -0.100880 -0.127335 -0.095923 -0.006881 -0.212785 -0.070290 0.077101 0.063572 0.043054 -0.158608 -0.078401 -0.145748 0.068638 -0.004736 -0.140632 0.130420 0.042211 -0.190193 -0.197975 -0.020357 -0.309265 -0.075435 -0.191369 -0.168271 -0.194717 0.035884 0.114085 0.080019 0.056734 -0.040424 -0.072978 -0.221397 0.062075 -0.019945 -0.057147 -0.056929 0.010040 -0.036677 -0.153848 -0.022804 -0.115083 0.079922 -0.147684 -0.056187 -0.042955 -0.021226 -0.089957 -0.192051 -0.014620 0.031027 -0.105531 -0.222925 0.070486 0.007840 -0.148957 -0.195016 -0.269959 -0.257559 -0.052240 -0.167014 0.044685 -0.187333 0.186097 -0.165077 -0.177790 -0.153585 -0.080051 -0.206291 -0.135876 -0.011107 -0.108643 -0.100916 -0.090006 0.072834 -0.042678 -0.122271 0.083047 0.005857 -0.132059 0.067118 0.000526 0.043263
0.100756 -0.046679 -0.044100 0.082700 -0.039457 0.069941 0.027779 0.091083 0.083772 0.014469 -0.040300 -0.136162 0.099962 -0.051732 0.106008 -0.014993 -0.054055 -0.031753 -0.039489 -0.014626 0.044031 0.001302 0.007615 0.016096 0.176773 0.095913 0.049772 0.154099 0.000360 -0.040391 0.064837 0.007322 0.087533 0.106303 0.066540 -0.065423 0.066599 -0.003209 0.029071 0.051687 -0.043694 0.068790 0.054832 0.178484 0.023889 0.014978 -0.017373 0.152418 -0.043643 0.026907 0.063296 0.055980 0.014772 -0.060719 -0.022527 0.102497 -0.051818 -0.029471 -0.044844 0.059003 0.003663 -0.074609 0.066577 0.044586 0.116679 0.075812 0.075137 0.215658 0.014230 -0.094574 0.055650 -0.110028 -0.071935 -0.007615 0.001463 0.062544 -0.068015 -0.007617 0.010896 0.000601 -0.106649 0.052197 0.134801 -0.085726 -0.113583 0.056936 -0.098607 0.037632 0.163107 0.078295 -0.009280 -0.016764 0.086283 0.039481 -0.007156 0.044277 0.036002 0.063648 -0.028327 0.068516
-0.087595 -0.006473 -0.070194 -0.110745 0.032960 0.118591 -0.007522 -0.232604 0.013684 0.040873 0.311998 0.194908 -0.354595 -0.029075 -0.072370 -0.073640 -0.133098 0.183276 -0.007791 0.173898 -0.040712 -0.011430 -0.229865 0.233317 -0.196019 0.079123 -0.122626 -0.056735 0.003993 -0.000349 0.099648 -0.153887 0.025550 -0.258263 -0.006168 -0.023755 0.215016 -0.012849 -0.003252 0.326014 -0.081757 -0.068776 -0.020781 -0.170317 -0.101369 -0.012187 0.033363 0.146055 -0.057586 0.056800 0.005629 0.010965 -0.213730 -0.041084 -0.026254 -0.120387 0.001385 -0.072803 0.025436 -0.016928 -0.000183 0.008691 -0.273377 0.049431 0.313476 0.026899 -0.085701 -0.102561 -0.148431 0.053579 -0.122238 -0.005732 -0.025152 0.034154 -0.068627 0.163763 -0.204576 -0.044361 -0.000023 -0.016065 -0.067095 -0.137823 -0.102221 0.000678 -0.208136 -0.127688 0.321048 0.140252 0.151854 -0.129746 -0.172120 0.064058 -0.085573 0.137541 0.024415 -0.261530 -0.021775 0.115807 0.068858 -0.178437
-0.181416 -0.010952 -0.013018 0.021248 0.192632 0.105118 -0.021966 0.143823 0.010065 -0.019593 -0.148284 -0.116306 -0.019572 0.022419 0.063984 0.085462 0.049511 0.075886 -0.115208 -0.151861 0.010656 0.208264 -0.075002 0.021389 0.036149 -0.107583 -0.104557 -0.076189 -0.063602 -0.104122 -0.141056 0.059389 -0.099286 -0.152413 0.004870 0.253614 -0.143203 0.003894 0.027133 0.070045 -0.014283 -0.146126 0.157752 0.112916 0.273666 -0.009215 0.023919 -0.131615 -0.087534 0.217897 0.042330 -0.228979 0.046994 -0.030049 -0.201262 0.168574 -0.017398 -0.081618 0.000885 -0.234253 0.014023 -0.100669 -0.016063 0.152358 0.041071 0.073641 0.045370 0.212147 0.080808 0.178398 -0.121575 -0.246358 0.084526 0.084050 -0.044648 -0.091414 0.227375 -0.001121 0.120858 0.269117 0.017609 -0.097486 -0.183241 0.030663 0.120592 0.034363 0.079317 0.136897 -0.125474 -0.074308 -0.132643 -0.163206 -0.126202 0.110261 0.322290 -0.074704 -0.111901 0.196871 -0.026342 -0.007180
0.329494 -0.284275 0.115224 -0.071479 -0.208824 0.103611 -0.060911 -0.027024 -0.254284 -0.017172 -0.064758 -0.124098 0.312928 -0.169740 -0.108719 -0.091883 0.132954 -0.068352 0.029526 0.014545 0.054939 -0.211433 -0.054803 0.043879 0.045376 0.152489 -0.161194 0.065839 -0.103632 -0.135420 0.023657 -0.100089 -0.296456 -0.009199 0.002183 -0.198451 0.181338 0.044229 0.030147 -0.202573 0.092154 -0.091388 0.131262 -0.124094 -0.040485 -0.245571 -0.117119 -0.113334 -0.184889 0.050794 -0.131402 0.136503 0.208055 -0.187517 0.026218 -0.160404 -0.054333 -0.268972 -0.230537 -0.183450 -0.016240 0.282936 0.005442 -0.058907 0.062146 -0.449560 -0.098949 -0.255793 0.061316 -0.020924 0.035388 -0.142792 -0.225343 -0.171064 -0.174421 0.028005 -0.011438 0.120203 0.225656 0.061186 -0.071448 -0.074011 -0.270388 -0.031458 -0.169394 0.032195 0.240122 -0.148674 -0.017700 -0.165278 0.123169 0.109205 0.260121 -0.240142 -0.149927 -0.195413 0.131527 -0.188305 0.008017 -0.077620
0.044842 -0.023848 -0.018826 0.084162 -0.149950 0.067211 -0.119085 0.037643 -0.094641 -0.064718 -0.125264 -0.131692 0.212130 0.084869 0.207497 0.025247 -0.173724 -0.061864 -0.259778 -0.109245 0.109603 0.021360 -0.174926 -0.125076 -0.133497 -0.253414 -0.019220 0.031938 -0.116437 0.163033 -0.154847 -0.328825 0.194565 -0.124373 -0.065907 -0.204228 0.035857 -0.099610 0.087252 0.222133 -0.036654 -0.130613 -0.245014 -0.106666 0.038533 0.123918 0.092481 -0.078100 -0.056432 -0.149820 0.052790 0.043152 0.143441 -0.408086 0.096591 0.047469 -0.192696 -0.088613 -0.029618 0.191472 -0.042911 -0.252004 -0.270594 -0.094177 -0.178603 0.052926 0.059716 -0.260357 0.003087 0.072779 -0.109536 -0.108277 -0.021130 -0.010061 -0.153537 -0.055388 -0.029837 -0.116847 -0.023014 0.004107 -0.176808 0.265310 -0.049961 -0.100750 0.007402 -0.208609 -0.034668 0.285591 -0.149272 -0.024167 -0.087418 -0.006341 -0.239869 0.232147 -0.036613 0.142942 -0.091876 0.236940 -0.269194 -0.148898
-0.110772 -0.050518 -0.125921 -0.040312 0.099895 -0.013742 -0.121161 0.188226 -0.024176 0.003045 -0.014344 -0.069942 -0.134820 -0.050576 -0.087048 0.075560 0.221822 0.055717 -0.126785 0.007471 -0.043843 0.087268 -0.065720 0.032873 0.047662 -0.053652 -0.008877 0.207967 0.000777 -0.001226 0.194209 -0.144575 0.143952 -0.069496 0.034916 -0.318610 0.056276 -0.015251 0.019049 -0.086959 0.059898 -0.155701 -0.304064 -0.048768 -0.023300 0.264809 -0.057644 0.086736 -0.167719 -0.070939 -0.112682 0.024806 -0.053426 -0.086455 0.148754 -0.132432 0.060934 -0.057266 -0.040680 0.028917 -0.070295 0.072423 -0.289274 -0.172915 -0.056502 0.019478 0.065302 0.005277 0.014682 0.096911 0.002285 0.190351 -0.033850 -0.016957 -0.028828 0.079486 -0.001912 -0.057410 0.070078 -0.149808 -0.078829 0.149424 -0.112998 0.028673 0.130308 -0.076990 0.119219 -0.124064 0.199969 -0.003908 -0.022044 -0.090356 -0.175356 0.063677 0.169092 0.205009 -0.026014 0.061363 0.027341 0.041272
-0.097103 0.001640 0.033299 0.018881 -0.012342 0.009234 0.014724 0.112530 0.124151 0.093274 0.166345 -0.216313 0.043172 -0.007645 -0.021585 -0.046505 -0.124026 -0.210651 0.047312 -0.053712 0.199854 0.170105 0.206351 0.137537 0.086001 0.062157 0.125441 0.021566 -0.160305 0.100329 0.015143 0.076639 -0.041703 0.045097 -0.237752 0.163095 0.144338 -0.005139 -0.242336 0.219444 -0.105917 0.143642 -0.338941 -0.051782 -0.189319 -0.141788 -0.147337 -0.030877 -0.139443 0.191924 0.168745 0.057021 0.117417 -0.120450 -0.127099 -0.080876 -0.023865 -0.070364 -0.027729 -0.207679 0.060425 -0.050015 0.087971 0.101455 -0.079750 -0.054224 -0.168245 0.072382 0.081503 -0.035159 -0.163664 0.123813 -0.160839 -0.067253 0.075633 0.006173 0.046014 -0.063658 0.130823 -0.036441 -0.178189 0.078040 -0.111451 -0.016927 0.229772 -0.005018 0.135027 -0.206372 -0.060412 -0.058198 0.018312 0.091832 0.041842 -0.219279 -0.167673 -0.104563 0.066667 -0.030900 0.127543 0.077108
-0.188738 -0.258256 -0.061076 -0.087990 -0.227053 0.025360 0.016909 -0.019736 -0.089748 -0.061335 -0.062931 -0.259191 0.088836 -0.140008 -0.180840 -0.128168 -0.106414 -0.050033 0.008754 -0.094449 -0.070418 -0.121626 0.040511 -0.122717 -0.106860 -0.007170 0.101987 -0.064147 -0.135531 -0.155018 0.090538 -0.225347 0.017244 -0.080553 -0.226416 -0.109296 -0.007968 -0.031239 -0.042541 0.028991 0.004279 -0.054527 -0.264930 -0.156284 -0.083117 -0.331009 0.094762 -0.081106 -0.250152 -0.109574 -0.039829 -0.097216 -0.016157 -0.022876 -0.237670 0.014626 -0.222687 -0.199340 -0.145673 0.108878 -0.030066 0.072121 0.020975 -0.100460 -0.142666 -0.067133 -0.187088 -0.134947 -0.245407 -0.204705 -0.020049 0.127298 -0.262131 -0.149608 -0.115641 -0.079666 -0.193596 -0.159555 -0.121594 -0.110230 0.078515 -0.308096 -0.015363 -0.100275 -0.036745 -0.102106 -0.100962 -0.085700 -0.017833 0.022775 -0.078814 -0.079334 -0.071762 0.047748 -0.045661 0.034963 -0.193409 0.067202 -0.128273 -0.045652
0.024852 -0.115700 -0.019975 0.053827 -0.027639 0.190386 -0.014516 -0.108226 0.050831 0.004537 -0.085359 0.171044 -0.088394 0.076993 0.007187 0.238772 0.179121 -0.049540 0.123456 0.166139 0.028854 -0.057414 0.169402 0.021546 0.143242 -0.094181 -0.061063 -0.109623 0.014550 0.145808 0.116176 -0.094103 -0.005239 -0.039588 0.020869 0.052565 -0.033098 0.069647 -0.175774 -0.237956 -0.144618 0.185211 -0.233626 0.228907 -0.137260 -0.035635 0.009568 0.001970 -0.042215 0.161710 0.074906 0.193403 -0.199580 0.190418 -0.034812 0.109894 0.003060 0.125919 -0.211259 0.093250 0.005062 0.116111 0.161128 -0.032590 -0.072066 0.044265 -0.001594 0.175660 0.103687 0.069773 -0.046418 0.086378 -0.056747 -0.021283 -0.015792 -0.037667 0.011247 -0.037283 0.069358 0.008016 0.057939 0.083081 0.032587 0.004611 -0.116211 -0.063143 0.145724 -0.026630 -0.037334 -0.067236 0.125709 -0.142989 0.203604 -0.103230 -0.040201 -0.134713 -0.061198 0.103269 -0.091817 -0.023909
-0.056651 -0.132871 0.003647 -0.046742 0.016378 0.042263 0.124403 -0.057624 0.076659 0.052394 -0.255196 0.213594 0.064279 -0.055957 0.095396 -0.041119 0.152576 0.202423 0.043196 0.131363 -0.029739 -0.083299 -0.205178 0.051898 0.033290 0.234621 0.024893 -0.042346 -0.213437 -0.099027 0.177763 0.107733 0.036150 -0.075321 -0.025648 -0.053028 -0.072511 0.015263 0.019350 0.052483 -0.273995 0.046352 -0.131689 0.083246 0.225504 0.031002 0.113754 0.174680 -0.004156 0.125450 0.118239 0.011340 0.228919 -0.084920 0.052524 0.003671 -0.013114 -0.038584 -0.018379 0.014562 0.075031 -0.083378 0.171280 0.007423 -0.028180 -0.171571 -0.052737 0.009713 -0.090165 -0.000714 -0.117047 0.154996 0.072425 0.136361 0.053581 -0.126954 -0.213508 0.000021 -0.072533 0.027554 0.062238 -0.099880 0.231458 -0.068831 -0.135916 0.048821 -0.167139 0.040993 0.232081 -0.021346 0.039078 -0.096802 -0.252048 -0.177040 0.001373 -0.167040 -0.003305 0.029229 -0.067303 0.189026
0.008993 0.028411 0.058648 -0.052920 -0.036114 -0.149962 0.148846 -0.260251 0.155292 0.051922 -0.070314 -0.109399 0.105750 0.002622 0.128999 -0.167165 -0.123238 0.155126 0.166485 -0.073320 -0.015232 -0.138647 -0.002089 0.086293 -0.010004 -0.056478 0.111483 -0.104408 -0.063031 0.027494 -0.046053 0.022717 -0.260556 0.049953 -0.126968 -0.068364 0.008443 0.012286 0.109165 0.069765 -0.129927 -0.102818 -0.139456 -0.271923 0.007226 -0.000952 -0.005129 0.062529 -0.294506 -0.190171 0.073253 -0.240021 0.231950 -0.097390 0.137297 -0.047014 -0.166424 0.066261 -0.040709 -0.052282 0.009715 -0.052607 -0.050591 0.122961 -0.125030 0.071248 -0.116014 -0.114773 -0.237656 0.260495 -0.105154 0.097002 -0.159536 0.042415 0.172902 -0.022569 -0.128115 -0.050231 -0.076709 0.001238 -0.006959 -0.003466 0.014258 -0.087628 -0.054891 0.142169 0.073104 0.064765 -0.114751 0.087701 -0.046739 -0.149716 -0.303360 -0.139956 0.032036 -0.187902 -0.057894 0.117729 -0.128187 0.037670
0.024418 -0.152848 0.023178 -0.236718 -0.023876 0.085870 0.102756 -0.070679 0.119149 0.000202 -0.147360 0.146314 -0.041377 -0.007818 0.142285 -0.203782 -0.011927 0.155819 -0.073074 0.019090 -0.036558 0.091022 -0.247609 -0.175505 -0.026408 -0.017775 0.038198 0.098534 0.006421 -0.000056 0.163978 0.036156 0.003483 -0.112934 -0.156090 -0.308384 0.077307 -0.037752 -0.044847 -0.208723 -0.043900 -0.090000 0.007008 -0.215897 -0.188102 -0.018448 0.108015 -0.020139 -0.032816 -0.130169 -0.165542 -0.141920 0.025589 0.115730 -0.105507 -0.220038 -0.047938 -0.035051 0.023506 -0.022980 -0.004226 0.215569 -0.289051 0.032609 0.023557 0.048595 -0.164822 -0.054130 -0.093369 0.049306 -0.159526 -0.197640 0.020875 0.125535 -0.011002 -0.080996 -0.011420 -0.059174 -0.219088 -0.372412 -0.065977 0.198330 0.165054 -0.095875 0.118951 -0.002593 0.099844 -0.069197 0.002161 0.027307 0.385921 -0.065289 -0.050287 0.041775 -0.079802 0.291802 -0.226152 -0.029751 -0.044513 0.135142
-0.257863 -0.011255 0.021744 -0.096975 -0.050950 -0.145462 -0.338032 -0.315892 -0.029542 0.074847 0.100508 -0.099532 -0.074311 -0.027131 -0.262343 -0.072185 0.019627 -0.200093 -0.242141 -0.057047 0.117151 0.090329 -0.050706 0.013590 0.035275 -0.307631 -0.272988 -0.060007 -0.301198 -0.025831 0.006968 -0.173217 0.127141 0.012449 -0.150957 -0.086272 -0.090381 -0.076567 -0.121438 0.059924 -0.058456 -0.000442 0.001559 0.144539 -0.142290 -0.008118 0.021586 0.014751 0.078893 -0.248303 0.006545 -0.132751 -0.040156 -0.007348 0.236306 0.004293 -0.013439 -0.234054 -0.122294 -0.088575 -0.193864 -0.192410 0.002065 -0.218602 -0.287942 -0.158596 -0.235198 0.025978 0.015834 -0.128787 0.007558 0.101739 0.112286 -0.180030 -0.000778 0.015885 0.029938 0.023063 0.042813 -0.138818 0.003038 -0.240878 0.063859 -0.044387 0.041541 -0.264233 0.004345 -0.072032 0.080440 -0.184509 -0.092907 -0.140173 0.087753 0.000063 -0.137856 0.041476 -0.090087 -0.080882 -0.160870 -0.120406
-0.087467 -0.221318 0.211917 -0.158593 0.149962 -0.077130 -0.002331 -0.088972 0.043764 0.008857 -0.007291 -0.006382 0.236874 -0.198379 0.121743 -0.028716 -0.075331 0.196571 -0.065809 0.074902 0.117264 -0.085734 -0.197752 0.114329 0.243546 -0.071586 -0.049582 0.020724 0.030564 -0.086217 -0.123898 -0.097758 -0.127016 0.074695 0.024654 -0.029575 -0.137721 0.023078 -0.016775 0.114420 -0.003512 -0.148486 -0.123794 0.059897 -0.011393 0.081799 -0.031016 -0.039798 -0.177649 0.189362 0.156027 -0.143169 0.070615 -0.083356 0.121834 -0.153894 0.041609 0.177625 -0.207785 -0.132017 0.064380 0.030396 0.072576 0.220712 0.205020 -0.140626 -0.053127 -0.237131 -0.024044 -0.108822 -0.017682 -0.027844 -0.140256 0.093026 0.018811 -0.165852 0.100646 -0.103265 0.030379 -0.134049 0.027324 -0.107036 0.038732 0.000514 -0.335569 0.132728 -0.091467 0.170165 -0.112167 0.117349 0.116546 -0.124504 0.069907 -0.178870 0.076595 -0.060047 -0.064406 0.171010 -0.061035 -0.035654
0.024191 -0.124390 0.042613 0.127733 0.012147 -0.121122 0.004983 -0.122595 -0.013336 -0.005228 -0.143899 0.063859 0.176747 0.032229 0.038948 -0.216609 -0.053912 0.041146 -0.242195 0.096613 -0.144770 -0.067831 0.013818 -0.132098 -0.236625 0.102506 -0.046373 -0.174454 -0.062669 -0.053407 0.021710 0.215315 0.127619 0.157974 0.113667 -0.077655 0.048202 0.012226 0.023591 -0.049810 0.052370 -0.101252 -0.199014 -0.141256 -0.091933 0.105909 0.003639 -0.050067 0.023634 0.160296 0.037320 -0.158091 -0.129617 -0.088466 0.013418 -0.177605 0.003877 -0.064765 0.125707 0.021774 0.020463 0.076822 0.006023 -0.124806 0.156485 -0.035642 -0.039940 -0.063517 0.147894 0.034122 -0.022617 0.002368 0.024802 -0.002847 -0.026831 -0.029292 0.043895 -0.060978 -0.014707 -0.254744 0.018843 0.177407 0.128359 -0.044034 0.136040 0.136059 0.016576 -0.069346 0.060397 0.051082 -0.001576 -0.061655 -0.005548 -0.027577 -0.324172 -0.075732 0.118111 0.065650 0.017100 0.005642
-0.017637 0.077446 -0.109078 0.185649 0.118719 -0.054131 0.007696 0.062904 -0.036675 0.001147 -0.080542 -0.010748 0.032818 0.116728 -0.066346 0.109523 0.171875 -0.100330 -0.034490 0.078005 0.036568 0.209313 0.022268 0.003705 -0.121267 -0.064087 -0.113915 0.124901 0.000046 -0.018542 -0.046968 -0.125194 0.079165 0.093796 -0.029516 -0.050995 0.278085 0.007649 -0.066175 -0.149609 0.034092 -0.087057 0.057627 -0.174595 0.112251 -0.050154 0.002719 -0.054351 -0.074722 -0.103390 -0.208895 0.048112 0.129610 -0.095083 0.004307 0.002722 0.039679 0.169915 0.188265 -0.035452 -0.003473 0.111510 0.012267 0.143057 0.105546 -0.014771 -0.100143 0.081852 0.152132 0.052649 0.241896 -0.080560 -0.027190 0.073995 -0.016838 0.053057 0.118170 0.093232 0.078632 -0.134410 0.160283 0.237402 -0.029577 -0.022382 -0.172241 -0.097121 -0.100112 0.106543 0.160833 0.012711 0.089248 -0.036822 -0.131775 0.063528 -0.092459 0.255120 0.041733 -0.031101 0.080691 -0.117730
-0.057501 0.153540 0.097510 -0.056757 0.084794 -0.111868 -0.188897 -0.101404 -0.082239 -0.003703 -0.231623 0.110069 0.139264 -0.208906 -0.107416 0.010664 -0.051128 -0.018132 -0.038937 -0.026196 -0.010897 -0.081663 0.007134 0.073661 -0.285559 0.023728 -0.116920 -0.029686 -0.047983 0.033392 0.136443 0.066732 0.054272 0.021520 -0.116127 0.020361 0.171154 -0.094800 0.067564 0.038939 0.000530 -0.045819 -0.018905 0.092664 0.047196 0.091791 -0.023176 -0.066463 -0.100791 -0.346466 -0.284781 -0.153132 -0.050490 -0.233098 -0.120677 -0.117028 0.162831 0.049467 0.164620 0.066722 -0.045182 0.139691 0.130924 0.078878 -0.042249 -0.137471 -0.271020 -0.211888 0.079446 0.103603 0.120519 -0.035098 -0.333808 -0.002726 0.010290 0.118943 -0.191736 0.002361 -0.123961 -0.258781 -0.071031 -0.138283 -0.120956 0.028385 0.066122 0.125056 -0.232565 -0.002291 -0.140735 -0.223514 0.201193 -0.040343 0.037092 -0.086485 0.066773 0.090167 -0.208377 -0.050161 -0.047539 -0.218680
-0.158304 0.012789 -0.077446 0.034754 0.032376 -0.099614 -0.060498 -0.223798 -0.006593 -0.202591 -0.262597 0.040085 -0.055525 -0.178582 -0.103049 -0.059132 -0.192577 -0.313046 0.070444 -0.173744 -0.017544 -0.043040 -0.059421 -0.018082 0.049126 -0.032080 -0.042865 0.031496 -0.199850 -0.068625 -0.007920 -0.136727 -0.195928 -0.295850 0.018646 0.043118 -0.200749 -0.137546 -0.061708 -0.125807 -0.037594 0.050204 -0.128451 0.073677 0.060348 -0.230407 -0.155985 0.098489 -0.069646 -0.146567 -0.108127 -0.014470 0.036631 -0.003355 -0.149596 0.105167 -0.101929 -0.146270 -0.022542 -0.078556 0.019524 -0.125847 0.064649 -0.149140 -0.157012 -0.153588 -0.149098 -0.015816 -0.254453 -0.023014 -0.027690 -0.006262 -0.033757 -0.231088 -0.172365 0.035648 -0.085977 0.141039 -0.171054 0.031443 0.067476 -0.026312 -0.157412 -0.160336 -0.042056 -0.013296 -0.068528 0.025152 -0.167746 -0.123318 0.055959 0.014205 -0.169788 -0.014680 -0.184957 -0.108170 -0.111667 0.060983 -0.169437 -0.001172
-0.128390 0.026856 -0.239976 0.139752 0.024204 0.026021 -0.042347 -0.073480 -0.142012 0.077576 0.129021 0.145555 -0.011600 0.093899 -0.135546 -0.032626 -0.197016 -0.331156 -0.008121 -0.129375 -0.043773 0.018316 0.225672 -0.191438 0.169838 -0.229176 -0.076804 -0.083672 -0.118042 0.006561 0.090584 -0.114188 -0.068855 0.209878 -0.090074 -0.161422 0.169744 0.044209 0.028037 0.087110 0.107333 0.122237 0.054417 0.084453 -0.228992 -0.084234 0.117094 0.078329 -0.006447 -0.054176 -0.099020 0.129205 -0.145239 0.092035 -0.105771 -0.313369 0.008951 0.018806 0.210333 -0.129004 0.001887 0.008964 0.199174 -0.131990 -0.089747 0.051672 -0.034331 0.021991 -0.113328 0.062814 -0.124360 0.034092 0.165760 -0.088264 0.004887 -0.099496 -0.119268 0.026623 -0.139634 0.144069 0.097574 0.205045 -0.169879 0.010812 -0.096650 -0.218835 -0.025446 -0.019326 0.046415 -0.000365 -0.378287 -0.224005 0.119749 0.091596 -0.175316 -0.179891 0.213802 -0.183366 -0.030778 0.032544
-0.002144 -0.112380 -0.279627 -0.168729 -0.025755 -0.040301 0.123871 -0.072026 0.079692 0.001969 -0.119561 -0.106419 -0.069356 -0.022394 0.001075 -0.085361 -0.137085 -0.101175 0.039004 -0.153212 -0.085825 -0.021554 0.162513 0.106204 -0.321784 -0.030325 -0.062127 0.056659 -0.005146 -0.000412 0.161565 -0.049195 0.000839 -0.053600 -0.000000 -0.105994 -0.116640 -0.022854 0.067418 0.287743 -0.037499 -0.179807 -0.061563 -0.059881 -0.253199 -0.084608 -0.007309 0.069104 -0.044440 0.026746 0.010434 0.016954 -0.343581 -0.031188 0.060373 0.256644 -0.012926 -0.047040 0.023738 -0.171098 0.099476 -0.096173 0.009325 0.138482 -0.213726 -0.249630 -0.021788 -0.112674 -0.001751 -0.035421 -0.330287 0.062148 0.011585 0.082011 -0.041009 0.046868 0.204993 -0.141245 0.008259 -0.193357 0.189678 0.007582 0.159996 0.004000 -0.079445 -0.106458 -0.088851 0.010504 0.148532 0.118407 -0.008729 -0.032904 -0.274706 -0.142995 0.024843 -0.012787 -0.000411 0.113493 0.006804 0.082540
-0.045828 -0.015513 0.071816 0.021341 0.065733 0.118986 0.057110 0.014113 -0.045205 -0.063630 -0.050617 -0.039513 0.029505 -0.117283 0.070612 0.221733 -0.045512 0.134878 -0.044932 0.094163 0.010476 -0.006578 -0.012113 -0.049832 0.016134 -0.053310 -0.045735 -0.071130 -0.032575 0.089647 -0.025491 0.091239 -0.138658 -0.144082 -0.000534 -0.160560 -0.099237 -0.012630 -0.030025 -0.069642 -0.010404 0.021082 -0.028804 -0.109440 -0.095669 0.079976 -0.036164 0.147897 -0.009293 -0.012132 -0.135116 -0.004237 0.109904 -0.025523 -0.009340 0.016378 0.069874 0.007609 -0.129147 -0.044964 0.034791 -0.165160 -0.161846 0.151694 0.003470 -0.198946 0.037619 -0.068379 0.031022 0.121782 -0.046160 0.033277 0.032058 0.011472 0.101190 0.008930 0.103970 -0.022314 0.181222 0.034312 -0.106610 0.014059 0.031092 -0.074576 -0.015739 0.020064 -0.021429 0.310928 -0.075351 -0.035355 0.052766 -0.063481 -0.059041 -0.052271 -0.001483 -0.171580 -0.059993 0.095099 0.062519 0.069456
-0.049933 -0.072779 -0.036391 -0.005273 -0.050521 -0.031250 0.023144 0.162818 0.248539 -0.062851 -0.214096 -0.119247 0.061661 -0.044286 0.004716 0.047308 -0.235053 0.035922 0.036962 0.023064 -0.040322 0.069459 -0.049408 -0.165514 0.165175 0.010640 0.123610 -0.181048 -0.132119 0.057392 0.285845 0.091223 0.130608 -0.021187 0.282578 -0.124770 -0.117744 -0.007564 -0.108615 -0.218359 -0.059729 0.149523 -0.115830 -0.013458 0.087785 0.006909 0.066979 -0.020934 0.182192 0.131400 0.174487 -0.123614 -0.171487 -0.190814 -0.121168 -0.137445 -0.071829 0.001446 -0.145120 0.223967 0.079240 -0.090914 0.123132 -0.011663 -0.104396 -0.090019 0.067666 -0.021926 -0.054105 -0.162493 0.186993 -0.063055 -0.023080 -0.048128 -0.168841 -0.048206 -0.060555 0.062272 -0.167466 -0.132971 0.137846 -0.051228 -0.005048 -0.039956 0.163232 -0.069136 -0.276309 -0.087652 -0.022093 -0.065713 0.088942 -0.007629 -0.226320 -0.006865 -0.040919 -0.037609 -0.028528 -0.119059 -0.030316 0.216529
0.297294 -0.085851 -0.131290 0.070174 0.011002 0.021716 -0.106629 0.021581 0.004694 0.117550 0.054544 0.013416 0.014205 -0.142358 -0.146231 -0.065290 -0.018461 0.225367 0.034726 0.205005 -0.078102 0.068173 0.034361 0.006124 0.087678 -0.421687 -0.175039 -0.176966 -0.006910 -0.133713 0.051382 -0.109063 0.098783 0.061018 -0.080613 -0.091468 0.217844 0.001844 0.026797 0.101930 -0.196878 -0.156696 -0.034381 -0.095154 -0.090996 -0.064088 -0.135190 0.079322 0.055358 0.173109 0.012037 -0.110136 -0.198521 -0.254994 -0.018221 0.219158 -0.037431 -0.001772 -0.063993 -0.028052 -0.147843 -0.008641 0.120720 -0.098854 -0.111190 -0.231989 0.102572 -0.433613 -0.251282 -0.103192 0.164001 -0.129978 -0.029798 -0.143646 -0.065539 0.000713 -0.162884 -0.077245 -0.183960 0.054804 -0.185117 0.029556 0.096870 0.031996 -0.166859 -0.221085 0.147984 0.020075 -0.218357 0.099046 -0.257263 -0.196760 -0.135598 -0.037852 -0.161194 -0.188001 -0.003887 0.149652 -0.132389 -0.247607
0.001556 0.040882 0.006711 0.002283 0.070622 -0.034647 -0.013507 0.019306 -0.056709 -0.006182 -0.001424 0.001711 0.015364 -0.032451 -0.023151 -0.033856 0.035110 -0.000001 0.015090 -0.023044 0.004631 -0.000051 -0.002469 -0.000929 0.013100 -0.039659 0.019097 -0.008548 0.013012 0.068115 0.004195 -0.064505 0.029300 0.010507 0.017399 0.042863 -0.000040 -0.000339 -0.019086 0.071026 0.016056 0.033540 0.001787 0.001251 0.031918 0.043289 0.011212 -0.026605 0.051160 -0.044485 -0.005576 -0.000000 -0.032237 0.024876 0.007677 0.051809 -0.001115 -0.003718 0.002058 -0.016727 0.080143 -0.015422 0.002917 -0.000004 0.007600 0.009271 0.001507 -0.000850 0.000336 0.003311 0.017743 0.015639 -0.011054 -0.007816 0.001129 -0.000000 0.009903 0.000841 -0.003484 -0.048976 0.015739 -0.078326 0.036624 0.058046 -0.031420 0.058285 -0.022754 -0.004743 -0.046859 -0.001736 0.036711 -0.036074 0.018476 -0.025974 0.036749 0.021510 0.030799 0.006816 0.009102 0.055911
-0.133887 -0.233000 0.099448 -0.086803 -0.020235 -0.028082 -0.071715 -0.153289 -0.052607 -0.005342 -0.204352 0.161154 -0.052491 0.068898 -0.025385 -0.051721 -0.083918 0.045825 0.118017 -0.254282 -0.096854 -0.196997 0.180456 0.200425 -0.096412 0.011973 -0.175591 0.089292 -0.044135 0.006666 0.065172 0.156882 -0.088926 -0.214313 -0.159647 0.146268 -0.122343 -0.052853 -0.031243 0.039660 -0.080688 -0.162837 0.098581 0.090326 -0.138123 0.060038 -0.212044 0.062323 0.038015 0.074860 0.096802 -0.094564 0.101211 -0.128390 0.121331 0.104968 -0.057825 0.113008 -0.029432 -0.068436 -0.061951 -0.000819 0.143886 -0.199784 -0.028147 -0.133262 0.068287 0.005564 0.046420 -0.031514 -0.014897 0.136307 -0.021047 -0.020321 0.065583 -0.073802 -0.166437 -0.248194 0.005274 0.130070 0.094994 -0.198137 -0.026811 -0.068317 -0.048168 0.239313 -0.133056 0.076188 0.087122 0.001365 0.225063 -0.026923 0.000429 -0.417173 -0.112562 0.031867 -0.067593 -0.009651 -0.278369 -0.028654
-0.046587 -0.183325 0.032972 0.029455 0.191778 -0.046294 -0.092085 0.158774 -0.129320 -0.053841 0.058420 0.057558 0.019912 -0.048492 0.030505 -0.121514 -0.263381 0.047569 -0.121803 0.128400 0.067537 0.083274 -0.042931 -0.061947 -0.004415 -0.191346 -0.116569 -0.195825 0.035075 0.151923 0.036328 -0.079302 0.166181 0.053275 0.052205 0.154483 -0.070879 -0.017357 0.068827 0.034349 -0.210684 0.113187 0.115251 0.022136 -0.013356 0.057157 -0.039354 -0.043591 0.005278 -0.050362 -0.002067 -0.001059 0.052991 -0.176705 -0.072404 -0.062961 0.044254 0.005571 -0.027740 -0.202018 0.040466 -0.154748 0.064720 0.064146 -0.108069 -0.089335 0.050794 0.185015 -0.119030 -0.206351 -0.014372 0.147413 0.107038 0.088443 0.082958 -0.210915 0.047216 -0.039745 0.037140 0.143015 0.077669 -0.029049 0.091363 -0.045176 0.154676 -0.126672 -0.020889 -0.134579 -0.093038 -0.042771 -0.136711 0.010179 0.081309 0.042713 -0.089626 0.193718 0.065771 -0.161293 0.045684 0.020648
0.137820 -0.051286 -0.140849 0.039051 -0.034734 -0.095324 -0.020522 -0.090782 -0.083074 0.027301 -0.002632 0.114036 0.039015 -0.044405 -0.131902 -0.035675 0.011185 0.174617 0.041410 -0.001737 -0.083594 -0.047591 0.092520 0.067647 -0.183909 0.260221 -0.488296 0.051288 0.002662 -0.046027 0.055682 -0.040359 -0.155988 -0.184749 0.022313 0.071373 0.202812 -0.011399 0.134692 0.247167 -0.079977 -0.048198 -0.414735 -0.134792 -0.049548 -0.028052 -0.000241 -0.158666 -0.055568 0.294509 0.064942 0.068273 0.042386 -0.017337 0.127525 0.093964 -0.032980 0.115169 0.131016 -0.120812 -0.001227 0.308596 0.049297 0.108696 0.051090 -0.140730 -0.025225 -0.053400 -0.076489 0.146170 -0.041020 0.010152 0.134297 0.032023 0.011229 -0.026479 -0.228161 -0.069849 -0.024238 -0.128693 -0.052985 0.179345 0.010921 0.018476 -0.268180 0.199878 0.336889 -0.016375 -0.032451 0.134716 -0.002757 -0.084550 -0.068212 -0.091140 0.139507 -0.266632 -0.008902 -0.211646 -0.023270 -0.112330
-0.090278 -0.075473 -0.060209 0.006735 -0.205718 -0.206290 0.216040 -0.012162 -0.164328 0.042525 -0.032431 0.092481 -0.109943 -0.004254 -0.134838 0.140774 -0.098953 0.031086 -0.197991 0.027559 -0.052917 -0.058850 -0.023911 -0.247599 0.063701 -0.009130 0.237155 0.037553 0.069453 0.037438 0.108404 0.034385 0.115538 -0.046091 0.017576 0.008682 -0.144546 -0.045480 0.085812 -0.077020 0.087593 -0.074843 0.150032 -0.055901 0.133670 -0.098974 0.001664 -0.184370 0.081073 0.022195 0.035194 -0.077380 -0.072407 0.056326 0.070761 -0.037892 -0.119167 0.057278 0.007455 0.056468 -0.024071 0.140588 -0.121583 0.061340 0.026955 -0.005162 -0.157560 -0.153013 0.030342 -0.003471 0.084504 0.068744 -0.137666 -0.227773 -0.104538 -0.193186 -0.098007 -0.039052 0.119400 0.095622 -0.041074 -0.160251 -0.093121 0.010457 0.030031 0.024362 -0.063240 0.132430 0.024913 0.080597 0.133658 -0.034771 0.077353 -0.019937 0.155998 -0.063415 -0.070741 -0.183291 -0.149647 0.023082
-0.075451 0.113029 -0.023811 -0.080484 -0.034633 0.156468 0.120902 0.096150 0.067988 0.040072 -0.103487 -0.034016 -0.130838 -0.020019 0.113246 -0.137081 0.021812 -0.014368 -0.261651 -0.121626 -0.084612 -0.026433 -0.005059 -0.204982 0.106685 0.107640 -0.066850 -0.008916 0.009675 -0.079900 0.092386 0.030773 -0.006136 0.048852 -0.098158 -0.176683 0.036263 -0.058554 0.131128 0.077416 -0.077099 0.014927 -0.012706 0.007491 -0.113935 0.100682 0.079470 -0.101708 -0.046526 0.094694 -0.111674 -0.031048 -0.162928 -0.039311 -0.208542 -0.000932 -0.080851 0.076038 0.083093 -0.006124 0.004760 -0.033360 -0.233482 0.066641 0.026647 -0.008129 -0.007440 0.000837 -0.109543 -0.099935 0.006923 0.008169 -0.219563 0.082665 -0.035583 0.184059 -0.097889 0.000584 -0.085810 0.047213 -0.187449 -0.163944 -0.221099 0.052121 0.009891 -0.134036 0.041694 -0.026955 -0.047283 -0.065107 0.016080 -0.113466 0.001540 -0.145671 -0.049758 0.039039 -0.051518 -0.201466 0.017158 -0.042725
0.141611 -0.068397 0.073052 0.066999 -0.042703 0.126690 -0.121942 0.032402 0.032308 -0.002779 -0.108944 0.020939 0.003019 -0.003908 -0.014592 0.024865 0.151585 0.150731 -0.036484 0.003420 0.030430 -0.034922 -0.090895 -0.011929 -0.127637 -0.150387 -0.067695 0.089071 -0.036714 -0.015029 0.050735 0.015927 -0.135894 -0.008465 -0.035861 -0.051648 -0.072301 -0.060021 0.220072 -0.144005 0.264222 0.005345 0.168954 0.268806 -0.076297 -0.165464 0.056420 -0.067782 0.015884 0.051131 0.027385 0.036996 -0.019332 0.150410 0.032359 0.094658 -0.206683 -0.169998 0.094712 -0.138646 -0.099965 0.192207 -0.016787 -0.034154 0.234553 0.137329 -0.106627 0.193222 0.046341 -0.061086 -0.049035 -0.018384 0.034176 0.010850 -0.076856 0.115823 0.088325 0.134960 -0.049342 0.076439 0.173248 0.047567 -0.096223 -0.097484 -0.052536 0.071539 0.099296 -0.094785 0.047205 0.050084 -0.010196 -0.068769 0.064161 -0.092809 0.032255 0.140526 0.035467 -0.095648 -0.069099 0.045338
-0.040046 -0.034291 0.168573 -0.057483 -0.097598 0.052515 -0.075786 -0.008497 0.010554 0.112901 0.055525 -0.175112 -0.249877 0.018831 -0.035167 0.113400 -0.053818 0.025512 0.068389 0.025935 -0.003153 0.059033 -0.127452 0.047600 -0.025933 0.059779 -0.175544 -0.131626 0.007377 -0.007740 -0.098062 0.019033 0.021698 0.114994 -0.013430 -0.062534 0.013663 0.000091 0.213792 0.195903 -0.142621 0.072057 -0.112437 0.080541 0.050713 0.041368 0.137802 0.143327 -0.030922 0.039880 -0.127532 0.252585 0.058318 -0.264738 0.006370 0.167309 0.042208 0.129498 0.008491 -0.068454 -0.019599 -0.081417 -0.143341 -0.042012 -0.020888 0.024000 0.022264 -0.054603 0.045097 0.074289 -0.045321 -0.051675 0.056418 -0.027261 -0.005853 -0.026797 -0.100744 -0.044316 0.020547 0.036751 -0.066617 -0.091334 0.154458 0.070958 -0.010491 0.082228 0.040109 0.010868 0.099520 0.033229 -0.101105 0.038079 0.015275 0.178301 -0.245749 0.224126 0.019319 -0.128473 -0.031012 0.134914
-0.080238 -0.214253 -0.082457 0.119332 -0.100259 0.019628 -0.102109 0.116553 -0.218383 -0.100587 -0.056822 0.094042 0.017081 0.019880 -0.125589 0.088346 -0.067847 -0.302461 0.066208 -0.041992 -0.137950 -0.111581 -0.024799 -0.090933 -0.050506 0.126276 -0.335084 0.076138 -0.123753 -0.155628 0.140217 0.078563 -0.024961 -0.047032 -0.095061 0.124452 0.089763 -0.097757 0.008403 0.128165 0.045887 -0.130070 0.151012 0.111601 -0.170257 -0.010358 -0.044753 -0.119009 -0.169977 -0.099347 -0.057600 -0.335873 -0.357886 0.065468 -0.180263 -0.080909 -0.152939 -0.088682 -0.295069 -0.180038 -0.009627 0.043432 -0.032212 -0.160702 0.071403 -0.007900 0.050557 -0.087109 -0.046423 -0.080376 -0.076719 -0.203095 -0.134268 0.061814 -0.027869 -0.064498 -0.084337 0.068424 -0.156118 -0.048448 0.048203 0.009160 0.043924 -0.117834 0.169616 0.048489 -0.123350 -0.147676 0.035044 -0.066148 -0.014249 -0.170764 -0.111917 -0.093724 -0.101101 0.083069 -0.049494 -0.266514 -0.033498 0.077839
-0.256299 0.093462 0.011354 0.039885 -0.183116 -0.023510 -0.094713 0.089121 0.053793 -0.067381 0.008626 0.095121 0.137132 -0.045344 -0.028133 -0.069166 0.282843 -0.005253 -0.255007 -0.091139 -0.080409 -0.094070 -0.100878 -0.067685 0.079020 0.120553 -0.190735 0.003272 -0.039042 0.045986 -0.082930 0.003244 -0.068080 0.092415 -0.078273 -0.164695 0.088334 -0.073939 0.018730 -0.093353 -0.157254 0.141845 -0.176734 0.007349 -0.026139 -0.072949 -0.099752 -0.159897 -0.043103 0.064712 -0.160507 -0.003748 0.101330 -0.326870 0.092532 -0.148194 0.018648 -0.196170 -0.122137 -0.279471 0.032839 0.108656 0.215792 0.001342 0.025115 -0.190132 -0.033042 -0.183934 0.133656 0.066007 0.151884 -0.113653 -0.071661 -0.154824 -0.044812 -0.092013 -0.067616 0.108068 0.149190 0.054859 -0.119380 -0.038580 0.018050 0.002982 -0.313634 0.108979 -0.017288 0.207090 -0.153288 -0.071331 0.025831 0.022703 0.370437 -0.284920 -0.139085 -0.049565 0.032361 0.176421 -0.210088 -0.168510
0.196595 0.110020 0.086130 0.218906 0.038709 -0.013256 -0.140130 0.133738 0.105850 -0.111845 -0.088140 0.061614 0.263619 0.074175 -0.114176 -0.043940 0.011405 0.272381 -0.001740 -0.020925 0.124534 -0.064560 0.090513 0.072546 -0.247880 -0.321001 0.123805 -0.010591 0.119688 -0.118570 -0.073956 -0.058456 -0.012193 -0.010571 -0.038386 0.031354 -0.096515 -0.051717 -0.122361 -0.018123 -0.148547 -0.020336 0.050834 -0.110832 -0.164370 -0.168078 -0.074863 -0.275572 -0.097656 -0.031812 -0.180255 -0.139417 -0.049707 -0.100055 0.036381 0.053434 -0.056348 -0.062320 -0.131033 -0.065862 0.032110 0.019062 0.161184 -0.170708 0.028282 -0.258897 0.076613 0.096289 -0.099033 -0.083512 0.215292 -0.025860 0.105396 -0.152849 0.040425 -0.302223 -0.019072 -0.074955 0.007990 -0.116368 -0.024494 0.058824 -0.077538 -0.107556 0.062226 -0.061628 0.013575 -0.152887 -0.094619 -0.098514 0.083140 0.251567 0.028507 0.035297 -0.066260 -0.071629 0.029803 0.183974 -0.093915 -0.288359
