0.000000 -0.000000 0.000000 -0.000000 0.000000 0.000000 0.000000 -0.000000 -0.000000 -0.000000 -0.000000 -0.000000 0.000000 0.000000 0.000000 0.000000 -0.000000 0.000000 -0.000000 -0.000000 0.000000 0.000000 -0.000000 -0.000000 0.000000 0.000000 -0.000000 -0.000000 0.000000 -0.000000 0.000000 -0.000000 0.000000 0.000000 0.000000 -0.000000 -0.000000 0.000000 -0.000000 -0.000000 -0.000000 0.000000 -0.000000 0.000000 -0.000000 -0.000000 0.000000 0.000000 0.000000 -0.000000 -0.000000 -0.000000 -0.000000 -0.000000 0.000000 -0.000000 -0.000000 0.000000 0.000000 0.000000 0.000000 -0.000000 0.000000 -0.000000 0.000000 -0.000000 0.000000 0.000000 0.000000 0.000000 0.000000 0.000000 -0.000000 0.000000 0.000000 0.000000 0.000000 0.000000 -0.000000 -0.000000 0.000000 0.000000 0.000000 0.000000 0.000000 0.000000 -0.000000 -0.000000 -0.000000 0.000000 0.000000 0.000000 0.000000 0.000000 -0.000000 -0.000000 0.000000 -0.000000 0.000000 0.000000 0.000000 0.000000 0.000000 0.000000 0.000000 0.000000 -0.000000 0.000000 -0.000000 0.000000 0.000000 -0.000000 -0.000000 0.000000 0.000000 0.000000 0.000000 0.000000 -0.000000 -0.000000 -0.000000 0.000000 0.000000 0.000000 -0.000000 -0.000000 0.000000 0.000000 0.000000 0.000000 0.000000 0.000000 0.000000 0.000000 -0.000000 -0.000000 0.000000 0.000000 0.000000 0.000000 -0.000000 0.000000 0.000000 -0.000000 0.000000 0.000000 0.000000 -0.000000 0.000000 0.000000 -0.000000 0.000000 -0.000000 -0.000000 -0.000000 0.000000 0.000000 -0.000000 -0.000000 0.000000 0.000000 0.000000 0.000000 0.000000 0.000000 0.000000 -0.000000 -0.000000 -0.000000 0.000000 0.000000 -0.000000 0.000000 0.000000 0.000000 -0.000000 0.000000 -0.000000 0.000000 0.000000 0.000000 -0.000000 0.000000 0.000000 -0.000000 0.000000 -0.000000 0.000000 0.000000 -0.000000 -0.000000 -0.000000 0.000000 -0.000000 0.000000 0.000000 0.000000 0.000000 0.000000 -0.000000
0.000000 0.000000 0.000000 0.000000 0.000000 0.000000 0.000000 0.000000 -0.000000 0.000000 -0.000000 -0.000000 -0.000000 0.000000 -0.000000 -0.000000 0.000000 0.000000 0.000000 -0.000000 -0.000000 -0.000000 0.000000 0.000000 -0.000000 0.000000 0.000000 -0.000000 0.000000 0.000000 0.000000 0.000000 0.000000 -0.000000 -0.000000 -0.000000 -0.000000 -0.000000 0.000000 -0.000000 -0.000000 -0.000000 -0.000000 0.000000 0.000000 0.000000 -0.000000 0.000000 0.000000 -0.000000 0.000000 0.000000 0.000000 0.000000 0.000000 -0.000000 -0.000000 0.000000 -0.000000 -0.000000 0.000000 -0.000000 -0.000000 -0.000000 0.000000 -0.000000 -0.000000 -0.000000 -0.000000 -0.000000 -0.000000 0.000000 0.000000 0.000000 -0.000000 -0.000000 0.000000 0.000000 -0.000000 0.000000 0.000000 0.000000 -0.000000 0.000000 0.000000 0.000000 -0.000000 -0.000000 -0.000000 -0.000000 -0.000000 -0.000000 -0.000000 -0.000000 0.000000 0.000000 -0.000000 0.000000 -0.000000 0.000000 -0.000000 0.000000 0.000000 -0.000000 0.000000 0.000000 0.000000 -0.000000 -0.000000 -0.000000 0.000000 -0.000000 0.000000 -0.000000 0.000000 0.000000 -0.000000 -0.000000 -0.000000 -0.000000 -0.000000 0.000000 0.000000 -0.000000 0.000000 0.000000 -0.000000 -0.000000 -0.000000 -0.000000 -0.000000 0.000000 -0.000000 -0.000000 -0.000000 0.000000 -0.000000 0.000000 -0.000000 0.000000 0.000000 -0.000000 0.000000 -0.000000 -0.000000 0.000000 0.000000 -0.000000 0.000000 0.000000 -0.000000 0.000000 0.000000 0.000000 0.000000 -0.000000 0.000000 0.000000 0.000000 -0.000000 -0.000000 -0.000000 0.000000 -0.000000 0.000000 -0.000000 -0.000000 0.000000 0.000000 0.000000 0.000000 -0.000000 -0.000000 0.000000 -0.000000 0.000000 0.000000 0.000000 -0.000000 0.000000 -0.000000 0.000000 0.000000 0.000000 0.000000 0.000000 -0.000000 0.000000 -0.000000 -0.000000 0.000000 -0.000000 0.000000 0.000000 -0.000000 0.000000 0.000000 -0.000000 -0.000000 0.000000
-0.000000 -0.000000 0.000000 0.000000 0.000000 -0.000000 -0.000000 -0.000000 0.000000 -0.000000 -0.000000 0.000000 -0.000000 -0.000000 0.000000 -0.000000 0.000000 -0.000000 0.000000 0.000000 0.000000 -0.000000 0.000000 -0.000000 -0.000000 0.000000 -0.000000 -0.000000 0.000000 0.000000 0.000000 0.000000 0.000000 0.000000 -0.000000 -0.000000 -0.000000 -0.000000 0.000000 -0.000000 -0.000000 0.000000 0.000000 0.000000 0.000000 0.000000 0.000000 -0.000000 -0.000000 0.000000 0.000000 0.000000 0.000000 -0.000000 0.000000 0.000000 0.000000 -0.000000 0.000000 -0.000000 -0.000000 -0.000000 -0.000000 0.000000 -0.000000 -0.000000 0.000000 0.000000 0.000000 -0.000000 0.000000 -0.000000 -0.000000 0.000000 0.000000 -0.000000 -0.000000 -0.000000 0.000000 0.000000 -0.000000 0.000000 0.000000 -0.000000 0.000000 0.000000 0.000000 -0.000000 0.000000 0.000000 0.000000 0.000000 0.000000 0.000000 -0.000000 -0.000000 0.000000 0.000000 0.000000 0.000000 -0.000000 -0.000000 -0.000000 0.000000 0.000000 0.000000 0.000000 -0.000000 -0.000000 -0.000000 0.000000 0.000000 0.000000 -0.000000 -0.000000 -0.000000 0.000000 0.000000 0.000000 -0.000000 0.000000 0.000000 -0.000000 0.000000 -0.000000 -0.000000 0.000000 -0.000000 0.000000 0.000000 -0.000000 0.000000 0.000000 0.000000 -0.000000 0.000000 -0.000000 0.000000 0.000000 -0.000000 -0.000000 0.000000 0.000000 0.000000 -0.000000 0.000000 0.000000 0.000000 0.000000 -0.000000 -0.000000 0.000000 -0.000000 0.000000 -0.000000 0.000000 -0.000000 0.000000 0.000000 -0.000000 -0.000000 -0.000000 0.000000 -0.000000 -0.000000 0.000000 0.000000 -0.000000 -0.000000 0.000000 0.000000 0.000000 0.000000 -0.000000 0.000000 0.000000 0.000000 -0.000000 -0.000000 -0.000000 0.000000 -0.000000 0.000000 -0.000000 0.000000 0.000000 0.000000 -0.000000 0.000000 -0.000000 -0.000000 -0.000000 0.000000 -0.000000 0.000000 0.000000 -0.000000 0.000000 0.000000 -0.000000
-0.000000 0.000000 -0.000000 -0.000000 0.000000 0.000000 0.000000 -0.000000 0.000000 -0.000000 0.000000 0.000000 0.000000 -0.000000 -0.000000 0.000000 0.000000 -0.000000 -0.000000 -0.000000 -0.000000 -0.000000 -0.000000 0.000000 -0.000000 -0.000000 0.000000 -0.000000 -0.000000 0.000000 -0.000000 -0.000000 0.000000 -0.000000 0.000000 -0.000000 0.000000 0.000000 0.000000 -0.000000 -0.000000 0.000000 -0.000000 0.000000 0.000000 -0.000000 -0.000000 0.000000 -0.000000 -0.000000 -0.000000 0.000000 0.000000 0.000000 -0.000000 -0.000000 -0.000000 0.000000 -0.000000 0.000000 -0.000000 0.000000 -0.000000 0.000000 0.000000 -0.000000 -0.000000 0.000000 -0.000000 -0.000000 0.000000 0.000000 0.000000 0.000000 -0.000000 0.000000 0.000000 -0.000000 -0.000000 0.000000 -0.000000 -0.000000 0.000000 0.000000 0.000000 -0.000000 -0.000000 0.000000 -0.000000 -0.000000 0.000000 0.000000 0.000000 0.000000 -0.000000 0.000000 0.000000 0.000000 -0.000000 0.000000 0.000000 -0.000000 -0.000000 0.000000 -0.000000 0.000000 -0.000000 0.000000 0.000000 0.000000 -0.000000 -0.000000 -0.000000 0.000000 -0.000000 -0.000000 0.000000 0.000000 -0.000000 0.000000 -0.000000 0.000000 -0.000000 0.000000 0.000000 -0.000000 -0.000000 0.000000 -0.000000 0.000000 -0.000000 -0.000000 -0.000000 -0.000000 -0.000000 0.000000 0.000000 -0.000000 -0.000000 0.000000 -0.000000 -0.000000 -0.000000 -0.000000 0.000000 -0.000000 -0.000000 0.000000 0.000000 -0.000000 0.000000 -0.000000 -0.000000 -0.000000 0.000000 0.000000 -0.000000 0.000000 0.000000 0.000000 0.000000 -0.000000 0.000000 0.000000 -0.000000 -0.000000 -0.000000 0.000000 0.000000 -0.000000 -0.000000 -0.000000 0.000000 -0.000000 -0.000000 -0.000000 0.000000 -0.000000 -0.000000 -0.000000 -0.000000 0.000000 -0.000000 0.000000 -0.000000 -0.000000 -0.000000 0.000000 -0.000000 -0.000000 0.000000 -0.000000 0.000000 -0.000000 -0.000000 0.000000 0.000000 -0.000000 0.000000 0.000000
-0.000000 0.000000 0.000000 0.000000 0.000000 0.000000 -0.000000 -0.000000 -0.000000 0.000000 0.000000 0.000000 -0.000000 0.000000 0.000000 -0.000000 0.000000 0.000000 -0.000000 0.000000 -0.000000 0.000000 -0.000000 -0.000000 -0.000000 0.000000 0.000000 -0.000000 -0.000000 -0.000000 0.000000 0.000000 0.000000 0.000000 -0.000000 0.000000 -0.000000 -0.000000 0.000000 0.000000 -0.000000 -0.000000 -0.000000 -0.000000 -0.000000 -0.000000 -0.000000 -0.000000 -0.000000 -0.000000 0.000000 0.000000 0.000000 -0.000000 0.000000 0.000000 -0.000000 0.000000 0.000000 0.000000 0.000000 0.000000 0.000000 -0.000000 0.000000 -0.000000 0.000000 0.000000 0.000000 -0.000000 -0.000000 -0.000000 -0.000000 -0.000000 0.000000 -0.000000 0.000000 -0.000000 0.000000 0.000000 -0.000000 -0.000000 0.000000 -0.000000 -0.000000 -0.000000 -0.000000 0.000000 -0.000000 -0.000000 -0.000000 -0.000000 -0.000000 0.000000 -0.000000 -0.000000 0.000000 -0.000000 -0.000000 -0.000000 -0.000000 -0.000000 0.000000 -0.000000 -0.000000 -0.000000 0.000000 0.000000 -0.000000 0.000000 -0.000000 0.000000 0.000000 -0.000000 0.000000 -0.000000 0.000000 -0.000000 0.000000 -0.000000 0.000000 -0.000000 0.000000 -0.000000 0.000000 -0.000000 0.000000 -0.000000 -0.000000 -0.000000 -0.000000 -0.000000 -0.000000 0.000000 -0.000000 -0.000000 -0.000000 -0.000000 0.000000 -0.000000 -0.000000 0.000000 0.000000 -0.000000 -0.000000 0.000000 0.000000 0.000000 -0.000000 0.000000 0.000000 0.000000 0.000000 0.000000 0.000000 0.000000 -0.000000 0.000000 -0.000000 -0.000000 0.000000 -0.000000 0.000000 0.000000 0.000000 0.000000 0.000000 -0.000000 -0.000000 0.000000 0.000000 -0.000000 -0.000000 0.000000 0.000000 -0.000000 0.000000 -0.000000 0.000000 0.000000 0.000000 0.000000 -0.000000 0.000000 0.000000 0.000000 -0.000000 0.000000 0.000000 -0.000000 0.000000 0.000000 0.000000 0.000000 0.000000 0.000000 -0.000000 -0.000000 -0.000000 0.000000
0.000000 0.000000 -0.000000 -0.000000 -0.000000 0.000000 0.000000 -0.000000 0.000000 0.000000 -0.000000 -0.000000 0.000000 0.000000 0.000000 0.000000 -0.000000 0.000000 0.000000 0.000000 0.000000 0.000000 0.000000 0.000000 0.000000 0.000000 -0.000000 0.000000 0.000000 0.000000 0.000000 -0.000000 0.000000 -0.000000 0.000000 -0.000000 0.000000 -0.000000 0.000000 -0.000000 -0.000000 -0.000000 -0.000000 0.000000 0.000000 -0.000000 0.000000 -0.000000 -0.000000 -0.000000 0.000000 -0.000000 0.000000 0.000000 -0.000000 -0.000000 -0.000000 -0.000000 0.000000 -0.000000 -0.000000 0.000000 -0.000000 0.000000 -0.000000 -0.000000 -0.000000 0.000000 0.000000 0.000000 0.000000 -0.000000 -0.000000 0.000000 0.000000 -0.000000 -0.000000 -0.000000 -0.000000 -0.000000 -0.000000 -0.000000 0.000000 -0.000000 -0.000000 -0.000000 0.000000 0.000000 0.000000 0.000000 -0.000000 -0.000000 -0.000000 -0.000000 0.000000 -0.000000 0.000000 -0.000000 0.000000 0.000000 0.000000 0.000000 -0.000000 -0.000000 -0.000000 0.000000 -0.000000 -0.000000 -0.000000 0.000000 -0.000000 0.000000 -0.000000 0.000000 0.000000 -0.000000 -0.000000 -0.000000 -0.000000 -0.000000 0.000000 -0.000000 -0.000000 0.000000 0.000000 0.000000 0.000000 0.000000 0.000000 -0.000000 0.000000 0.000000 -0.000000 -0.000000 -0.000000 -0.000000 -0.000000 -0.000000 -0.000000 0.000000 0.000000 0.000000 -0.000000 0.000000 0.000000 0.000000 -0.000000 0.000000 0.000000 -0.000000 0.000000 0.000000 0.000000 -0.000000 0.000000 0.000000 0.000000 0.000000 0.000000 0.000000 0.000000 0.000000 -0.000000 0.000000 -0.000000 -0.000000 0.000000 0.000000 -0.000000 -0.000000 0.000000 0.000000 -0.000000 0.000000 0.000000 -0.000000 -0.000000 -0.000000 -0.000000 0.000000 0.000000 0.000000 -0.000000 0.000000 -0.000000 0.000000 -0.000000 -0.000000 -0.000000 0.000000 -0.000000 -0.000000 -0.000000 -0.000000 0.000000 0.000000 0.000000 0.000000 -0.000000 0.000000
-0.000000 0.000000 0.000000 -0.000000 -0.000000 0.000000 0.000000 0.000000 0.000000 -0.000000 0.000000 0.000000 0.000000 -0.000000 -0.000000 0.000000 -0.000000 -0.000000 0.000000 0.000000 0.000000 0.000000 0.000000 0.000000 0.000000 0.000000 0.000000 0.000000 -0.000000 -0.000000 0.000000 0.000000 -0.000000 -0.000000 0.000000 -0.000000 -0.000000 0.000000 0.000000 -0.000000 -0.000000 0.000000 -0.000000 0.000000 -0.000000 0.000000 0.000000 0.000000 0.000000 -0.000000 0.000000 -0.000000 -0.000000 0.000000 -0.000000 0.000000 0.000000 0.000000 -0.000000 -0.000000 -0.000000 -0.000000 0.000000 -0.000000 -0.000000 0.000000 -0.000000 0.000000 -0.000000 -0.000000 0.000000 0.000000 0.000000 -0.000000 -0.000000 0.000000 -0.000000 0.000000 0.000000 -0.000000 0.000000 0.000000 -0.000000 0.000000 -0.000000 0.000000 0.000000 -0.000000 0.000000 0.000000 -0.000000 0.000000 -0.000000 0.000000 0.000000 -0.000000 -0.000000 -0.000000 -0.000000 -0.000000 -0.000000 0.000000 0.000000 0.000000 -0.000000 0.000000 0.000000 0.000000 0.000000 0.000000 0.000000 0.000000 -0.000000 -0.000000 -0.000000 0.000000 0.000000 -0.000000 -0.000000 0.000000 0.000000 -0.000000 -0.000000 0.000000 0.000000 -0.000000 0.000000 0.000000 0.000000 0.000000 -0.000000 -0.000000 -0.000000 -0.000000 -0.000000 -0.000000 -0.000000 -0.000000 -0.000000 0.000000 0.000000 0.000000 0.000000 0.000000 -0.000000 -0.000000 -0.000000 -0.000000 -0.000000 0.000000 0.000000 0.000000 0.000000 -0.000000 0.000000 0.000000 0.000000 0.000000 -0.000000 0.000000 0.000000 -0.000000 -0.000000 -0.000000 -0.000000 0.000000 0.000000 0.000000 -0.000000 -0.000000 0.000000 -0.000000 0.000000 0.000000 0.000000 0.000000 -0.000000 -0.000000 0.000000 0.000000 0.000000 0.000000 -0.000000 0.000000 0.000000 0.000000 0.000000 -0.000000 0.000000 -0.000000 0.000000 -0.000000 -0.000000 -0.000000 0.000000 -0.000000 0.000000 -0.000000 0.000000 0.000000
-0.000000 0.000000 0.000000 -0.000000 -0.000000 -0.000000 0.000000 -0.000000 0.000000 -0.000000 -0.000000 0.000000 0.000000 -0.000000 0.000000 0.000000 0.000000 0.000000 0.000000 -0.000000 0.000000 -0.000000 0.000000 0.000000 -0.000000 0.000000 -0.000000 -0.000000 -0.000000 0.000000 -0.000000 0.000000 0.000000 0.000000 -0.000000 0.000000 -0.000000 -0.000000 0.000000 0.000000 -0.000000 0.000000 -0.000000 -0.000000 0.000000 -0.000000 -0.000000 0.000000 -0.000000 -0.000000 0.000000 -0.000000 -0.000000 -0.000000 0.000000 -0.000000 0.000000 0.000000 -0.000000 0.000000 -0.000000 -0.000000 -0.000000 0.000000 0.000000 -0.000000 -0.000000 0.000000 -0.000000 0.000000 -0.000000 0.000000 -0.000000 0.000000 0.000000 -0.000000 0.000000 -0.000000 0.000000 -0.000000 0.000000 0.000000 -0.000000 -0.000000 0.000000 0.000000 0.000000 0.000000 -0.000000 -0.000000 -0.000000 -0.000000 -0.000000 0.000000 -0.000000 -0.000000 -0.000000 -0.000000 0.000000 -0.000000 -0.000000 -0.000000 0.000000 -0.000000 0.000000 0.000000 -0.000000 -0.000000 0.000000 -0.000000 -0.000000 0.000000 -0.000000 0.000000 -0.000000 0.000000 -0.000000 -0.000000 0.000000 0.000000 0.000000 0.000000 0.000000 0.000000 -0.000000 0.000000 0.000000 -0.000000 0.000000 0.000000 -0.000000 -0.000000 0.000000 0.000000 -0.000000 -0.000000 -0.000000 0.000000 0.000000 -0.000000 -0.000000 0.000000 -0.000000 0.000000 -0.000000 0.000000 -0.000000 0.000000 0.000000 -0.000000 -0.000000 0.000000 -0.000000 0.000000 0.000000 -0.000000 0.000000 0.000000 -0.000000 0.000000 -0.000000 -0.000000 0.000000 0.000000 -0.000000 -0.000000 0.000000 0.000000 0.000000 -0.000000 -0.000000 -0.000000 0.000000 -0.000000 0.000000 -0.000000 0.000000 -0.000000 -0.000000 0.000000 -0.000000 0.000000 0.000000 -0.000000 -0.000000 0.000000 -0.000000 0.000000 -0.000000 -0.000000 -0.000000 0.000000 0.000000 -0.000000 -0.000000 0.000000 0.000000 -0.000000 0.000000 0.000000
-0.000000 -0.000000 0.000000 0.000000 0.000000 -0.000000 0.000000 -0.000000 0.000000 0.000000 0.000000 -0.000000 0.000000 -0.000000 -0.000000 -0.000000 -0.000000 0.000000 -0.000000 -0.000000 0.000000 0.000000 -0.000000 -0.000000 0.000000 -0.000000 -0.000000 -0.000000 -0.000000 0.000000 0.000000 0.000000 -0.000000 -0.000000 0.000000 0.000000 0.000000 0.000000 0.000000 0.000000 -0.000000 0.000000 -0.000000 -0.000000 -0.000000 0.000000 -0.000000 0.000000 -0.000000 0.000000 0.000000 0.000000 0.000000 0.000000 0.000000 -0.000000 0.000000 -0.000000 -0.000000 -0.000000 -0.000000 0.000000 0.000000 0.000000 0.000000 0.000000 -0.000000 -0.000000 0.000000 0.000000 0.000000 -0.000000 0.000000 0.000000 -0.000000 -0.000000 0.000000 0.000000 -0.000000 -0.000000 0.000000 -0.000000 -0.000000 -0.000000 -0.000000 -0.000000 -0.000000 -0.000000 -0.000000 0.000000 0.000000 0.000000 0.000000 0.000000 -0.000000 -0.000000 -0.000000 -0.000000 0.000000 0.000000 0.000000 0.000000 0.000000 -0.000000 -0.000000 -0.000000 0.000000 -0.000000 0.000000 -0.000000 -0.000000 -0.000000 -0.000000 0.000000 -0.000000 -0.000000 -0.000000 -0.000000 0.000000 -0.000000 0.000000 -0.000000 -0.000000 0.000000 -0.000000 0.000000 -0.000000 -0.000000 -0.000000 -0.000000 -0.000000 -0.000000 0.000000 0.000000 0.000000 0.000000 -0.000000 0.000000 0.000000 0.000000 -0.000000 0.000000 -0.000000 0.000000 -0.000000 0.000000 0.000000 -0.000000 -0.000000 -0.000000 0.000000 0.000000 0.000000 -0.000000 0.000000 0.000000 0.000000 -0.000000 0.000000 -0.000000 -0.000000 -0.000000 0.000000 -0.000000 -0.000000 -0.000000 -0.000000 0.000000 0.000000 0.000000 0.000000 -0.000000 0.000000 0.000000 -0.000000 -0.000000 -0.000000 0.000000 -0.000000 -0.000000 0.000000 0.000000 0.000000 -0.000000 0.000000 0.000000 0.000000 -0.000000 -0.000000 0.000000 -0.000000 -0.000000 -0.000000 0.000000 0.000000 -0.000000 -0.000000 0.000000 -0.000000 -0.000000
-0.000000 -0.000000 0.000000 -0.000000 -0.000000 0.000000 -0.000000 -0.000000 -0.000000 -0.000000 0.000000 0.000000 0.000000 0.000000 -0.000000 0.000000 -0.000000 0.000000 -0.000000 -0.000000 -0.000000 -0.000000 -0.000000 0.000000 -0.000000 -0.000000 -0.000000 -0.000000 0.000000 -0.000000 0.000000 0.000000 -0.000000 -0.000000 -0.000000 -0.000000 0.000000 -0.000000 0.000000 -0.000000 -0.000000 -0.000000 -0.000000 0.000000 -0.000000 -0.000000 -0.000000 -0.000000 0.000000 -0.000000 -0.000000 0.000000 -0.000000 -0.000000 -0.000000 0.000000 -0.000000 -0.000000 -0.000000 -0.000000 -0.000000 0.000000 0.000000 0.000000 0.000000 -0.000000 -0.000000 -0.000000 0.000000 0.000000 0.000000 -0.000000 -0.000000 0.000000 -0.000000 0.000000 -0.000000 -0.000000 0.000000 -0.000000 0.000000 0.000000 -0.000000 -0.000000 0.000000 -0.000000 0.000000 -0.000000 0.000000 0.000000 -0.000000 0.000000 0.000000 0.000000 0.000000 0.000000 -0.000000 -0.000000 -0.000000 -0.000000 0.000000 -0.000000 0.000000 0.000000 -0.000000 0.000000 -0.000000 -0.000000 -0.000000 -0.000000 -0.000000 0.000000 -0.000000 0.000000 0.000000 -0.000000 0.000000 0.000000 0.000000 0.000000 -0.000000 -0.000000 0.000000 -0.000000 0.000000 0.000000 0.000000 -0.000000 0.000000 0.000000 -0.000000 0.000000 0.000000 0.000000 0.000000 -0.000000 -0.000000 0.000000 0.000000 0.000000 -0.000000 0.000000 0.000000 -0.000000 -0.000000 -0.000000 -0.000000 0.000000 0.000000 -0.000000 -0.000000 0.000000 0.000000 0.000000 0.000000 0.000000 -0.000000 -0.000000 -0.000000 -0.000000 0.000000 0.000000 0.000000 0.000000 0.000000 0.000000 -0.000000 -0.000000 -0.000000 -0.000000 0.000000 0.000000 0.000000 -0.000000 0.000000 -0.000000 0.000000 0.000000 -0.000000 0.000000 -0.000000 0.000000 0.000000 0.000000 -0.000000 -0.000000 -0.000000 -0.000000 -0.000000 0.000000 0.000000 -0.000000 -0.000000 -0.000000 0.000000 -0.000000 -0.000000 -0.000000 0.000000 0.000000
-0.000000 -0.000000 0.000000 -0.000000 0.000000 -0.000000 -0.000000 -0.000000 0.000000 0.000000 -0.000000 0.000000 0.000000 -0.000000 -0.000000 -0.000000 -0.000000 -0.000000 -0.000000 0.000000 -0.000000 0.000000 0.000000 -0.000000 0.000000 0.000000 -0.000000 -0.000000 -0.000000 -0.000000 0.000000 -0.000000 -0.000000 -0.000000 -0.000000 0.000000 -0.000000 -0.000000 0.000000 0.000000 -0.000000 -0.000000 -0.000000 -0.000000 -0.000000 0.000000 -0.000000 0.000000 -0.000000 0.000000 0.000000 -0.000000 -0.000000 0.000000 0.000000 -0.000000 -0.000000 0.000000 0.000000 -0.000000 0.000000 0.000000 -0.000000 0.000000 -0.000000 -0.000000 0.000000 -0.000000 0.000000 0.000000 -0.000000 -0.000000 -0.000000 0.000000 -0.000000 0.000000 0.000000 0.000000 0.000000 0.000000 -0.000000 -0.000000 -0.000000 0.000000 0.000000 0.000000 0.000000 0.000000 0.000000 0.000000 -0.000000 0.000000 0.000000 -0.000000 -0.000000 0.000000 0.000000 0.000000 -0.000000 -0.000000 -0.000000 -0.000000 -0.000000 0.000000 0.000000 -0.000000 0.000000 -0.000000 -0.000000 0.000000 0.000000 0.000000 -0.000000 -0.000000 -0.000000 -0.000000 -0.000000 0.000000 0.000000 0.000000 -0.000000 -0.000000 0.000000 0.000000 0.000000 0.000000 0.000000 -0.000000 -0.000000 -0.000000 -0.000000 0.000000 0.000000 -0.000000 0.000000 0.000000 -0.000000 0.000000 -0.000000 0.000000 -0.000000 0.000000 0.000000 0.000000 0.000000 0.000000 -0.000000 -0.000000 -0.000000 0.000000 0.000000 0.000000 -0.000000 -0.000000 -0.000000 -0.000000 -0.000000 -0.000000 -0.000000 -0.000000 0.000000 -0.000000 0.000000 -0.000000 0.000000 0.000000 -0.000000 -0.000000 0.000000 0.000000 -0.000000 -0.000000 -0.000000 -0.000000 0.000000 0.000000 -0.000000 0.000000 -0.000000 0.000000 0.000000 0.000000 0.000000 -0.000000 -0.000000 -0.000000 0.000000 0.000000 -0.000000 0.000000 0.000000 0.000000 -0.000000 -0.000000 0.000000 -0.000000 -0.000000 0.000000 0.000000 0.000000
-0.000000 -0.000000 0.000000 0.000000 -0.000000 0.000000 -0.000000 0.000000 -0.000000 0.000000 0.000000 -0.000000 0.000000 0.000000 0.000000 0.000000 0.000000 -0.000000 0.000000 0.000000 0.000000 0.000000 0.000000 -0.000000 -0.000000 0.000000 0.000000 -0.000000 -0.000000 0.000000 -0.000000 0.000000 -0.000000 0.000000 0.000000 -0.000000 -0.000000 0.000000 -0.000000 -0.000000 0.000000 0.000000 0.000000 -0.000000 0.000000 0.000000 -0.000000 0.000000 0.000000 0.000000 0.000000 -0.000000 -0.000000 0.000000 -0.000000 -0.000000 0.000000 0.000000 -0.000000 -0.000000 -0.000000 -0.000000 0.000000 0.000000 0.000000 0.000000 -0.000000 -0.000000 -0.000000 -0.000000 -0.000000 -0.000000 -0.000000 0.000000 -0.000000 -0.000000 0.000000 -0.000000 0.000000 -0.000000 -0.000000 0.000000 -0.000000 0.000000 -0.000000 0.000000 0.000000 -0.000000 0.000000 -0.000000 -0.000000 0.000000 0.000000 0.000000 -0.000000 0.000000 0.000000 -0.000000 0.000000 -0.000000 0.000000 0.000000 0.000000 -0.000000 0.000000 0.000000 -0.000000 -0.000000 0.000000 0.000000 -0.000000 0.000000 -0.000000 0.000000 0.000000 0.000000 -0.000000 0.000000 0.000000 0.000000 -0.000000 0.000000 0.000000 0.000000 -0.000000 0.000000 -0.000000 0.000000 -0.000000 0.000000 0.000000 -0.000000 0.000000 0.000000 -0.000000 0.000000 0.000000 -0.000000 -0.000000 -0.000000 0.000000 0.000000 0.000000 -0.000000 -0.000000 -0.000000 -0.000000 -0.000000 0.000000 0.000000 -0.000000 -0.000000 -0.000000 -0.000000 -0.000000 0.000000 0.000000 -0.000000 -0.000000 -0.000000 0.000000 -0.000000 -0.000000 -0.000000 -0.000000 0.000000 -0.000000 0.000000 0.000000 -0.000000 0.000000 -0.000000 -0.000000 -0.000000 -0.000000 0.000000 0.000000 0.000000 -0.000000 -0.000000 0.000000 -0.000000 0.000000 0.000000 0.000000 -0.000000 -0.000000 -0.000000 0.000000 0.000000 0.000000 -0.000000 -0.000000 -0.000000 -0.000000 -0.000000 0.000000 -0.000000 0.000000 0.000000
-0.000000 -0.011679 -0.000000 0.000000 -0.000000 0.000000 -0.000000 0.000000 0.017071 0.000000 0.003134 0.015275 0.000000 -0.000000 -0.000000 0.000000 0.000000 0.000000 0.000000 0.000000 0.000000 -0.000000 -0.022246 -0.000000 -0.000000 0.000000 0.000000 0.013816 0.000000 -0.000001 0.000000 0.008903 0.000000 0.000000 0.000000 -0.000000 -0.000000 0.000000 -0.000000 0.000000 0.000000 -0.000000 0.000000 -0.024928 0.000000 -0.000000 -0.000000 0.014030 -0.000000 -0.018644 0.000000 -0.000000 -0.000000 -0.000000 -0.000000 0.018568 0.020711 -0.008232 -0.000000 0.000000 -0.000000 -0.000000 0.000000 0.000000 0.000000 -0.000000 -0.000000 -0.000000 0.000000 0.020685 0.000000 0.000000 0.000000 0.000000 -0.000000 -0.000000 -0.000000 0.010532 -0.000000 -0.000000 -0.000000 -0.000000 0.005740 0.000000 -0.000000 0.000000 0.000000 0.008920 0.017356 -0.000000 0.000000 0.000000 -0.021350 -0.000000 0.000000 -0.000000 0.000000 0.000000 0.000000 -0.000000 -0.000000 -0.003558 -0.018339 0.000000 0.000000 -0.023029 -0.000000 0.019666 0.000000 0.000000 -0.000000 -0.000000 -0.000000 0.000747 0.000000 -0.000006 0.000000 0.003182 -0.016031 -0.000000 0.000000 0.000000 -0.000000 0.000000 0.000000 0.000000 0.000000 0.000000 -0.000000 -0.000000 0.000000 -0.000000 0.000000 0.017311 0.000000 -0.000000 -0.000000 -0.000000 -0.000000 0.000000 0.000000 -0.000000 -0.000000 0.000000 0.000000 0.000000 -0.000000 0.000000 -0.003017 -0.000000 0.000000 0.000000 -0.019811 0.009971 -0.020605 -0.021672 0.000000 -0.006778 -0.000000 0.000000 -0.000000 0.000000 -0.000000 -0.000000 0.000000 0.000000 0.000000 0.000000 0.000000 0.000000 -0.000000 -0.021156 -0.000000 0.000000 0.007674 -0.000000 0.000000 -0.000000 0.000000 0.000000 0.000000 -0.000000 -0.000000 -0.000000 -0.023240 0.008430 -0.000000 -0.000000 -0.000000 0.000000 0.000000 0.000000 0.000000 -0.000000 -0.000000 0.000000 -0.000000 -0.022026 -0.000000 0.000000
-0.000000 -0.013149 -0.000000 -0.000000 0.000000 0.000000 0.000000 0.000000 0.021988 0.000000 0.003642 0.017114 -0.000000 -0.000000 -0.000000 -0.000000 0.000000 0.000000 0.000000 0.000000 -0.000000 0.000000 -0.025457 0.000000 -0.000000 -0.000000 -0.000000 0.018456 -0.000000 -0.000310 -0.000000 0.011166 -0.000000 -0.000000 0.000000 0.000000 0.000000 0.000000 -0.000000 0.000000 -0.000000 0.000000 0.000000 -0.026956 -0.000000 0.000000 0.000000 0.015347 -0.000000 -0.020201 0.000000 -0.000000 -0.000000 -0.000000 -0.000000 0.022927 0.022201 -0.009326 -0.000000 0.000000 -0.000000 0.000000 0.000000 0.000000 -0.000000 -0.000000 -0.000000 0.000000 0.000000 0.024364 0.000000 0.000000 -0.000000 0.000000 -0.000000 0.000000 -0.000000 0.013694 0.000000 0.000000 0.000000 -0.000000 0.007617 0.000000 -0.000000 0.000000 0.000000 0.009992 0.020603 0.000000 -0.000000 -0.000000 -0.024871 -0.000000 -0.000000 -0.000000 0.000000 -0.000000 -0.000000 0.000000 -0.000000 -0.004070 -0.021439 0.000000 -0.000000 -0.025245 -0.000000 0.023354 -0.000000 0.000000 0.000000 -0.000000 0.000000 0.001279 0.000000 -0.000097 0.000000 0.004720 -0.021236 -0.000000 0.000000 0.000000 0.000000 0.000000 -0.000000 0.000000 -0.000000 -0.000000 -0.000000 -0.000000 -0.000000 -0.000000 0.000000 0.019209 0.000000 0.000000 0.000000 0.000000 0.000000 -0.000000 0.000000 0.000000 -0.000000 -0.000000 -0.000000 -0.000000 0.000000 -0.000000 -0.003924 -0.000000 0.000000 0.000000 -0.023874 0.012168 -0.024393 -0.025114 -0.000000 -0.007726 -0.000000 0.000000 -0.000000 -0.000000 -0.000000 0.000000 0.000000 0.000000 0.000000 -0.000000 0.000000 -0.000000 -0.000000 -0.022954 -0.000000 0.000000 0.011728 0.000000 -0.000000 -0.000000 -0.000000 -0.000000 0.000000 0.000000 0.000000 -0.000000 -0.024969 0.010390 0.000000 0.000000 -0.000000 0.000000 0.000000 -0.000000 0.000000 0.000000 -0.000000 -0.000000 -0.000000 -0.025178 -0.000000 0.000000
0.000000 -0.000000 0.000000 -0.000000 -0.000000 -0.000000 0.000000 -0.000000 0.000000 0.000000 -0.000000 0.000000 0.000000 0.000000 0.000000 -0.000000 0.000000 0.000000 0.000000 -0.000000 -0.000000 0.000000 -0.000000 0.000000 0.000000 0.000000 -0.000000 0.000000 -0.000000 -0.000000 -0.000000 -0.000000 -0.000000 -0.000000 0.000000 0.000000 0.000000 0.000000 0.000000 0.000000 -0.000000 0.000000 -0.000000 -0.000000 0.000000 0.000000 -0.000000 -0.000000 -0.000000 0.000000 -0.000000 -0.000000 0.000000 0.000000 0.000000 -0.000000 -0.000000 0.000000 -0.000000 0.000000 -0.000000 -0.000000 0.000000 -0.000000 0.000000 0.000000 -0.000000 -0.000000 -0.000000 -0.000000 0.000000 0.000000 -0.000000 -0.000000 -0.000000 -0.000000 -0.000000 -0.000000 -0.000000 0.000000 -0.000000 0.000000 -0.000000 -0.000000 -0.000000 0.000000 0.000000 -0.000000 0.000000 -0.000000 -0.000000 -0.000000 0.000000 0.000000 0.000000 -0.000000 0.000000 0.000000 -0.000000 -0.000000 0.000000 0.000000 0.000000 0.000000 0.000000 0.000000 -0.000000 -0.000000 -0.000000 -0.000000 0.000000 0.000000 0.000000 0.000000 0.000000 0.000000 0.000000 -0.000000 0.000000 -0.000000 -0.000000 -0.000000 0.000000 0.000000 0.000000 0.000000 -0.000000 0.000000 -0.000000 -0.000000 -0.000000 -0.000000 0.000000 0.000000 -0.000000 0.000000 -0.000000 -0.000000 0.000000 0.000000 -0.000000 -0.000000 -0.000000 -0.000000 0.000000 -0.000000 0.000000 -0.000000 -0.000000 -0.000000 0.000000 -0.000000 0.000000 0.000000 -0.000000 -0.000000 0.000000 -0.000000 -0.000000 0.000000 -0.000000 -0.000000 0.000000 0.000000 0.000000 -0.000000 0.000000 -0.000000 0.000000 -0.000000 -0.000000 0.000000 -0.000000 0.000000 -0.000000 0.000000 0.000000 -0.000000 -0.000000 0.000000 -0.000000 -0.000000 -0.000000 -0.000000 -0.000000 0.000000 0.000000 -0.000000 0.000000 0.000000 0.000000 0.000000 0.000000 0.000000 -0.000000 -0.000000 -0.000000 -0.000000 0.000000 0.000000
-0.000000 -0.000000 -0.000000 -0.000000 0.000000 0.000000 0.000000 -0.000000 0.000000 0.000000 -0.000000 -0.000000 0.000000 -0.000000 0.000000 0.000000 0.000000 0.000000 0.000000 -0.000000 -0.000000 -0.000000 -0.000000 0.000000 0.000000 0.000000 -0.000000 0.000000 -0.000000 -0.000000 0.000000 -0.000000 0.000000 0.000000 0.000000 0.000000 -0.000000 0.000000 -0.000000 0.000000 -0.000000 -0.000000 -0.000000 -0.000000 -0.000000 -0.000000 0.000000 -0.000000 -0.000000 0.000000 -0.000000 0.000000 -0.000000 0.000000 0.000000 -0.000000 0.000000 0.000000 -0.000000 0.000000 -0.000000 0.000000 0.000000 -0.000000 0.000000 -0.000000 -0.000000 -0.000000 -0.000000 -0.000000 0.000000 0.000000 0.000000 0.000000 -0.000000 0.000000 -0.000000 -0.000000 0.000000 -0.000000 -0.000000 0.000000 -0.000000 -0.000000 0.000000 0.000000 0.000000 -0.000000 0.000000 -0.000000 0.000000 0.000000 0.000000 0.000000 -0.000000 -0.000000 0.000000 -0.000000 0.000000 0.000000 0.000000 0.000000 0.000000 0.000000 -0.000000 0.000000 0.000000 0.000000 0.000000 0.000000 0.000000 -0.000000 -0.000000 0.000000 0.000000 0.000000 0.000000 -0.000000 0.000000 0.000000 0.000000 -0.000000 -0.000000 0.000000 -0.000000 -0.000000 0.000000 0.000000 -0.000000 -0.000000 0.000000 0.000000 -0.000000 0.000000 0.000000 -0.000000 0.000000 0.000000 -0.000000 0.000000 -0.000000 0.000000 0.000000 0.000000 0.000000 -0.000000 0.000000 -0.000000 -0.000000 -0.000000 0.000000 0.000000 0.000000 0.000000 -0.000000 -0.000000 -0.000000 -0.000000 -0.000000 0.000000 -0.000000 -0.000000 0.000000 0.000000 0.000000 0.000000 -0.000000 0.000000 0.000000 -0.000000 0.000000 0.000000 -0.000000 0.000000 0.000000 -0.000000 0.000000 -0.000000 0.000000 -0.000000 -0.000000 0.000000 -0.000000 -0.000000 -0.000000 0.000000 -0.000000 0.000000 0.000000 -0.000000 0.000000 0.000000 0.000000 -0.000000 -0.000000 -0.000000 -0.000000 -0.000000 0.000000 0.000000
-0.000000 -0.000000 -0.000000 -0.000000 0.000000 -0.000000 0.000000 0.000000 0.000000 -0.000000 0.000000 0.000000 -0.000000 0.000000 0.000000 0.000000 0.000000 0.000000 -0.000000 0.000000 -0.000000 -0.000000 0.000000 0.000000 -0.000000 -0.000000 -0.000000 -0.000000 0.000000 0.000000 0.000000 -0.000000 -0.000000 -0.000000 0.000000 -0.000000 -0.000000 0.000000 -0.000000 -0.000000 0.000000 0.000000 0.000000 0.000000 0.000000 0.000000 -0.000000 -0.000000 0.000000 -0.000000 -0.000000 -0.000000 -0.000000 0.000000 0.000000 0.000000 0.000000 0.000000 -0.000000 -0.000000 -0.000000 -0.000000 0.000000 0.000000 -0.000000 -0.000000 -0.000000 0.000000 0.000000 0.000000 0.000000 -0.000000 -0.000000 -0.000000 0.000000 0.000000 0.000000 0.000000 0.000000 -0.000000 0.000000 -0.000000 -0.000000 -0.000000 0.000000 -0.000000 0.000000 -0.000000 -0.000000 -0.000000 -0.000000 -0.000000 0.000000 -0.000000 -0.000000 -0.000000 -0.000000 0.000000 0.000000 0.000000 -0.000000 0.000000 0.000000 0.000000 -0.000000 0.000000 -0.000000 0.000000 -0.000000 -0.000000 0.000000 -0.000000 0.000000 0.000000 0.000000 0.000000 -0.000000 -0.000000 -0.000000 -0.000000 0.000000 0.000000 0.000000 0.000000 0.000000 -0.000000 -0.000000 -0.000000 -0.000000 0.000000 -0.000000 -0.000000 0.000000 -0.000000 0.000000 -0.000000 -0.000000 -0.000000 -0.000000 -0.000000 -0.000000 -0.000000 0.000000 -0.000000 -0.000000 -0.000000 0.000000 -0.000000 0.000000 -0.000000 -0.000000 0.000000 0.000000 0.000000 -0.000000 -0.000000 0.000000 -0.000000 0.000000 0.000000 -0.000000 0.000000 -0.000000 0.000000 0.000000 0.000000 -0.000000 0.000000 0.000000 -0.000000 0.000000 -0.000000 -0.000000 -0.000000 0.000000 0.000000 0.000000 -0.000000 0.000000 0.000000 0.000000 0.000000 0.000000 0.000000 -0.000000 -0.000000 -0.000000 -0.000000 -0.000000 0.000000 0.000000 -0.000000 0.000000 -0.000000 0.000000 -0.000000 -0.000000 -0.000000 -0.000000 -0.000000
0.000000 -0.000000 -0.000000 -0.000000 0.000000 0.000000 -0.000000 0.000000 0.000000 -0.000000 0.000000 -0.000000 -0.000000 0.000000 -0.000000 -0.000000 -0.000000 0.000000 0.000000 0.000000 0.000000 0.000000 -0.000000 0.000000 -0.000000 -0.000000 0.000000 -0.000000 0.000000 -0.000000 0.000000 -0.000000 0.000000 0.000000 0.000000 0.000000 -0.000000 0.000000 0.000000 -0.000000 0.000000 -0.000000 0.000000 -0.000000 -0.000000 0.000000 0.000000 0.000000 -0.000000 -0.000000 -0.000000 0.000000 0.000000 0.000000 0.000000 -0.000000 0.000000 -0.000000 0.000000 -0.000000 -0.000000 0.000000 0.000000 0.000000 0.000000 0.000000 -0.000000 0.000000 0.000000 -0.000000 -0.000000 -0.000000 -0.000000 -0.000000 -0.000000 -0.000000 0.000000 0.000000 -0.000000 0.000000 0.000000 0.000000 -0.000000 0.000000 -0.000000 0.000000 0.000000 -0.000000 0.000000 -0.000000 -0.000000 -0.000000 -0.000000 -0.000000 0.000000 0.000000 0.000000 -0.000000 0.000000 0.000000 0.000000 -0.000000 0.000000 0.000000 0.000000 0.000000 0.000000 -0.000000 -0.000000 0.000000 0.000000 -0.000000 0.000000 -0.000000 0.000000 -0.000000 0.000000 -0.000000 -0.000000 0.000000 -0.000000 -0.000000 -0.000000 -0.000000 0.000000 0.000000 0.000000 0.000000 0.000000 0.000000 0.000000 -0.000000 -0.000000 -0.000000 -0.000000 -0.000000 -0.000000 -0.000000 0.000000 0.000000 0.000000 -0.000000 0.000000 -0.000000 0.000000 0.000000 -0.000000 0.000000 -0.000000 -0.000000 -0.000000 -0.000000 -0.000000 -0.000000 0.000000 -0.000000 -0.000000 0.000000 -0.000000 0.000000 0.000000 0.000000 0.000000 -0.000000 -0.000000 -0.000000 0.000000 0.000000 0.000000 0.000000 0.000000 0.000000 -0.000000 -0.000000 -0.000000 -0.000000 0.000000 -0.000000 -0.000000 -0.000000 0.000000 0.000000 -0.000000 -0.000000 -0.000000 -0.000000 0.000000 -0.000000 0.000000 -0.000000 -0.000000 0.000000 0.000000 -0.000000 0.000000 -0.000000 -0.000000 -0.000000 -0.000000 -0.000000
-0.000000 0.000000 0.000000 -0.000000 0.000000 -0.000000 -0.000000 -0.000000 0.000000 0.000000 0.000000 0.000000 0.000000 -0.000000 -0.000000 -0.000000 0.000000 0.000000 0.000000 0.000000 -0.000000 -0.000000 -0.000000 -0.000000 0.000000 -0.000000 -0.000000 0.000000 0.000000 0.000000 0.000000 -0.000000 0.000000 0.000000 -0.000000 -0.000000 0.000000 -0.000000 0.000000 0.000000 -0.000000 0.000000 -0.000000 0.000000 -0.000000 0.000000 0.000000 -0.000000 0.000000 0.000000 0.000000 0.000000 -0.000000 -0.000000 -0.000000 0.000000 -0.000000 -0.000000 -0.000000 -0.000000 0.000000 0.000000 -0.000000 0.000000 0.000000 -0.000000 -0.000000 -0.000000 -0.000000 -0.000000 -0.000000 -0.000000 -0.000000 0.000000 -0.000000 -0.000000 0.000000 0.000000 0.000000 -0.000000 -0.000000 0.000000 0.000000 -0.000000 0.000000 0.000000 0.000000 0.000000 0.000000 -0.000000 0.000000 0.000000 0.000000 0.000000 -0.000000 0.000000 -0.000000 0.000000 -0.000000 0.000000 0.000000 -0.000000 -0.000000 0.000000 0.000000 0.000000 -0.000000 -0.000000 0.000000 -0.000000 0.000000 -0.000000 -0.000000 0.000000 -0.000000 0.000000 0.000000 -0.000000 -0.000000 -0.000000 0.000000 0.000000 0.000000 -0.000000 -0.000000 0.000000 -0.000000 -0.000000 -0.000000 -0.000000 -0.000000 0.000000 -0.000000 -0.000000 0.000000 0.000000 0.000000 -0.000000 0.000000 0.000000 -0.000000 0.000000 0.000000 0.000000 0.000000 0.000000 -0.000000 0.000000 0.000000 -0.000000 0.000000 0.000000 0.000000 0.000000 0.000000 -0.000000 0.000000 0.000000 0.000000 0.000000 -0.000000 0.000000 -0.000000 0.000000 0.000000 0.000000 0.000000 -0.000000 0.000000 0.000000 -0.000000 0.000000 0.000000 -0.000000 0.000000 0.000000 0.000000 0.000000 -0.000000 0.000000 -0.000000 -0.000000 -0.000000 0.000000 0.000000 0.000000 0.000000 0.000000 0.000000 -0.000000 0.000000 0.000000 0.000000 0.000000 0.000000 -0.000000 -0.000000 -0.000000 -0.000000 0.000000
0.000000 -0.000000 0.000000 -0.000000 -0.000000 -0.000000 -0.000000 0.000000 -0.000000 -0.000000 -0.000000 0.000000 -0.000000 -0.000000 0.000000 0.000000 -0.000000 0.000000 0.000000 -0.000000 0.000000 -0.000000 -0.000000 -0.000000 -0.000000 0.000000 0.000000 0.000000 0.000000 -0.000000 0.000000 0.000000 -0.000000 -0.000000 0.000000 -0.000000 0.000000 0.000000 -0.000000 -0.000000 -0.000000 -0.000000 0.000000 -0.000000 -0.000000 0.000000 -0.000000 0.000000 0.000000 0.000000 0.000000 0.000000 -0.000000 -0.000000 0.000000 0.000000 -0.000000 0.000000 0.000000 -0.000000 0.000000 0.000000 -0.000000 0.000000 -0.000000 -0.000000 0.000000 0.000000 0.000000 0.000000 0.000000 0.000000 -0.000000 -0.000000 0.000000 0.000000 -0.000000 0.000000 -0.000000 0.000000 -0.000000 -0.000000 -0.000000 0.000000 0.000000 0.000000 -0.000000 -0.000000 -0.000000 -0.000000 0.000000 -0.000000 0.000000 0.000000 0.000000 -0.000000 -0.000000 -0.000000 0.000000 -0.000000 -0.000000 0.000000 0.000000 -0.000000 0.000000 -0.000000 -0.000000 0.000000 -0.000000 0.000000 -0.000000 0.000000 -0.000000 0.000000 0.000000 0.000000 0.000000 0.000000 0.000000 -0.000000 0.000000 -0.000000 0.000000 -0.000000 -0.000000 0.000000 -0.000000 -0.000000 -0.000000 0.000000 0.000000 -0.000000 -0.000000 -0.000000 -0.000000 -0.000000 -0.000000 -0.000000 0.000000 -0.000000 0.000000 -0.000000 0.000000 -0.000000 -0.000000 -0.000000 -0.000000 0.000000 -0.000000 -0.000000 0.000000 -0.000000 -0.000000 -0.000000 0.000000 0.000000 0.000000 -0.000000 0.000000 0.000000 0.000000 -0.000000 -0.000000 -0.000000 0.000000 0.000000 -0.000000 0.000000 -0.000000 -0.000000 -0.000000 -0.000000 -0.000000 -0.000000 0.000000 -0.000000 0.000000 -0.000000 0.000000 -0.000000 0.000000 -0.000000 0.000000 0.000000 0.000000 0.000000 0.000000 -0.000000 0.000000 0.000000 -0.000000 0.000000 0.000000 0.000000 -0.000000 0.000000 -0.000000 0.000000 -0.000000 -0.000000
-0.000000 -0.000000 -0.000000 0.000000 -0.000000 0.000000 0.000000 0.000000 -0.000000 -0.000000 -0.000000 -0.000000 -0.000000 0.000000 0.000000 -0.000000 -0.000000 0.000000 0.000000 -0.000000 0.000000 -0.000000 -0.000000 -0.000000 0.000000 0.000000 0.000000 -0.000000 0.000000 -0.000000 -0.000000 0.000000 0.000000 0.000000 0.000000 0.000000 0.000000 0.000000 0.000000 0.000000 0.000000 0.000000 -0.000000 0.000000 0.000000 0.000000 -0.000000 0.000000 0.000000 -0.000000 0.000000 0.000000 -0.000000 0.000000 0.000000 0.000000 -0.000000 0.000000 -0.000000 -0.000000 -0.000000 -0.000000 -0.000000 -0.000000 -0.000000 0.000000 0.000000 0.000000 -0.000000 0.000000 0.000000 0.000000 -0.000000 -0.000000 0.000000 -0.000000 -0.000000 0.000000 0.000000 0.000000 0.000000 0.000000 -0.000000 -0.000000 0.000000 -0.000000 0.000000 -0.000000 0.000000 -0.000000 -0.000000 -0.000000 0.000000 0.000000 -0.000000 -0.000000 -0.000000 0.000000 0.000000 0.000000 -0.000000 -0.000000 0.000000 0.000000 -0.000000 -0.000000 -0.000000 -0.000000 0.000000 -0.000000 -0.000000 -0.000000 -0.000000 0.000000 -0.000000 0.000000 -0.000000 0.000000 0.000000 -0.000000 -0.000000 -0.000000 0.000000 -0.000000 0.000000 -0.000000 0.000000 0.000000 -0.000000 -0.000000 0.000000 0.000000 -0.000000 0.000000 -0.000000 -0.000000 -0.000000 0.000000 0.000000 -0.000000 0.000000 -0.000000 -0.000000 -0.000000 0.000000 0.000000 -0.000000 -0.000000 -0.000000 -0.000000 -0.000000 0.000000 -0.000000 0.000000 0.000000 -0.000000 0.000000 -0.000000 0.000000 0.000000 0.000000 0.000000 -0.000000 -0.000000 -0.000000 0.000000 0.000000 0.000000 0.000000 0.000000 0.000000 -0.000000 0.000000 0.000000 -0.000000 -0.000000 -0.000000 -0.000000 -0.000000 -0.000000 -0.000000 0.000000 -0.000000 0.000000 0.000000 0.000000 -0.000000 0.000000 0.000000 -0.000000 0.000000 0.000000 -0.000000 -0.000000 -0.000000 -0.000000 0.000000 -0.000000 0.000000 0.000000
-0.000000 0.000000 -0.000000 -0.000000 -0.000000 -0.000000 0.000000 0.000000 0.000000 -0.000000 -0.000000 -0.000000 -0.000000 -0.000000 -0.000000 -0.000000 0.000000 0.000000 -0.000000 0.000000 -0.000000 0.000000 -0.000000 0.000000 0.000000 0.000000 0.000000 -0.000000 -0.000000 -0.000000 -0.000000 0.000000 -0.000000 -0.000000 -0.000000 -0.000000 0.000000 0.000000 0.000000 0.000000 0.000000 0.000000 0.000000 -0.000000 -0.000000 0.000000 0.000000 -0.000000 0.000000 -0.000000 0.000000 0.000000 -0.000000 0.000000 -0.000000 0.000000 0.000000 0.000000 0.000000 -0.000000 -0.000000 -0.000000 0.000000 0.000000 -0.000000 -0.000000 0.000000 0.000000 -0.000000 -0.000000 0.000000 0.000000 -0.000000 0.000000 0.000000 -0.000000 0.000000 -0.000000 -0.000000 -0.000000 0.000000 -0.000000 0.000000 -0.000000 -0.000000 0.000000 -0.000000 -0.000000 -0.000000 0.000000 0.000000 -0.000000 -0.000000 0.000000 0.000000 -0.000000 -0.000000 -0.000000 0.000000 0.000000 0.000000 -0.000000 -0.000000 0.000000 0.000000 0.000000 0.000000 0.000000 0.000000 0.000000 -0.000000 0.000000 -0.000000 -0.000000 -0.000000 0.000000 -0.000000 -0.000000 -0.000000 -0.000000 -0.000000 -0.000000 0.000000 0.000000 0.000000 -0.000000 -0.000000 -0.000000 0.000000 0.000000 -0.000000 0.000000 0.000000 -0.000000 -0.000000 -0.000000 -0.000000 -0.000000 -0.000000 0.000000 0.000000 0.000000 -0.000000 -0.000000 0.000000 0.000000 0.000000 0.000000 -0.000000 -0.000000 0.000000 0.000000 -0.000000 -0.000000 0.000000 0.000000 0.000000 0.000000 -0.000000 -0.000000 0.000000 0.000000 0.000000 0.000000 -0.000000 0.000000 0.000000 0.000000 -0.000000 0.000000 0.000000 0.000000 -0.000000 0.000000 0.000000 0.000000 -0.000000 -0.000000 0.000000 -0.000000 -0.000000 0.000000 -0.000000 0.000000 0.000000 -0.000000 -0.000000 -0.000000 0.000000 -0.000000 0.000000 0.000000 0.000000 0.000000 -0.000000 -0.000000 -0.000000 0.000000 -0.000000 0.000000
0.000000 0.000000 0.000000 -0.000000 0.000000 -0.000000 0.000000 0.000000 0.000000 0.000000 -0.000000 0.000000 -0.000000 -0.000000 0.000000 -0.000000 -0.000000 -0.000000 0.000000 0.000000 0.000000 0.000000 0.000000 -0.000000 -0.000000 0.000000 -0.000000 -0.000000 -0.000000 -0.000000 0.000000 0.000000 -0.000000 0.000000 0.000000 0.000000 -0.000000 0.000000 -0.000000 -0.000000 0.000000 0.000000 -0.000000 0.000000 0.000000 0.000000 -0.000000 0.000000 -0.000000 -0.000000 0.000000 0.000000 -0.000000 -0.000000 0.000000 -0.000000 -0.000000 0.000000 0.000000 -0.000000 0.000000 -0.000000 0.000000 -0.000000 0.000000 0.000000 -0.000000 -0.000000 0.000000 0.000000 0.000000 0.000000 -0.000000 -0.000000 -0.000000 -0.000000 0.000000 -0.000000 0.000000 0.000000 0.000000 0.000000 -0.000000 -0.000000 0.000000 0.000000 -0.000000 0.000000 -0.000000 -0.000000 0.000000 -0.000000 -0.000000 -0.000000 -0.000000 0.000000 -0.000000 -0.000000 -0.000000 0.000000 -0.000000 -0.000000 0.000000 0.000000 -0.000000 -0.000000 -0.000000 0.000000 0.000000 0.000000 0.000000 0.000000 0.000000 -0.000000 -0.000000 -0.000000 -0.000000 0.000000 -0.000000 0.000000 -0.000000 0.000000 -0.000000 -0.000000 0.000000 0.000000 0.000000 -0.000000 0.000000 0.000000 0.000000 0.000000 -0.000000 -0.000000 0.000000 -0.000000 -0.000000 -0.000000 0.000000 -0.000000 0.000000 0.000000 -0.000000 -0.000000 0.000000 0.000000 0.000000 0.000000 -0.000000 0.000000 -0.000000 0.000000 -0.000000 -0.000000 0.000000 0.000000 -0.000000 -0.000000 -0.000000 0.000000 0.000000 0.000000 0.000000 -0.000000 0.000000 0.000000 0.000000 -0.000000 0.000000 0.000000 -0.000000 -0.000000 -0.000000 0.000000 0.000000 0.000000 -0.000000 0.000000 0.000000 0.000000 -0.000000 0.000000 -0.000000 -0.000000 0.000000 -0.000000 0.000000 -0.000000 0.000000 0.000000 -0.000000 -0.000000 -0.000000 -0.000000 0.000000 -0.000000 -0.000000 0.000000 -0.000000 0.000000
0.000000 0.000000 -0.000000 0.000000 -0.000000 0.000000 0.000000 0.000000 -0.000000 -0.000000 -0.000000 0.000000 0.000000 -0.000000 0.000000 -0.000000 -0.000000 0.000000 0.000000 -0.000000 -0.000000 0.000000 -0.000000 -0.000000 0.000000 -0.000000 0.000000 0.000000 -0.000000 -0.000000 -0.000000 0.000000 0.000000 0.000000 -0.000000 -0.000000 0.000000 0.000000 0.000000 0.000000 -0.000000 0.000000 0.000000 -0.000000 -0.000000 0.000000 -0.000000 0.000000 -0.000000 0.000000 -0.000000 -0.000000 0.000000 -0.000000 -0.000000 -0.000000 0.000000 0.000000 0.000000 -0.000000 -0.000000 -0.000000 -0.000000 -0.000000 -0.000000 0.000000 -0.000000 0.000000 -0.000000 -0.000000 -0.000000 -0.000000 0.000000 -0.000000 0.000000 -0.000000 0.000000 -0.000000 -0.000000 0.000000 -0.000000 0.000000 -0.000000 -0.000000 -0.000000 0.000000 0.000000 0.000000 0.000000 0.000000 0.000000 -0.000000 -0.000000 0.000000 0.000000 0.000000 0.000000 0.000000 -0.000000 -0.000000 0.000000 0.000000 -0.000000 0.000000 -0.000000 0.000000 0.000000 0.000000 -0.000000 -0.000000 -0.000000 -0.000000 -0.000000 0.000000 0.000000 -0.000000 -0.000000 -0.000000 0.000000 -0.000000 0.000000 0.000000 0.000000 -0.000000 0.000000 -0.000000 -0.000000 0.000000 0.000000 0.000000 0.000000 -0.000000 -0.000000 0.000000 -0.000000 -0.000000 -0.000000 0.000000 -0.000000 -0.000000 -0.000000 0.000000 -0.000000 -0.000000 0.000000 -0.000000 -0.000000 0.000000 -0.000000 -0.000000 0.000000 0.000000 -0.000000 -0.000000 -0.000000 0.000000 0.000000 0.000000 -0.000000 0.000000 -0.000000 0.000000 0.000000 0.000000 -0.000000 0.000000 -0.000000 0.000000 0.000000 0.000000 -0.000000 -0.000000 0.000000 0.000000 -0.000000 0.000000 -0.000000 -0.000000 0.000000 0.000000 -0.000000 0.000000 0.000000 0.000000 0.000000 0.000000 0.000000 0.000000 -0.000000 -0.000000 -0.000000 0.000000 -0.000000 -0.000000 0.000000 -0.000000 -0.000000 -0.000000 -0.000000 -0.000000
0.000000 0.000000 0.000000 0.000000 -0.000000 0.000000 -0.000000 0.000000 -0.000000 -0.000000 -0.000000 -0.000000 0.000000 0.000000 -0.000000 0.000000 0.000000 -0.000000 0.000000 0.000000 -0.000000 0.000000 -0.000000 0.000000 0.000000 -0.000000 0.000000 0.000000 0.000000 0.000000 -0.000000 0.000000 -0.000000 0.000000 -0.000000 0.000000 0.000000 0.000000 -0.000000 -0.000000 -0.000000 -0.000000 -0.000000 0.000000 -0.000000 -0.000000 -0.000000 0.000000 0.000000 0.000000 -0.000000 -0.000000 -0.000000 0.000000 0.000000 -0.000000 0.000000 -0.000000 -0.000000 -0.000000 -0.000000 -0.000000 -0.000000 -0.000000 0.000000 -0.000000 -0.000000 0.000000 -0.000000 0.000000 -0.000000 -0.000000 -0.000000 -0.000000 0.000000 -0.000000 -0.000000 -0.000000 0.000000 0.000000 -0.000000 0.000000 0.000000 0.000000 0.000000 0.000000 0.000000 -0.000000 -0.000000 0.000000 -0.000000 0.000000 0.000000 0.000000 -0.000000 0.000000 -0.000000 -0.000000 -0.000000 -0.000000 -0.000000 0.000000 -0.000000 -0.000000 0.000000 -0.000000 0.000000 -0.000000 0.000000 -0.000000 -0.000000 0.000000 0.000000 -0.000000 -0.000000 0.000000 -0.000000 -0.000000 -0.000000 0.000000 -0.000000 -0.000000 0.000000 0.000000 0.000000 -0.000000 -0.000000 0.000000 0.000000 0.000000 0.000000 -0.000000 -0.000000 0.000000 0.000000 -0.000000 -0.000000 0.000000 0.000000 -0.000000 0.000000 0.000000 -0.000000 0.000000 -0.000000 -0.000000 0.000000 -0.000000 -0.000000 0.000000 0.000000 0.000000 -0.000000 -0.000000 -0.000000 0.000000 0.000000 -0.000000 0.000000 -0.000000 -0.000000 0.000000 0.000000 -0.000000 0.000000 -0.000000 -0.000000 -0.000000 0.000000 -0.000000 0.000000 -0.000000 -0.000000 -0.000000 0.000000 0.000000 0.000000 0.000000 -0.000000 -0.000000 -0.000000 0.000000 0.000000 0.000000 -0.000000 0.000000 -0.000000 0.000000 0.000000 -0.000000 0.000000 0.000000 -0.000000 -0.000000 0.000000 0.000000 -0.000000 0.000000 0.000000 -0.000000
0.000000 0.000000 0.000000 -0.000000 -0.000000 0.000000 0.000000 0.000000 0.000000 0.000000 0.000000 0.000000 0.000000 0.000000 -0.000000 -0.000000 -0.000000 -0.000000 0.000000 0.000000 0.000000 0.000000 0.000000 0.000000 -0.000000 -0.000000 0.000000 0.000000 -0.000000 0.000000 -0.000000 -0.000000 -0.000000 0.000000 -0.000000 -0.000000 -0.000000 -0.000000 0.000000 0.000000 -0.000000 0.000000 0.000000 0.000000 0.000000 -0.000000 0.000000 0.000000 0.000000 0.000000 0.000000 -0.000000 -0.000000 -0.000000 0.000000 0.000000 -0.000000 0.000000 0.000000 -0.000000 0.000000 0.000000 0.000000 0.000000 -0.000000 -0.000000 -0.000000 -0.000000 -0.000000 0.000000 0.000000 -0.000000 0.000000 0.000000 -0.000000 0.000000 -0.000000 -0.000000 -0.000000 -0.000000 0.000000 -0.000000 0.000000 -0.000000 0.000000 0.000000 0.000000 -0.000000 -0.000000 -0.000000 -0.000000 -0.000000 -0.000000 -0.000000 -0.000000 -0.000000 -0.000000 -0.000000 0.000000 -0.000000 0.000000 -0.000000 -0.000000 -0.000000 -0.000000 -0.000000 0.000000 0.000000 -0.000000 0.000000 -0.000000 0.000000 0.000000 -0.000000 -0.000000 0.000000 -0.000000 0.000000 -0.000000 -0.000000 -0.000000 -0.000000 0.000000 -0.000000 -0.000000 0.000000 -0.000000 0.000000 0.000000 0.000000 0.000000 0.000000 -0.000000 -0.000000 -0.000000 0.000000 0.000000 0.000000 0.000000 0.000000 -0.000000 -0.000000 0.000000 0.000000 -0.000000 -0.000000 0.000000 0.000000 -0.000000 0.000000 -0.000000 0.000000 -0.000000 0.000000 0.000000 -0.000000 -0.000000 0.000000 0.000000 0.000000 -0.000000 -0.000000 0.000000 0.000000 -0.000000 -0.000000 0.000000 -0.000000 0.000000 0.000000 -0.000000 0.000000 -0.000000 0.000000 0.000000 -0.000000 -0.000000 0.000000 -0.000000 -0.000000 0.000000 -0.000000 -0.000000 -0.000000 -0.000000 0.000000 -0.000000 -0.000000 -0.000000 0.000000 -0.000000 0.000000 0.000000 -0.000000 0.000000 -0.000000 0.000000 -0.000000 0.000000 0.000000
-0.000000 -0.000000 0.000000 -0.000000 -0.000000 0.000000 -0.000000 0.000000 0.000000 0.000000 0.000000 -0.000000 0.000000 0.000000 0.000000 0.000000 -0.000000 -0.000000 0.000000 0.000000 -0.000000 -0.000000 -0.000000 0.000000 0.000000 -0.000000 0.000000 -0.000000 -0.000000 0.000000 0.000000 -0.000000 0.000000 0.000000 -0.000000 0.000000 -0.000000 -0.000000 0.000000 -0.000000 -0.000000 0.000000 0.000000 0.000000 0.000000 0.000000 -0.000000 -0.000000 -0.000000 0.000000 0.000000 -0.000000 0.000000 0.000000 0.000000 -0.000000 0.000000 -0.000000 0.000000 -0.000000 0.000000 0.000000 0.000000 0.000000 -0.000000 0.000000 0.000000 -0.000000 0.000000 0.000000 0.000000 0.000000 0.000000 0.000000 -0.000000 0.000000 0.000000 0.000000 0.000000 -0.000000 0.000000 0.000000 -0.000000 0.000000 0.000000 -0.000000 -0.000000 0.000000 0.000000 0.000000 0.000000 0.000000 0.000000 -0.000000 -0.000000 0.000000 -0.000000 -0.000000 -0.000000 0.000000 0.000000 -0.000000 0.000000 -0.000000 0.000000 0.000000 0.000000 0.000000 -0.000000 -0.000000 -0.000000 -0.000000 0.000000 0.000000 -0.000000 0.000000 0.000000 -0.000000 0.000000 0.000000 0.000000 0.000000 -0.000000 -0.000000 -0.000000 0.000000 -0.000000 -0.000000 0.000000 -0.000000 0.000000 -0.000000 0.000000 -0.000000 0.000000 0.000000 -0.000000 0.000000 -0.000000 -0.000000 0.000000 -0.000000 0.000000 0.000000 -0.000000 -0.000000 -0.000000 0.000000 -0.000000 0.000000 0.000000 -0.000000 -0.000000 0.000000 0.000000 -0.000000 0.000000 -0.000000 -0.000000 -0.000000 -0.000000 0.000000 -0.000000 -0.000000 -0.000000 -0.000000 -0.000000 0.000000 -0.000000 0.000000 0.000000 0.000000 0.000000 0.000000 -0.000000 0.000000 -0.000000 -0.000000 -0.000000 -0.000000 -0.000000 0.000000 -0.000000 0.000000 -0.000000 0.000000 0.000000 0.000000 -0.000000 -0.000000 -0.000000 0.000000 0.000000 -0.000000 -0.000000 -0.000000 -0.000000 0.000000 0.000000 0.000000
-0.000000 0.000000 0.000000 0.000000 0.000000 0.000000 -0.000000 -0.000000 -0.000000 -0.000000 0.000000 0.000000 -0.000000 0.000000 -0.000000 -0.000000 -0.000000 -0.000000 -0.000000 0.000000 -0.000000 0.000000 0.000000 0.000000 -0.000000 0.000000 0.000000 -0.000000 -0.000000 0.000000 -0.000000 -0.000000 0.000000 0.000000 0.000000 -0.000000 -0.000000 -0.000000 0.000000 -0.000000 -0.000000 0.000000 0.000000 0.000000 -0.000000 0.000000 0.000000 -0.000000 0.000000 -0.000000 0.000000 0.000000 -0.000000 -0.000000 -0.000000 -0.000000 -0.000000 0.000000 -0.000000 -0.000000 0.000000 -0.000000 0.000000 -0.000000 0.000000 -0.000000 -0.000000 -0.000000 0.000000 -0.000000 -0.000000 -0.000000 0.000000 0.000000 0.000000 -0.000000 0.000000 0.000000 -0.000000 0.000000 -0.000000 0.000000 0.000000 -0.000000 -0.000000 0.000000 -0.000000 -0.000000 0.000000 0.000000 0.000000 0.000000 0.000000 0.000000 -0.000000 0.000000 -0.000000 0.000000 -0.000000 0.000000 0.000000 0.000000 0.000000 -0.000000 -0.000000 0.000000 -0.000000 -0.000000 -0.000000 -0.000000 -0.000000 -0.000000 0.000000 0.000000 0.000000 0.000000 -0.000000 0.000000 0.000000 -0.000000 -0.000000 0.000000 -0.000000 0.000000 0.000000 -0.000000 -0.000000 0.000000 -0.000000 -0.000000 -0.000000 0.000000 0.000000 0.000000 -0.000000 0.000000 -0.000000 0.000000 0.000000 -0.000000 -0.000000 0.000000 0.000000 -0.000000 0.000000 0.000000 -0.000000 0.000000 0.000000 -0.000000 0.000000 -0.000000 -0.000000 -0.000000 -0.000000 -0.000000 0.000000 0.000000 0.000000 -0.000000 0.000000 0.000000 0.000000 0.000000 0.000000 -0.000000 -0.000000 0.000000 -0.000000 -0.000000 -0.000000 -0.000000 0.000000 0.000000 0.000000 -0.000000 0.000000 0.000000 0.000000 -0.000000 0.000000 0.000000 -0.000000 0.000000 0.000000 -0.000000 0.000000 -0.000000 0.000000 0.000000 0.000000 -0.000000 0.000000 -0.000000 -0.000000 0.000000 0.000000 -0.000000 0.000000 0.000000
-0.000000 0.000000 0.000000 -0.000000 0.000000 0.000000 -0.000000 0.000000 -0.000000 -0.000000 -0.000000 -0.000000 0.000000 0.000000 0.000000 0.000000 0.000000 -0.000000 0.000000 0.000000 0.000000 -0.000000 0.000000 -0.000000 0.000000 0.000000 -0.000000 0.000000 0.000000 0.000000 0.000000 -0.000000 -0.000000 -0.000000 0.000000 -0.000000 0.000000 0.000000 -0.000000 0.000000 0.000000 -0.000000 -0.000000 0.000000 0.000000 0.000000 -0.000000 -0.000000 0.000000 0.000000 0.000000 -0.000000 -0.000000 -0.000000 0.000000 -0.000000 0.000000 -0.000000 -0.000000 -0.000000 -0.000000 0.000000 0.000000 -0.000000 -0.000000 -0.000000 0.000000 -0.000000 -0.000000 -0.000000 0.000000 -0.000000 -0.000000 -0.000000 0.000000 0.000000 -0.000000 0.000000 0.000000 0.000000 -0.000000 0.000000 -0.000000 0.000000 0.000000 0.000000 -0.000000 -0.000000 -0.000000 0.000000 -0.000000 0.000000 0.000000 0.000000 0.000000 0.000000 0.000000 -0.000000 -0.000000 0.000000 0.000000 -0.000000 -0.000000 0.000000 0.000000 0.000000 0.000000 0.000000 -0.000000 0.000000 0.000000 0.000000 -0.000000 -0.000000 -0.000000 0.000000 -0.000000 -0.000000 -0.000000 0.000000 0.000000 -0.000000 0.000000 0.000000 0.000000 0.000000 0.000000 0.000000 -0.000000 -0.000000 -0.000000 -0.000000 -0.000000 0.000000 -0.000000 0.000000 0.000000 0.000000 -0.000000 0.000000 -0.000000 -0.000000 -0.000000 0.000000 0.000000 0.000000 -0.000000 -0.000000 0.000000 -0.000000 -0.000000 -0.000000 0.000000 0.000000 0.000000 -0.000000 0.000000 0.000000 -0.000000 -0.000000 0.000000 0.000000 -0.000000 0.000000 -0.000000 -0.000000 -0.000000 0.000000 -0.000000 -0.000000 0.000000 0.000000 0.000000 -0.000000 0.000000 0.000000 0.000000 0.000000 -0.000000 0.000000 -0.000000 0.000000 -0.000000 -0.000000 -0.000000 0.000000 0.000000 -0.000000 0.000000 -0.000000 0.000000 -0.000000 -0.000000 0.000000 -0.000000 -0.000000 -0.000000 -0.000000 -0.000000 -0.000000
0.000000 -0.000000 -0.000000 0.000000 -0.000000 0.000000 -0.000000 0.000000 0.000000 0.000000 -0.000000 -0.000000 0.000000 -0.000000 -0.000000 -0.000000 -0.000000 -0.000000 0.000000 0.000000 -0.000000 0.000000 -0.000000 0.000000 -0.000000 -0.000000 -0.000000 0.000000 -0.000000 -0.000000 -0.000000 0.000000 0.000000 0.000000 -0.000000 -0.000000 -0.000000 0.000000 -0.000000 0.000000 -0.000000 -0.000000 -0.000000 -0.000000 -0.000000 -0.000000 0.000000 0.000000 0.000000 -0.000000 0.000000 0.000000 -0.000000 0.000000 -0.000000 0.000000 -0.000000 -0.000000 -0.000000 -0.000000 0.000000 0.000000 0.000000 0.000000 -0.000000 -0.000000 -0.000000 -0.000000 -0.000000 0.000000 -0.000000 0.000000 -0.000000 -0.000000 -0.000000 0.000000 0.000000 0.000000 0.000000 -0.000000 -0.000000 -0.000000 -0.000000 -0.000000 0.000000 0.000000 -0.000000 -0.000000 0.000000 -0.000000 -0.000000 -0.000000 0.000000 -0.000000 0.000000 0.000000 -0.000000 -0.000000 0.000000 0.000000 0.000000 0.000000 -0.000000 -0.000000 0.000000 0.000000 -0.000000 -0.000000 0.000000 -0.000000 0.000000 0.000000 -0.000000 0.000000 -0.000000 0.000000 -0.000000 0.000000 -0.000000 0.000000 -0.000000 -0.000000 -0.000000 -0.000000 -0.000000 0.000000 0.000000 0.000000 0.000000 0.000000 -0.000000 0.000000 0.000000 -0.000000 -0.000000 0.000000 -0.000000 0.000000 -0.000000 -0.000000 0.000000 -0.000000 -0.000000 -0.000000 -0.000000 -0.000000 -0.000000 -0.000000 -0.000000 0.000000 0.000000 0.000000 -0.000000 0.000000 0.000000 0.000000 -0.000000 -0.000000 -0.000000 0.000000 -0.000000 0.000000 -0.000000 -0.000000 0.000000 0.000000 0.000000 0.000000 -0.000000 -0.000000 0.000000 -0.000000 -0.000000 -0.000000 0.000000 -0.000000 -0.000000 0.000000 0.000000 0.000000 -0.000000 0.000000 0.000000 -0.000000 -0.000000 -0.000000 -0.000000 -0.000000 -0.000000 0.000000 -0.000000 -0.000000 0.000000 -0.000000 0.000000 0.000000 -0.000000 0.000000 -0.000000 0.000000
-0.000000 -0.000000 0.000000 0.000000 0.000000 -0.000000 -0.000000 -0.000000 -0.000000 -0.000000 -0.000000 -0.000000 0.000000 -0.000000 -0.000000 -0.000000 0.000000 -0.000000 0.000000 -0.000000 -0.000000 0.000000 0.000000 -0.000000 -0.000000 0.000000 -0.000000 -0.000000 0.000000 -0.000000 -0.000000 0.000000 0.000000 0.000000 -0.000000 0.000000 0.000000 0.000000 -0.000000 0.000000 -0.000000 0.000000 -0.000000 -0.000000 -0.000000 -0.000000 -0.000000 -0.000000 0.000000 -0.000000 -0.000000 0.000000 0.000000 0.000000 0.000000 0.000000 0.000000 -0.000000 -0.000000 -0.000000 0.000000 0.000000 -0.000000 0.000000 -0.000000 -0.000000 -0.000000 -0.000000 0.000000 0.000000 -0.000000 0.000000 -0.000000 0.000000 0.000000 0.000000 -0.000000 -0.000000 -0.000000 0.000000 -0.000000 -0.000000 0.000000 0.000000 0.000000 -0.000000 -0.000000 -0.000000 -0.000000 -0.000000 -0.000000 -0.000000 0.000000 -0.000000 -0.000000 0.000000 0.000000 -0.000000 -0.000000 0.000000 -0.000000 0.000000 -0.000000 0.000000 -0.000000 -0.000000 -0.000000 -0.000000 -0.000000 0.000000 0.000000 -0.000000 0.000000 0.000000 0.000000 -0.000000 0.000000 0.000000 -0.000000 -0.000000 0.000000 -0.000000 -0.000000 -0.000000 -0.000000 -0.000000 0.000000 0.000000 -0.000000 -0.000000 0.000000 0.000000 0.000000 -0.000000 -0.000000 -0.000000 -0.000000 -0.000000 -0.000000 -0.000000 0.000000 0.000000 -0.000000 0.000000 0.000000 -0.000000 -0.000000 -0.000000 0.000000 0.000000 0.000000 -0.000000 -0.000000 -0.000000 0.000000 0.000000 0.000000 -0.000000 -0.000000 -0.000000 -0.000000 0.000000 0.000000 0.000000 -0.000000 -0.000000 -0.000000 -0.000000 -0.000000 -0.000000 -0.000000 -0.000000 0.000000 0.000000 -0.000000 0.000000 0.000000 0.000000 -0.000000 -0.000000 -0.000000 -0.000000 -0.000000 -0.000000 -0.000000 0.000000 0.000000 -0.000000 0.000000 -0.000000 0.000000 0.000000 -0.000000 0.000000 0.000000 -0.000000 0.000000 0.000000 -0.000000 -0.000000
0.000000 0.000000 0.000000 0.000000 -0.000000 -0.000000 0.000000 0.000000 -0.000000 0.000000 0.000000 -0.000000 0.000000 -0.000000 -0.000000 0.000000 -0.000000 -0.000000 0.000000 0.000000 -0.000000 0.000000 -0.000000 -0.000000 -0.000000 0.000000 0.000000 -0.000000 -0.000000 0.000000 -0.000000 0.000000 0.000000 -0.000000 -0.000000 0.000000 0.000000 0.000000 0.000000 -0.000000 -0.000000 0.000000 -0.000000 0.000000 -0.000000 0.000000 -0.000000 0.000000 -0.000000 -0.000000 -0.000000 0.000000 0.000000 0.000000 0.000000 -0.000000 0.000000 0.000000 0.000000 0.000000 0.000000 -0.000000 0.000000 -0.000000 -0.000000 0.000000 -0.000000 -0.000000 -0.000000 0.000000 0.000000 0.000000 -0.000000 0.000000 -0.000000 0.000000 0.000000 0.000000 0.000000 -0.000000 -0.000000 0.000000 0.000000 -0.000000 0.000000 0.000000 0.000000 0.000000 -0.000000 -0.000000 0.000000 -0.000000 -0.000000 -0.000000 -0.000000 0.000000 -0.000000 -0.000000 -0.000000 0.000000 0.000000 -0.000000 -0.000000 0.000000 0.000000 0.000000 0.000000 -0.000000 -0.000000 -0.000000 0.000000 0.000000 -0.000000 -0.000000 0.000000 -0.000000 -0.000000 0.000000 0.000000 -0.000000 0.000000 -0.000000 0.000000 -0.000000 -0.000000 0.000000 0.000000 0.000000 0.000000 -0.000000 -0.000000 -0.000000 -0.000000 -0.000000 0.000000 0.000000 0.000000 0.000000 -0.000000 0.000000 -0.000000 -0.000000 -0.000000 -0.000000 0.000000 0.000000 0.000000 -0.000000 -0.000000 0.000000 0.000000 0.000000 -0.000000 0.000000 -0.000000 0.000000 -0.000000 -0.000000 -0.000000 -0.000000 0.000000 0.000000 -0.000000 0.000000 0.000000 -0.000000 -0.000000 -0.000000 0.000000 -0.000000 0.000000 0.000000 -0.000000 -0.000000 0.000000 0.000000 0.000000 0.000000 -0.000000 -0.000000 0.000000 0.000000 0.000000 -0.000000 0.000000 -0.000000 -0.000000 -0.000000 -0.000000 -0.000000 0.000000 -0.000000 -0.000000 -0.000000 0.000000 -0.000000 -0.000000 0.000000 -0.000000 -0.000000
0.000000 -0.000000 -0.000000 0.000000 0.000000 0.000000 -0.000000 -0.000000 0.000000 -0.000000 0.000000 0.000000 0.000000 0.000000 -0.000000 0.000000 0.000000 0.000000 -0.000000 0.000000 -0.000000 -0.000000 0.000000 0.000000 -0.000000 -0.000000 0.000000 0.000000 0.000000 0.000000 0.000000 0.000000 0.000000 -0.000000 0.000000 -0.000000 -0.000000 0.000000 -0.000000 0.000000 -0.000000 0.000000 -0.000000 -0.000000 -0.000000 0.000000 -0.000000 0.000000 -0.000000 -0.000000 -0.000000 -0.000000 0.000000 -0.000000 0.000000 -0.000000 0.000000 0.000000 0.000000 0.000000 0.000000 -0.000000 -0.000000 -0.000000 0.000000 0.000000 0.000000 0.000000 0.000000 0.000000 -0.000000 -0.000000 -0.000000 0.000000 0.000000 0.000000 0.000000 -0.000000 0.000000 0.000000 0.000000 -0.000000 0.000000 -0.000000 -0.000000 0.000000 -0.000000 -0.000000 0.000000 -0.000000 -0.000000 0.000000 0.000000 -0.000000 0.000000 0.000000 0.000000 -0.000000 -0.000000 -0.000000 -0.000000 -0.000000 -0.000000 -0.000000 0.000000 -0.000000 0.000000 0.000000 -0.000000 0.000000 0.000000 0.000000 -0.000000 -0.000000 0.000000 -0.000000 -0.000000 -0.000000 -0.000000 0.000000 0.000000 0.000000 -0.000000 0.000000 -0.000000 -0.000000 0.000000 -0.000000 -0.000000 -0.000000 -0.000000 -0.000000 0.000000 0.000000 0.000000 -0.000000 -0.000000 0.000000 -0.000000 -0.000000 -0.000000 0.000000 -0.000000 -0.000000 -0.000000 -0.000000 -0.000000 -0.000000 -0.000000 0.000000 -0.000000 -0.000000 0.000000 -0.000000 0.000000 -0.000000 -0.000000 -0.000000 0.000000 0.000000 0.000000 0.000000 -0.000000 -0.000000 0.000000 0.000000 0.000000 0.000000 -0.000000 -0.000000 0.000000 -0.000000 0.000000 -0.000000 -0.000000 0.000000 0.000000 0.000000 -0.000000 -0.000000 -0.000000 -0.000000 -0.000000 0.000000 0.000000 -0.000000 -0.000000 -0.000000 -0.000000 -0.000000 0.000000 0.000000 0.000000 0.000000 0.000000 -0.000000 -0.000000 -0.000000 -0.000000 0.000000
0.000000 0.000000 -0.000000 0.000000 0.000000 -0.000000 0.000000 0.000000 0.000000 0.000000 0.000000 0.000000 -0.000000 -0.000000 -0.000000 0.000000 0.000000 0.000000 0.000000 0.000000 0.000000 0.000000 0.000000 0.000000 -0.000000 -0.000000 0.000000 0.000000 -0.000000 0.000000 0.000000 -0.000000 -0.000000 0.000000 0.000000 -0.000000 -0.000000 0.000000 -0.000000 -0.000000 0.000000 0.000000 -0.000000 -0.000000 0.000000 0.000000 -0.000000 -0.000000 0.000000 -0.000000 -0.000000 0.000000 0.000000 -0.000000 0.000000 -0.000000 0.000000 -0.000000 -0.000000 0.000000 0.000000 0.000000 -0.000000 -0.000000 0.000000 0.000000 0.000000 -0.000000 0.000000 -0.000000 0.000000 0.000000 0.000000 0.000000 0.000000 0.000000 0.000000 -0.000000 0.000000 -0.000000 -0.000000 0.000000 -0.000000 0.000000 -0.000000 0.000000 0.000000 -0.000000 0.000000 0.000000 -0.000000 -0.000000 0.000000 0.000000 -0.000000 -0.000000 0.000000 -0.000000 0.000000 -0.000000 -0.000000 -0.000000 -0.000000 -0.000000 -0.000000 -0.000000 -0.000000 -0.000000 -0.000000 0.000000 0.000000 0.000000 -0.000000 -0.000000 0.000000 0.000000 -0.000000 -0.000000 -0.000000 -0.000000 -0.000000 -0.000000 -0.000000 -0.000000 0.000000 0.000000 -0.000000 -0.000000 -0.000000 -0.000000 -0.000000 0.000000 0.000000 -0.000000 -0.000000 0.000000 0.000000 0.000000 0.000000 0.000000 -0.000000 0.000000 -0.000000 -0.000000 -0.000000 -0.000000 0.000000 -0.000000 0.000000 -0.000000 0.000000 0.000000 -0.000000 -0.000000 0.000000 0.000000 0.000000 0.000000 -0.000000 0.000000 0.000000 0.000000 0.000000 0.000000 0.000000 -0.000000 -0.000000 -0.000000 -0.000000 0.000000 -0.000000 -0.000000 0.000000 -0.000000 -0.000000 -0.000000 0.000000 -0.000000 -0.000000 -0.000000 -0.000000 -0.000000 -0.000000 0.000000 0.000000 -0.000000 0.000000 0.000000 -0.000000 0.000000 0.000000 -0.000000 -0.000000 -0.000000 0.000000 -0.000000 0.000000 0.000000 0.000000 0.000000
-0.000000 -0.021600 -0.000000 0.000000 -0.000000 0.000000 -0.000000 0.000000 -0.000000 -0.000000 0.034823 0.032814 0.000000 -0.000000 0.000000 0.000000 0.000084 -0.000050 0.024443 -0.006780 -0.000000 0.000000 -0.000001 0.000000 -0.000000 -0.000000 -0.005493 0.001215 0.000000 -0.050507 0.000000 0.006283 -0.000000 -0.000000 0.000000 0.000000 -0.000000 -0.023180 0.000000 -0.000000 -0.000000 0.000000 0.000000 -0.000000 -0.024283 0.000000 0.000157 0.024110 0.000000 -0.027983 0.000000 0.000000 0.000000 0.000322 -0.000000 0.024583 0.000410 -0.012348 0.000000 -0.000000 -0.000000 0.000000 0.000000 -0.000000 0.000303 -0.000000 0.000000 0.000000 -0.009467 0.041851 -0.000000 -0.000000 0.000000 -0.000000 -0.000000 -0.000000 -0.000000 -0.000634 0.000000 -0.000000 0.000000 -0.034810 0.025849 0.000000 0.000000 -0.000000 -0.000000 0.009140 0.000000 0.000000 -0.000000 -0.000000 -0.000000 0.000000 -0.000000 -0.000000 0.000000 -0.000000 0.000000 0.000000 0.000000 -0.009973 0.000001 -0.000000 -0.000000 0.000000 -0.023363 0.028074 -0.022799 -0.000000 0.000000 0.000000 -0.000000 0.009822 -0.018950 -0.000000 -0.046311 0.000000 0.016391 -0.000000 0.000000 -0.000000 0.000000 -0.000000 -0.000000 -0.000000 0.000000 -0.000000 -0.000000 -0.000000 -0.000000 -0.000000 -0.000000 0.016129 0.000000 -0.000000 -0.000000 -0.000000 0.000000 0.000000 -0.000000 -0.000000 -0.000004 0.000000 -0.000000 0.000000 0.000000 0.000000 -0.021430 -0.000000 0.000000 -0.000000 0.000002 0.000249 0.005082 -0.009127 -0.011896 -0.034794 0.018266 -0.000000 -0.014717 0.000000 0.000000 0.000000 0.000000 -0.000000 -0.000000 0.000000 0.000000 -0.000000 0.000031 -0.000000 -0.000000 -0.000000 -0.042953 0.000000 -0.012832 0.000004 0.000000 -0.000059 -0.000000 -0.000000 0.000000 -0.000491 0.000000 0.000000 -0.000000 0.000000 -0.000000 0.000000 -0.000000 0.021784 0.000000 -0.000000 0.000000 -0.000043 -0.000000 -0.024429 -0.000000 -0.000000
-0.000116 -0.032262 -0.000000 -0.000002 -0.000000 0.000000 -0.000004 0.000074 0.000000 -0.000000 0.044220 0.039528 0.000320 -0.000001 -0.000000 0.000000 0.005623 -0.001991 0.031762 -0.017516 -0.000000 0.000000 0.000291 -0.000003 -0.000000 -0.000000 -0.021181 0.003164 0.000000 -0.032934 -0.000000 0.019170 -0.000000 0.000115 -0.000043 -0.000000 -0.000000 -0.026101 -0.000000 -0.000000 0.000000 0.000000 0.000000 -0.000000 -0.026869 0.000002 0.002372 0.032609 0.000000 -0.029268 -0.000000 -0.000035 0.000000 0.002212 0.000000 0.031511 0.003020 -0.000559 0.000000 0.000079 0.000000 0.000000 0.000000 -0.000000 0.006538 0.000000 -0.000003 -0.000000 -0.011319 0.066332 -0.000000 0.000000 -0.000000 0.000132 -0.000000 0.000000 0.000000 -0.002113 -0.000000 -0.000000 0.000000 -0.044681 0.031981 -0.000060 -0.000000 -0.000000 -0.000000 0.014013 0.000000 0.000118 0.000000 0.000000 -0.000000 -0.000000 -0.000000 -0.000000 -0.000000 -0.000034 -0.000029 -0.000000 0.000000 -0.028402 -0.000035 0.000000 0.000000 0.000017 -0.026230 0.029967 -0.027750 0.000000 -0.000000 0.000000 -0.000544 0.020225 -0.019136 -0.000000 -0.056272 0.000000 0.040710 -0.000000 -0.000000 -0.000000 0.000000 -0.000000 -0.000000 -0.000000 0.000000 -0.000001 0.000001 -0.000000 -0.000000 -0.000000 -0.000116 0.024801 -0.000005 0.000000 -0.000000 0.000000 0.000032 0.000000 0.000000 0.000000 -0.000260 -0.000000 -0.000000 -0.000000 -0.000000 0.000000 -0.055562 -0.000000 0.000057 -0.000000 0.001087 0.001825 0.005237 -0.002704 -0.017172 -0.052122 0.023578 -0.000001 -0.019794 0.000000 0.000000 0.000000 -0.000000 -0.000000 0.000000 -0.000000 0.000000 -0.000000 -0.000681 -0.000323 0.000000 0.000976 -0.066901 0.000323 -0.017714 0.008513 -0.000000 0.000252 0.000029 0.000001 -0.000001 0.010631 -0.000148 0.000000 0.000000 -0.000000 -0.000000 0.000002 -0.000000 0.025103 0.000000 0.000000 -0.000000 -0.000360 0.000000 -0.046006 -0.000000 -0.000000
-0.010588 -0.005539 -0.000000 0.000005 -0.000000 0.000000 0.000002 -0.000031 -0.000000 -0.000000 0.019297 0.024038 -0.000013 -0.000000 0.000000 0.000000 -0.001515 -0.003261 0.007068 -0.004635 0.000000 0.000000 -0.001943 -0.000008 -0.000000 0.000000 0.000013 0.002460 0.000000 -0.018064 0.000000 0.004014 0.000000 -0.000037 0.000040 0.000000 -0.000000 -0.004924 -0.000000 -0.000000 0.000000 0.000000 0.002063 -0.007987 -0.006462 -0.000115 -0.000148 0.022214 -0.000000 -0.020174 0.000000 -0.003112 0.000000 -0.002149 0.000000 0.005889 0.024413 -0.016802 0.000000 0.000018 -0.000000 0.000000 0.000311 -0.000000 0.018605 -0.000032 -0.000016 0.000000 -0.000172 0.005922 -0.000000 0.000023 0.000000 0.000165 0.000000 -0.000000 0.000000 -0.001236 -0.000023 -0.000000 -0.000000 -0.006115 0.002047 0.000049 -0.000000 -0.000000 0.000000 0.006383 0.000001 0.006823 0.000000 -0.000000 -0.000000 -0.000000 0.000000 -0.000000 -0.000000 0.000002 -0.000024 -0.000000 0.000000 -0.001391 -0.003906 0.000000 0.000026 0.000010 -0.005156 0.029413 -0.010004 -0.000000 0.000000 -0.000000 0.000189 0.004099 -0.000907 0.000018 -0.013639 0.000969 -0.025098 -0.000010 0.000000 0.000000 0.000000 -0.000000 -0.000000 0.000000 -0.000000 -0.000000 0.000039 -0.000000 -0.000000 -0.000000 -0.000000 0.008458 -0.000006 -0.000000 -0.000000 0.000000 0.000000 0.000000 0.000000 -0.000000 0.000627 -0.000001 -0.000000 0.000000 -0.000000 -0.000000 -0.006230 0.000000 -0.000005 -0.000000 -0.000247 0.002049 -0.007345 -0.003318 -0.000373 -0.008433 0.011517 -0.000001 -0.001701 -0.000000 -0.000137 -0.000000 -0.000000 -0.000000 -0.000000 -0.000000 0.000000 -0.000000 0.000008 0.000154 0.000000 -0.002893 -0.010232 0.000000 -0.000275 -0.003081 0.000000 -0.000018 0.000086 -0.000000 0.000001 -0.000006 0.000149 0.001633 -0.000000 -0.000000 -0.000000 -0.000001 -0.000000 0.004489 0.000000 -0.000000 0.000000 -0.000000 0.000467 -0.009728 0.000000 0.000023
-0.000010 -0.000082 -0.000000 0.000000 -0.000000 -0.000000 0.000000 -0.000000 0.019980 -0.000000 0.000304 0.022852 -0.000000 0.003587 -0.000000 0.000000 -0.004985 -0.000053 0.010662 -0.010643 -0.000000 0.000000 -0.000003 -0.000000 0.000000 0.000000 -0.007294 0.002756 -0.000000 -0.063019 -0.000000 0.001670 0.000000 0.000000 0.000000 0.000000 -0.000000 0.000000 -0.000000 -0.000000 0.000000 0.000000 0.003668 -0.000109 -0.000071 -0.000000 -0.000201 0.019197 0.000000 -0.000353 -0.000000 -0.000007 0.000000 -0.000000 0.000000 0.009080 0.020003 -0.002340 0.000000 -0.000000 -0.000000 0.000000 -0.000000 0.000000 0.002669 0.000000 0.000000 -0.013349 -0.000000 0.000433 -0.000000 0.000000 -0.000000 -0.000000 0.000000 0.000000 -0.000000 -0.000215 0.000000 0.000000 0.000000 0.000132 -0.000145 0.000000 -0.000000 -0.000000 -0.000000 0.012280 0.012070 0.000000 0.000000 0.000000 0.000000 -0.000000 -0.000000 0.000000 -0.000000 -0.000000 0.002310 -0.000000 -0.000000 -0.001567 -0.000110 -0.034246 0.000000 -0.000000 0.000000 0.000000 -0.003704 0.000000 0.000000 -0.000000 0.000000 0.000004 0.000001 -0.000000 -0.000003 0.000000 -0.011054 -0.000000 0.000000 -0.000000 -0.000000 0.000000 -0.009081 -0.000000 -0.000000 0.000000 0.000008 0.000000 -0.000000 0.000000 -0.000000 0.025950 0.000000 0.000000 -0.000000 0.000000 -0.000000 -0.000000 0.000000 0.000000 0.000000 -0.000000 -0.000000 -0.000000 0.000000 -0.000000 0.005599 -0.000000 -0.000000 0.000000 -0.002289 0.026821 -0.014243 -0.000033 -0.000000 -0.000101 0.000022 -0.033044 0.000000 -0.000000 -0.000000 -0.000000 -0.000000 0.000000 -0.000000 0.000000 0.000508 0.000000 -0.000000 -0.000000 0.000000 0.004512 -0.000018 0.000679 -0.006543 -0.009103 0.000000 0.000000 0.000000 -0.000000 0.000000 -0.000000 -0.016999 0.000000 0.000000 -0.000000 -0.000000 -0.000000 -0.000000 -0.000000 0.000000 0.000000 0.000000 -0.000000 0.000000 0.000642 -0.000000 0.000000
0.000000 -0.000000 -0.000000 -0.000000 -0.000000 -0.000000 -0.000000 -0.000000 0.079273 0.000000 -0.005330 0.039151 0.000000 -0.041342 0.000000 0.000000 -0.005518 -0.002624 -0.036544 -0.034345 0.015133 0.000000 0.025283 0.000001 0.000000 0.000000 0.039466 0.036272 -0.000000 -0.041361 0.000000 0.004810 -0.000000 -0.000000 -0.000000 0.000000 -0.000000 0.000000 -0.000000 -0.000000 0.000000 0.000000 0.039898 -0.000000 -0.008923 -0.000000 -0.008539 0.104337 -0.000000 -0.039124 -0.000000 0.000000 0.000000 0.041494 -0.000000 -0.015482 0.036285 0.008818 -0.000000 -0.000000 -0.000000 -0.000000 0.000000 0.000000 0.057286 0.000000 -0.000000 -0.041874 0.000000 -0.023381 -0.000000 -0.000000 -0.000000 0.000011 -0.059297 -0.000000 -0.000000 0.023485 0.000000 0.000000 -0.000000 0.000000 0.007980 -0.000005 -0.000000 0.000000 0.045702 0.028084 0.032928 0.000000 -0.000000 0.000000 -0.043467 -0.000000 0.042778 -0.000000 -0.000000 -0.000000 0.038588 -0.000000 -0.000000 0.064275 0.049787 -0.044706 -0.000000 -0.000000 0.000000 0.006252 -0.041588 -0.000000 0.000000 0.000000 -0.000000 0.000000 0.000000 -0.000000 0.000000 -0.000000 0.012021 0.000000 0.000000 -0.000000 -0.000000 0.000000 -0.004953 -0.000000 -0.000000 -0.000000 0.017497 0.000000 -0.000000 0.000000 -0.033750 0.052155 -0.000000 -0.000000 -0.000000 -0.000000 -0.000000 0.000000 -0.000000 -0.000000 0.000000 0.000000 -0.000000 -0.000000 -0.000000 -0.000000 -0.020432 -0.000000 0.000000 0.000000 0.051607 0.011590 -0.027355 -0.000000 -0.000000 0.006172 0.020099 -0.065059 0.059730 0.000000 -0.000000 -0.020827 0.000000 -0.000000 -0.026793 0.000000 -0.032321 -0.012677 -0.000000 0.058751 -0.000000 0.039558 -0.000000 -0.017693 0.009828 -0.044013 0.000000 0.000000 0.000848 -0.000000 0.000000 -0.000000 -0.028853 0.000000 -0.041512 0.000000 -0.018369 0.000000 0.000000 -0.000000 0.000000 0.000000 -0.000000 0.000000 0.000000 0.027096 -0.000000 -0.000000
-0.000356 0.000001 -0.000000 0.000000 -0.000000 0.000004 0.000000 -0.000000 0.077084 -0.000000 0.044612 0.043832 0.000000 -0.015339 -0.000000 0.000000 -0.044582 -0.026370 -0.087573 -0.114743 0.015657 0.000000 0.029848 0.035157 0.000000 -0.000000 0.119281 0.054537 -0.000000 -0.044907 0.000000 0.095589 0.000000 -0.000000 0.000000 0.000000 -0.000000 -0.001886 -0.000000 0.031791 0.000000 0.000000 0.016710 -0.000000 -0.060379 0.000000 0.008399 0.146434 0.000000 -0.164655 0.000000 -0.031559 0.000000 0.062732 -0.032902 -0.028850 0.005957 -0.005850 -0.000000 0.000022 0.029826 0.000000 0.000005 0.000000 0.091722 0.000000 0.000001 -0.050331 -0.000001 -0.059156 -0.000000 0.014916 0.000000 0.002269 -0.136439 0.000000 -0.000000 0.108875 0.000000 0.000024 0.000000 -0.000000 -0.013815 -0.000006 0.000000 -0.000000 0.007566 0.064977 0.091347 0.000000 0.000000 0.000009 -0.030720 0.000000 0.071576 -0.000000 0.031730 -0.002641 0.048766 0.000000 0.000000 0.102240 0.056476 0.060498 0.000000 -0.036160 0.000002 0.035877 -0.029382 0.000000 0.000000 -0.000007 -0.000000 0.000000 -0.052551 -0.000000 0.000000 -0.000000 -0.040401 0.000000 0.000000 -0.000000 0.000000 0.000000 -0.054697 0.000000 -0.000000 -0.000000 0.007877 0.000000 -0.000000 0.000000 -0.041609 0.124933 0.034895 -0.000000 -0.000000 0.000000 0.000000 -0.000116 -0.000000 0.000000 0.000000 -0.000000 -0.000000 -0.000000 -0.000000 -0.000000 0.019218 0.000008 0.000001 0.000000 0.033522 0.138931 0.039891 0.000100 -0.000000 -0.100772 0.036854 -0.005233 0.091747 -0.000000 -0.000004 -0.062251 0.000000 -0.000000 -0.059664 -0.000113 -0.071535 -0.056875 -0.000000 0.124747 0.000000 0.050444 -0.031800 -0.013939 -0.019416 -0.073040 0.000000 0.036596 -0.008194 0.033487 0.000000 0.000000 -0.008480 -0.000005 -0.058629 0.000000 -0.031809 0.000000 0.000549 -0.000000 0.000000 -0.000000 -0.000000 0.000000 -0.000018 0.064099 -0.000000 -0.000021
-0.010374 -0.003672 -0.006878 -0.000001 0.000052 -0.000006 0.000000 0.000000 0.034572 0.000005 0.112633 0.144846 0.000000 -0.028779 -0.000000 0.000000 0.018076 -0.031205 -0.081888 0.018804 -0.012169 0.000000 0.024966 0.036490 0.000000 0.000000 0.033028 0.081043 -0.000000 -0.095970 -0.000000 0.120728 -0.000246 0.000120 -0.000000 -0.000000 0.000000 -0.010995 -0.000000 0.075877 0.000000 -0.000000 0.072157 -0.026008 -0.111926 -0.000727 0.001218 0.090578 -0.040087 -0.237416 0.000522 -0.031919 0.000003 0.051868 -0.031412 0.083468 0.103478 -0.050008 0.000021 -0.002897 0.038250 -0.000000 0.002321 0.000000 0.097450 -0.007621 -0.000472 -0.014138 -0.002904 0.014996 -0.000001 0.014120 0.000000 0.000156 -0.033039 -0.000000 0.000000 0.036652 -0.000000 0.000006 -0.000000 -0.001515 0.066561 0.000000 -0.000000 -0.000000 -0.069852 0.079269 0.028963 0.000000 -0.000000 0.000467 0.027868 0.000010 0.010913 0.000000 0.031748 -0.010440 0.006817 -0.000000 -0.000000 0.085078 0.084217 0.059803 0.000000 -0.042244 0.000077 0.032505 -0.019501 0.000000 0.000000 0.000009 -0.000417 0.000938 -0.056123 -0.000017 -0.133871 0.001705 0.051726 -0.000001 -0.000000 0.000000 0.000000 0.000000 -0.005764 0.000000 -0.000000 -0.005939 0.014073 -0.000000 -0.000000 0.000000 -0.023900 0.084573 0.039711 -0.000000 -0.000000 0.000009 0.000025 0.005034 -0.000000 -0.000047 0.000008 -0.000000 -0.000000 -0.000000 0.000022 0.000632 0.044209 0.000126 -0.000044 -0.000000 0.029958 0.075690 0.007176 -0.015394 0.000013 -0.082566 0.066098 -0.116217 0.045017 -0.000000 -0.000003 -0.038059 0.000000 0.000000 -0.046912 0.001478 -0.003044 0.017692 -0.016572 0.018598 0.000000 -0.040709 -0.032787 0.013200 -0.048074 -0.008451 0.000000 0.046574 -0.021354 0.035872 0.000014 0.000411 -0.107984 0.049062 -0.060995 -0.000068 -0.023319 0.000000 0.000789 -0.000000 -0.000000 -0.000000 -0.000000 -0.000000 0.004951 -0.127026 0.000000 -0.001516
-0.016620 0.008216 -0.024491 0.000000 0.000001 0.000000 -0.000000 -0.000097 0.010309 0.000000 0.053408 0.262766 0.000000 -0.056811 0.000000 -0.000000 0.041931 0.000316 -0.018062 0.033565 0.000000 0.000000 -0.019445 0.039069 0.000000 -0.000000 -0.012730 0.062073 -0.002376 -0.139804 -0.000000 0.086491 -0.019420 -0.000000 0.000002 -0.000001 0.000000 -0.001969 -0.028325 0.125525 -0.000693 -0.000000 0.079851 -0.025993 -0.087910 0.012533 0.017873 -0.006770 -0.050980 -0.027829 -0.003821 -0.076819 -0.000000 0.004000 -0.041255 0.134260 0.013535 0.005526 -0.000000 0.019645 0.032509 -0.000000 0.025808 0.000000 0.109831 -0.027163 -0.000016 -0.009982 -0.031796 0.090642 -0.000000 0.025231 -0.000000 -0.000000 0.002350 0.000000 -0.013270 0.004803 -0.000000 -0.022763 0.000000 -0.020078 0.135364 -0.000000 0.000000 -0.000000 -0.112230 0.115994 0.057484 0.000000 0.000000 0.000000 0.036571 0.000000 -0.041858 -0.000000 0.031722 0.022514 -0.003247 -0.000001 0.000000 0.051117 0.022066 -0.008949 -0.000000 -0.035689 -0.000001 -0.015423 -0.073058 -0.000000 0.000000 0.000022 0.044877 0.000457 -0.094195 0.047232 -0.114182 -0.001881 0.066434 0.020269 -0.000000 0.000000 -0.000000 -0.000000 0.000015 0.000000 -0.000000 -0.018122 -0.000000 -0.002150 -0.000005 0.000000 -0.000319 0.060108 0.016553 -0.000000 -0.000000 0.000000 0.000024 0.000140 -0.000000 -0.000000 -0.000000 -0.000000 -0.000000 0.002854 -0.000000 0.015286 0.004874 0.000001 -0.000020 -0.000000 0.066400 0.044335 0.032140 -0.064148 0.000004 -0.085269 0.008927 -0.064332 0.032738 0.000000 -0.000000 -0.000323 -0.000036 0.000000 -0.007592 0.000020 -0.007480 0.077374 -0.060926 0.006838 0.001393 -0.130457 -0.031769 -0.007661 -0.091675 0.052446 -0.000000 0.032835 -0.005554 0.060371 -0.000001 0.001310 -0.165079 0.031409 -0.012093 -0.000005 0.000000 -0.000000 -0.018851 -0.001657 -0.000000 0.000000 -0.000000 0.000000 0.001382 -0.155479 0.000000 -0.032215
-0.028487 -0.018826 -0.072472 0.000146 -0.000082 -0.000000 -0.000000 0.067713 -0.021438 0.000000 -0.066075 0.271735 -0.008236 0.050683 0.016535 -0.000000 -0.053335 0.017360 0.000016 -0.032891 0.018093 0.000000 0.065102 0.065432 0.078177 -0.000000 0.010064 -0.021408 -0.001707 -0.066830 -0.000000 0.024336 -0.000082 0.000067 -0.004321 0.001080 0.000000 -0.026021 0.013741 0.018016 0.047271 -0.000000 0.016675 0.000000 -0.008233 0.066798 -0.009726 0.069369 0.010272 -0.049202 0.026845 -0.008197 0.000000 0.019373 0.000924 0.065692 -0.130460 0.117931 0.000027 0.152956 0.000000 0.000000 0.055484 -0.000000 -0.066237 -0.122156 0.000450 -0.046592 -0.005326 0.061240 0.000000 0.000000 0.000000 0.048160 0.003755 -0.000000 -0.052520 -0.105298 0.000000 0.066579 0.006519 -0.022105 0.011668 0.008392 0.000000 -0.000000 0.031530 -0.042130 -0.010138 0.000000 0.000000 0.000044 0.022805 0.000000 -0.027498 -0.040703 -0.000003 -0.035779 -0.003575 -0.014114 -0.000000 0.068785 0.022885 0.022841 -0.000000 0.051589 -0.000006 0.000744 0.058511 0.000000 -0.000000 -0.002012 0.159000 -0.047451 0.019209 0.082508 0.092409 0.000724 0.021219 0.068302 -0.000000 0.000000 0.000000 0.000000 -0.000435 -0.006486 0.000000 -0.008857 0.001170 -0.018554 0.134094 0.002423 0.085225 -0.064599 0.083011 0.000000 -0.000000 -0.014664 -0.000060 0.000000 -0.000000 0.000000 -0.000000 -0.000000 0.000000 0.008799 -0.035018 0.012146 -0.038440 -0.000288 0.000621 -0.000000 0.067281 0.110640 0.000006 -0.000177 -0.000000 0.060708 -0.008060 -0.043995 -0.008964 -0.000000 -0.000000 -0.037982 -0.000176 0.030965 -0.016057 -0.000000 0.027426 0.188204 -0.038478 0.156695 0.021796 0.064621 -0.040120 -0.000007 -0.028071 0.016365 -0.000006 -0.002931 -0.040916 -0.017744 -0.000155 0.052019 -0.073456 0.000002 0.030655 0.003294 0.132124 -0.000000 -0.024210 0.025754 -0.000000 -0.000000 -0.000000 0.000000 0.009094 -0.008834 0.000000 -0.081822
0.015123 -0.000001 -0.033935 -0.003147 -0.000122 -0.000000 0.000000 0.100065 -0.055162 -0.000000 -0.028958 0.219397 -0.018484 -0.022913 0.000838 -0.000000 -0.035555 -0.188188 -0.000009 -0.018420 0.024774 0.000000 0.041861 -0.011370 0.091878 0.023825 0.031628 -0.148367 0.003418 -0.000002 0.000000 0.279762 -0.000000 -0.000011 0.002505 -0.000000 0.000000 0.007078 0.056090 0.042595 0.098761 -0.000000 -0.000557 -0.000000 -0.078642 -0.045043 0.000015 0.088761 0.044730 -0.222614 0.003237 -0.000155 -0.000000 -0.001481 0.021016 0.076749 -0.084833 0.105049 0.000134 0.066566 -0.000000 -0.000000 0.173607 -0.000000 -0.001254 -0.118197 -0.000000 -0.008162 0.000000 0.178524 -0.000000 -0.000000 0.000000 0.064091 -0.018940 -0.000000 -0.006507 -0.239779 0.000000 0.106371 0.023965 0.000501 -0.049394 0.012021 -0.000000 0.000000 0.000165 -0.047029 0.001720 0.000000 0.000000 0.000859 0.028057 -0.000000 0.011220 -0.036862 0.000000 -0.174212 -0.000109 -0.026715 -0.000000 0.016051 -0.065740 -0.038055 -0.000000 0.067370 -0.000000 0.138536 -0.004979 -0.000000 -0.000137 0.016862 0.157284 -0.137922 0.036101 0.038330 0.006165 -0.000000 0.000980 -0.000000 0.000000 0.000000 0.000036 -0.000141 0.000009 -0.025786 -0.000000 -0.119900 0.000549 -0.001845 0.115848 0.005360 0.130519 -0.089711 0.157413 -0.000000 -0.001980 -0.002592 0.000000 0.000000 0.000000 0.000478 0.000048 0.000000 0.001587 0.000753 -0.081592 0.000000 -0.014783 0.005919 0.000023 0.000000 0.007877 0.142492 0.011455 -0.000047 -0.000103 -0.085546 -0.018711 -0.049603 -0.027658 0.000000 -0.000001 -0.049951 0.032173 0.038223 -0.016181 -0.000000 0.077616 0.224305 -0.002260 0.081392 -0.016085 -0.022646 0.005690 0.000000 0.000809 -0.028771 -0.000007 -0.005176 -0.016313 -0.006181 0.000000 0.083773 -0.165886 0.000006 0.045969 0.000000 0.148724 0.000000 0.017511 0.036934 -0.000000 -0.000000 -0.000000 0.000000 0.124876 0.030640 0.000000 -0.046087
-0.002512 -0.000000 -0.036681 0.000046 -0.000002 0.000000 0.000000 0.040429 -0.124129 0.000000 0.064928 0.078664 0.000475 0.042517 0.020895 -0.000000 0.092996 -0.112857 0.012792 -0.023759 0.006844 -0.000000 -0.069624 -0.043975 0.023221 0.024305 0.031601 -0.149460 0.060591 -0.000000 -0.000000 0.252073 0.000000 -0.016168 0.000014 -0.003751 0.000000 -0.025114 0.035270 0.006040 -0.010473 -0.000000 0.009937 -0.000000 -0.055365 -0.054502 0.000126 0.173386 0.000754 -0.094963 0.000004 -0.007529 -0.000000 -0.013655 0.000771 -0.053598 -0.022089 0.022637 0.000000 -0.024211 -0.000000 0.000000 0.195058 0.015178 0.073716 -0.076408 -0.000000 -0.035899 -0.000048 0.024670 0.000000 -0.042342 0.000000 0.012201 -0.030630 -0.000000 0.000258 -0.136669 0.000000 0.062890 0.000250 -0.000010 -0.039199 -0.006493 0.000000 0.000000 0.008522 -0.157225 0.036434 -0.000000 0.000000 0.008256 0.048739 0.000000 0.034004 -0.029332 -0.015381 -0.090552 -0.000032 -0.020412 0.000000 0.047196 0.080000 0.000020 0.000000 0.057642 -0.000000 0.135490 -0.006795 -0.000000 -0.014194 0.000001 0.078655 -0.009955 0.013020 0.144035 0.026850 -0.000020 -0.000003 -0.000000 0.000000 0.000000 -0.001555 -0.030892 -0.000000 -0.009531 -0.000000 -0.043386 0.000493 -0.000006 0.047073 0.000002 0.054467 -0.134647 0.022930 0.000000 -0.064650 -0.002265 0.000000 0.000000 0.000000 0.000002 -0.000000 -0.000000 0.006824 -0.000000 -0.006802 -0.000000 -0.121357 0.000003 -0.003520 -0.000000 -0.055764 0.015475 0.057356 -0.000058 -0.000002 -0.082407 0.024672 -0.040152 -0.039378 -0.000000 -0.000000 -0.019501 0.126428 0.029206 -0.034722 0.000000 0.074608 0.172862 -0.013277 0.192048 -0.027660 -0.010759 0.003001 0.000000 -0.015323 0.024011 -0.002465 0.014800 -0.068799 -0.031267 -0.000000 0.084717 -0.092211 0.000700 0.033815 -0.000000 0.062693 0.000000 -0.026933 0.053561 0.000000 0.000000 -0.000000 0.000000 0.038325 0.023917 0.000000 0.053817
0.001381 0.000000 -0.000000 0.012485 -0.000000 0.003513 0.000000 0.000000 0.003939 -0.000000 0.089682 0.069886 -0.000000 0.034544 0.124708 -0.000000 -0.019160 -0.059420 0.082728 -0.000518 0.001515 0.000000 -0.099843 0.055693 0.000000 0.026553 -0.000000 0.073836 0.029118 -0.000000 -0.000000 0.233242 0.000000 -0.049920 0.000000 -0.000415 0.000000 -0.025790 -0.031217 -0.009508 -0.006926 -0.000000 0.009656 -0.000000 -0.012872 -0.015269 0.000001 0.200253 0.000000 -0.040173 0.000000 -0.003847 0.000000 0.026790 0.003180 0.078523 0.176676 -0.028895 -0.000000 -0.000000 0.000000 0.000000 0.106680 0.075802 0.090351 0.000406 0.000000 -0.029154 -0.000001 0.163209 0.000000 -0.205544 -0.000000 -0.000000 -0.020211 0.000000 -0.000112 -0.108730 0.000000 -0.013004 -0.000000 0.000000 -0.002403 -0.001063 -0.000000 0.000000 -0.069994 0.127416 0.190068 -0.000000 -0.000000 0.031341 -0.051361 0.000000 0.010499 -0.000000 -0.074589 0.030450 -0.003204 -0.022800 -0.000000 0.002292 0.183842 -0.000000 0.000000 0.000000 -0.000000 0.065552 -0.002420 0.000000 0.002257 0.000000 -0.043561 0.005379 0.032295 -0.023402 0.028267 0.000000 0.000000 -0.000000 0.000000 0.000000 0.008609 -0.011382 0.000000 0.000000 -0.000000 0.000000 0.000001 -0.000000 -0.006092 -0.003115 -0.000000 0.123268 -0.069586 -0.000000 -0.042245 0.000372 0.000000 0.000000 0.000000 0.000290 -0.000000 -0.000000 -0.000000 0.000000 -0.000000 -0.000000 0.047723 0.000000 -0.000880 0.000000 -0.031104 0.022660 0.019914 -0.000000 -0.009336 -0.086341 0.073290 -0.033425 -0.000001 -0.000000 -0.000000 -0.008879 0.043858 0.000000 -0.039377 -0.000000 0.160679 0.022997 -0.005901 0.164892 -0.031290 0.022943 -0.005102 -0.000000 0.099254 -0.045057 -0.001358 0.025943 0.007936 -0.009695 0.000000 0.010919 -0.073336 0.024803 0.000000 -0.000000 -0.000000 0.000000 0.000000 0.055456 0.000000 -0.000000 -0.000000 -0.000000 0.003631 -0.055745 0.000000 0.013446
-0.000000 -0.000000 -0.000000 0.000854 -0.000000 0.000032 -0.000000 -0.000000 0.039742 -0.000000 -0.020981 0.036217 -0.000000 -0.000107 0.094181 -0.000000 -0.036074 -0.003566 0.036555 -0.000006 -0.000000 0.000000 -0.040232 0.031745 0.000000 0.000000 -0.000000 0.035828 0.000002 -0.000000 0.000000 0.051703 0.000000 -0.016098 0.000001 0.000000 -0.000000 -0.000765 -0.035096 -0.000239 -0.000000 -0.000000 0.001477 -0.000000 0.040449 -0.000008 -0.000000 0.098021 0.000000 -0.104090 0.003797 -0.000001 -0.000000 -0.010634 0.002651 0.013153 0.086905 -0.028799 0.000000 -0.001433 -0.000000 -0.000000 0.001469 0.044096 0.024043 -0.000001 0.000000 -0.006378 -0.000005 0.083159 -0.000000 -0.092590 0.000000 0.000000 -0.005104 0.000000 -0.000000 -0.079696 0.000000 -0.000002 -0.000000 0.000000 0.000582 -0.013930 -0.000000 -0.000000 -0.105516 0.099958 0.067870 0.000000 -0.000000 0.033040 -0.061256 -0.000000 -0.000000 0.000266 -0.022168 0.028180 -0.000085 -0.000261 0.000000 -0.042053 0.004718 0.000000 0.000000 0.000000 0.000000 0.009307 -0.000000 -0.000000 -0.000000 0.000000 -0.001672 0.039168 0.029491 -0.038991 0.003774 -0.000004 0.000001 -0.000000 0.000000 0.000000 0.026756 -0.000000 0.000000 0.000000 0.000000 -0.000004 0.000001 0.000000 -0.000032 -0.000004 -0.000000 0.089674 -0.041236 0.000000 -0.000005 0.000000 0.000000 0.000000 -0.000000 -0.000000 0.000000 0.000000 -0.000000 0.000000 -0.000963 0.000000 0.015421 -0.000000 0.000001 -0.000000 -0.034280 0.025272 -0.037946 -0.000345 -0.000297 -0.024066 0.000001 -0.037160 -0.002070 0.000000 0.000000 0.000004 -0.000000 -0.000000 -0.004565 0.000000 -0.001832 0.000603 -0.000000 0.010541 -0.033832 0.074844 -0.014756 0.000000 0.075380 -0.015392 0.000000 0.025724 0.039944 0.028835 0.000000 -0.001775 -0.040096 0.005413 0.000001 0.000000 0.000000 0.000000 -0.000000 0.021488 -0.000000 -0.000000 0.000000 -0.000000 0.003914 -0.083201 0.000000 -0.028895
-0.000000 -0.000000 -0.000000 0.000000 0.000000 -0.000000 0.000000 0.000000 -0.009821 -0.000000 0.027651 0.096335 -0.000000 -0.073074 0.043009 0.000000 -0.027380 -0.044039 0.041778 -0.000210 -0.000000 -0.000000 -0.056819 0.032625 -0.000000 -0.000000 0.000027 0.030867 -0.000000 -0.000000 0.000008 0.096863 0.000000 0.000000 -0.000000 0.000000 -0.000000 -0.000000 -0.031669 0.043050 -0.000000 -0.000000 -0.000868 0.000000 -0.044374 -0.000648 0.000000 0.011932 -0.029979 -0.130388 0.010253 -0.089136 -0.000000 0.007022 0.056035 0.029590 0.000641 -0.010228 -0.000000 -0.041581 -0.000000 0.000000 0.000000 0.033981 0.029938 -0.041989 -0.000000 -0.000000 0.000000 0.077751 -0.000000 -0.000000 0.000000 -0.000000 -0.000000 -0.000000 -0.000000 -0.065565 0.000000 0.000000 -0.000000 -0.086658 0.000003 -0.000000 -0.000000 -0.000000 -0.043862 0.088636 0.031610 -0.000000 0.000000 0.194878 0.066710 -0.000000 -0.002228 -0.000042 0.000000 -0.032421 0.000000 0.000000 -0.000000 -0.075012 -0.019686 -0.029552 0.000000 -0.000000 0.000000 0.003181 -0.001872 -0.000000 -0.000000 0.042932 -0.001956 0.082636 -0.008292 -0.032773 0.000000 0.000000 -0.000158 -0.000000 -0.000000 -0.000000 0.034975 0.000000 -0.000000 0.000000 0.000000 0.000004 -0.002974 0.000000 0.000000 0.000000 -0.030524 0.038535 -0.064473 0.000000 0.000000 0.000000 -0.000000 0.000000 0.000000 0.000000 -0.000000 0.000000 0.000000 0.000000 0.032972 -0.000000 -0.015540 0.000000 0.000001 0.000000 -0.052368 0.047950 -0.000004 -0.000679 0.000000 -0.165622 -0.000000 -0.073133 -0.003800 -0.000000 -0.001181 0.000000 -0.000000 -0.000000 0.039441 0.000000 0.052649 0.047541 0.000000 -0.000023 -0.063469 0.016326 -0.000495 0.000000 0.070672 0.065636 -0.000000 0.000000 0.072315 -0.000462 0.000000 0.000000 -0.019111 0.000000 -0.031504 -0.000000 -0.000000 0.000000 0.039634 -0.000001 -0.000000 -0.000000 0.000000 0.000000 0.008416 -0.019132 -0.000000 0.017111
-0.000000 -0.000000 -0.002710 0.000000 0.000000 -0.000000 0.000007 0.000000 -0.039339 -0.000000 0.078846 0.080818 -0.000000 -0.068791 0.016841 -0.000000 -0.045203 -0.013124 -0.000145 0.000017 0.000000 0.000000 -0.000179 0.063090 -0.000000 -0.000000 0.038472 -0.002250 0.000000 0.000000 0.000000 0.126974 0.000000 -0.000000 0.000000 0.000000 0.000000 0.000000 0.000000 0.057177 0.000000 -0.000000 0.000327 -0.000000 -0.046646 -0.000153 -0.000241 0.022292 -0.029047 -0.129208 0.001228 -0.040318 0.000000 0.003158 0.050103 0.049954 0.033881 -0.000008 -0.000000 -0.040218 -0.000000 0.000000 0.001471 0.000000 0.000242 -0.069390 -0.000000 0.000000 -0.003372 0.041963 -0.000000 -0.000000 -0.000000 -0.000010 0.000000 0.000000 0.000000 -0.040170 -0.000000 -0.000000 0.000000 -0.009261 -0.006790 -0.000000 0.000000 -0.000000 -0.020151 0.069241 -0.005381 -0.000000 -0.000000 0.129493 0.060001 0.000000 0.012324 0.000000 -0.000000 -0.039528 -0.000000 0.000000 -0.000000 -0.029548 -0.030745 -0.028365 0.000000 -0.000000 -0.000000 0.018259 0.007754 0.000000 -0.000000 0.037392 0.008324 0.110502 -0.063903 -0.000000 0.000001 0.000000 -0.000000 -0.003171 -0.000000 0.000000 0.016980 0.000000 0.000000 0.000000 0.000000 -0.010867 -0.015414 -0.000000 0.000000 -0.000000 -0.029861 0.089849 -0.051878 0.000000 0.000000 0.000000 -0.000000 0.000000 -0.000000 0.000000 -0.000000 0.009369 0.000000 0.000000 0.031174 -0.000000 -0.021616 0.000000 -0.009587 0.000000 -0.022477 0.029513 0.001297 -0.000000 0.000000 -0.070220 0.000001 -0.044995 -0.000331 0.000000 -0.004410 0.000055 -0.000000 0.000000 0.042505 0.000000 0.050592 0.038110 0.000000 -0.012084 -0.043507 0.004399 -0.001675 -0.000000 0.100420 0.037374 0.000000 0.000368 0.016985 -0.022877 0.000000 -0.000000 -0.000412 0.000000 -0.031112 -0.000000 0.000000 0.000000 0.035009 -0.013153 -0.000000 -0.000000 0.000000 0.000000 0.000097 -0.025885 0.000000 0.060218
0.000000 0.000000 -0.058569 0.000000 -0.000000 0.000000 0.016749 0.000000 0.031359 0.000000 0.044798 0.000000 -0.000000 0.000000 0.038231 0.000000 -0.012562 -0.024240 -0.001194 0.000010 -0.000000 0.000000 -0.000000 0.019498 0.000000 -0.000000 0.032672 0.065734 -0.000000 0.000000 0.000000 0.087934 -0.000000 -0.000000 0.000000 0.000000 -0.000000 0.000000 0.000000 -0.000000 -0.000000 0.000000 0.000000 0.000000 -0.023722 -0.042908 0.064059 0.135539 -0.000000 -0.096461 0.000000 -0.000079 -0.000000 -0.000000 0.025738 0.007154 0.062726 -0.000000 0.000000 -0.062753 0.000000 -0.000000 0.003973 -0.000000 0.028063 -0.076243 -0.000000 0.000000 -0.040433 0.073471 0.000000 -0.000000 -0.000000 -0.000000 0.000000 0.000000 0.000000 -0.016646 0.000000 -0.000000 -0.000000 0.009651 0.032241 0.000000 0.000000 -0.000000 -0.076162 0.101052 -0.000296 -0.000000 0.000000 0.018466 -0.000003 -0.000000 0.000000 -0.000000 -0.000001 0.000020 -0.000000 0.000000 0.000000 -0.056527 -0.081207 0.000000 -0.000000 0.000000 -0.000000 0.041070 -0.012767 0.000000 -0.000000 -0.000000 -0.030476 0.090163 -0.053355 -0.000000 0.000000 0.000000 -0.000000 -0.000296 -0.000000 -0.000000 -0.000000 -0.000000 -0.000000 0.000000 0.000000 -0.012935 0.000371 -0.000000 0.000000 0.000000 -0.000000 0.086777 -0.000000 0.000000 0.000000 0.000000 -0.000000 0.000000 0.000000 -0.000000 -0.000000 0.000000 -0.000000 0.000000 0.000000 -0.000000 -0.002294 0.000000 -0.000403 0.000000 -0.050361 -0.020371 0.022463 -0.000003 0.000000 -0.089308 0.000000 -0.000025 -0.000000 0.000000 -0.000000 0.000000 0.000000 0.000000 -0.000000 -0.000000 -0.010140 -0.000000 -0.000000 -0.008156 -0.046866 0.031916 -0.031525 -0.000000 0.054222 0.054402 -0.000000 0.018378 0.018809 0.008267 0.000000 -0.000000 0.000000 0.000000 0.000000 -0.000000 0.000000 0.000000 0.000136 -0.003105 -0.000000 0.000000 0.000000 0.000000 0.000000 -0.037156 -0.000000 -0.016177
0.000000 -0.000000 -0.052014 0.000000 -0.000000 -0.000000 0.019045 -0.000000 0.041752 0.000000 0.042579 0.000000 -0.000000 -0.000000 0.037333 -0.000000 -0.000491 -0.032240 0.002545 -0.000000 0.000000 0.000000 -0.000000 -0.007971 -0.000000 0.000000 -0.010929 0.069081 -0.000000 -0.000000 -0.000000 0.071881 0.000000 0.000000 0.000000 -0.000000 0.000000 0.000000 0.000000 -0.000000 -0.000000 -0.000000 0.000001 0.000000 -0.025815 -0.048417 0.056918 0.092220 0.000000 -0.085530 -0.000000 0.000000 -0.000000 -0.000000 0.060694 0.026772 0.019664 -0.000000 0.000000 -0.068138 0.000000 0.000000 0.008003 0.000000 0.072542 -0.084954 -0.000000 0.000000 -0.036450 0.079715 0.000000 -0.000000 0.000000 0.000000 -0.000000 -0.000000 -0.000000 -0.050668 -0.000000 -0.000000 0.000000 -0.027768 0.074776 0.000000 -0.000000 -0.000000 -0.090391 0.072426 0.000003 0.000000 -0.000000 0.010502 -0.000000 0.000000 -0.000000 -0.000000 -0.000001 0.000040 -0.000000 -0.000000 -0.000000 -0.056200 -0.045728 -0.000000 -0.000000 -0.000000 0.000000 0.000002 -0.030588 0.000000 0.000000 -0.000000 -0.028122 0.058696 -0.056153 -0.000000 -0.000000 -0.000000 -0.000000 -0.000000 -0.000000 -0.000000 -0.000000 0.000000 -0.000000 -0.000000 -0.000000 -0.030025 -0.000000 -0.000000 0.000000 0.000000 -0.000000 0.048188 0.000000 -0.000000 -0.000000 0.000000 0.000000 -0.000000 -0.000000 0.000000 0.000000 -0.000000 -0.000000 -0.000000 -0.000000 -0.000000 -0.025243 0.000000 -0.000000 -0.000000 -0.047904 -0.045677 0.014091 -0.000018 0.000000 -0.108010 0.000000 -0.000001 -0.000000 0.000000 -0.000000 0.000000 0.000000 0.000000 -0.000000 -0.000000 -0.000000 -0.000000 -0.000000 -0.000000 -0.026306 0.035036 -0.035231 -0.000000 0.066044 0.060531 0.000000 -0.009058 0.013023 -0.000361 -0.000000 -0.000000 0.000000 0.000000 -0.000000 -0.000000 0.000000 0.000000 0.000406 -0.000000 0.000000 -0.000000 -0.000000 0.000000 0.000000 -0.032242 0.000000 0.009056
-0.000000 -0.000000 -0.006038 0.000000 -0.000000 -0.000000 0.000066 -0.000000 0.001924 0.000000 0.000243 0.000000 -0.000000 0.000000 0.007142 -0.000000 0.000001 -0.000000 0.000000 -0.000000 -0.000000 0.000000 -0.000000 0.000014 -0.000000 0.000000 -0.001282 0.005018 0.000000 -0.000000 -0.000000 0.007570 -0.000000 0.000000 -0.000000 -0.000000 -0.000000 -0.000000 -0.000000 -0.000000 -0.000000 0.000000 0.000000 0.000000 -0.002581 -0.000367 0.001725 0.011662 -0.000000 -0.008703 -0.000000 0.000000 0.000000 -0.000000 0.000447 0.000037 0.005143 -0.000000 0.000000 -0.002832 -0.000000 -0.000000 0.000000 -0.000000 0.000983 -0.024243 -0.000000 0.000000 -0.000014 0.001030 0.000000 0.000000 0.000000 0.000000 0.000000 -0.000000 0.000000 -0.000034 -0.000000 -0.000000 -0.000000 -0.008054 0.001730 -0.000000 -0.000000 -0.000000 -0.025925 0.003741 0.000000 0.000000 0.000000 -0.000001 -0.000000 -0.000000 -0.000000 0.000000 0.000000 0.000000 0.000000 -0.000000 -0.000000 -0.000177 -0.000789 -0.000000 -0.000000 -0.000000 -0.000000 0.000000 -0.002639 0.000000 -0.000000 -0.000000 -0.000023 0.000905 -0.002264 0.000000 -0.000000 -0.000000 -0.000000 -0.000000 0.000000 0.000000 -0.000000 -0.000000 -0.000000 -0.000000 -0.000000 -0.000000 0.000000 0.000000 0.000000 -0.000000 -0.000000 0.000615 0.000000 0.000000 0.000000 -0.000000 0.000000 0.000000 0.000000 0.000000 0.000000 0.000000 0.000000 -0.000000 -0.000000 0.000000 0.000210 -0.000000 0.000000 0.000000 -0.000165 -0.000034 0.000263 -0.000000 -0.000000 -0.007021 0.000000 -0.000000 0.000000 -0.000000 -0.000000 -0.000000 0.000000 0.000000 0.000000 0.000000 0.000000 -0.000000 -0.000000 -0.000000 -0.003187 0.000072 -0.000835 -0.000000 0.003595 0.001470 0.000000 -0.000004 -0.000000 -0.000510 0.000000 -0.000000 0.000000 -0.000000 -0.000000 -0.000000 -0.000000 0.000000 0.000000 0.000000 -0.000000 -0.000000 -0.000000 0.000000 0.000000 -0.000004 -0.000000 0.001199
